\data\
ngram 1=1017
ngram 2=1947
ngram 3=2046

\1-grams:
-3.31293	<unk>	0
0	<s>	-3.6097198
-1.3405305	</s>	0
-2.6998162	Musharraf's	-0.028210862
-2.965754	Last	-0.028210862
-3.242214	Act?	-0.028210862
-3.242214	Desperate	-0.028210862
-1.5743122	to	-0.08431312
-3.242214	hold	-0.028210862
-3.242214	onto	-0.028210862
-3.242214	power,	-0.028210862
-2.965754	Pervez	-0.028210862
-1.9908093	Musharraf	-0.07241225
-2.5195146	has	-0.062686644
-3.242214	discarded	-0.028210862
-2.1792336	Pakistan's	-0.050888
-3.0137274	constitutional	-0.028210862
-3.242214	framework	-0.028210862
-1.5660218	and	-0.10277658
-2.965754	declared	-0.028210862
-1.7995983	a	-0.038530324
-3.242214	state	-0.028210862
-1.5343573	of	-0.18415454
-3.242214	emergency.	-0.028210862
-3.242214	His	-0.028210862
-3.242214	goal?	-0.028210862
-3.242214	To	-0.028210862
-3.242214	stifle	-0.028210862
-1.4705701	the	-0.10214621
-3.242214	independent	-0.028210862
-3.0137274	judiciary	-0.18638687
-3.0137274	free	-0.028210862
-3.0137274	media.	-0.2806611
-3.242214	Artfully,	-0.028210862
-3.0137274	though	-0.028210862
-3.242214	shamelessly,	-0.028210862
-2.2524807	he	-0.068294354
-2.965754	tried	-0.29412016
-3.242214	sell	-0.028210862
-2.4513724	this	-0.07481483
-3.242214	action	-0.028210862
-2.1165757	as	-0.10668481
-2.392486	an	-0.0838389
-3.242214	effort	-0.028210862
-2.965754	bring	-0.028210862
-3.0137274	about	-0.028210862
-2.965754	stability	-0.028210862
-3.0137274	help	-0.028210862
-2.965754	fight	-0.18638687
-2.965754	war	-0.29412016
-2.1467757	on	-0.110027
-3.242214	terror	-0.028210862
-2.965754	more	-0.028210862
-3.242214	effectively.	-0.028210862
-3.242214	Nothing	-0.028210862
-2.965754	could	-0.028210862
-2.2943268	be	-0.028210862
-2.965754	further	-0.028210862
-2.4513724	from	-0.10668481
-3.242214	truth.	-0.028210862
-3.242214	If	-0.028210862
-3.242214	history	-0.028210862
-1.9491912	is	-0.12416171
-3.242214	any	-0.028210862
-3.242214	indicator,	-0.028210862
-2.0883398	his	-0.047575045
-2.6998162	decision	-0.11607086
-3.242214	impose	-0.028210862
-3.242214	martial	-0.028210862
-3.0137274	law	-0.18638687
-2.8290064	may	-0.14112434
-3.242214	prove	-0.028210862
-3.242214	proverbial	-0.028210862
-3.242214	straw	-0.028210862
-1.9908093	that	-0.12393363
-3.242214	breaks	-0.028210862
-3.242214	camel's	-0.028210862
-3.242214	back.	-0.028210862
-2.965754	General	-0.028210862
-3.242214	appeared	-0.028210862
-3.242214	national	-0.028210862
-3.242214	scene	-0.028210862
-2.965754	October	-0.028210862
-3.242214	12,	-0.028210862
-3.242214	1999,	-0.028210862
-2.965754	when	-0.028210862
-3.242214	ousted	-0.028210862
-2.965754	elected	-0.028210862
-2.392486	government	-0.028210862
-2.965754	announced	-0.028210862
-3.242214	ambitious	-0.028210862
-3.242214	"nation-building"	-0.028210862
-3.242214	project.	-0.028210862
-3.242214	Many	-0.028210862
-3.242214	Pakistanis,	-0.028210862
-3.242214	disillusioned	-0.028210862
-1.9297881	with	-0.110749386
-2.1467757	political	-0.13028333
-3.242214	class,	-0.028210862
-2.965754	remained	-0.028210862
-3.242214	mute,	-0.028210862
-3.242214	thinking	-0.028210862
-2.965754	might	-0.028210862
-3.242214	deliver.	-0.028210862
-3.242214	The	-0.028210862
-2.965754	September	-0.028210862
-3.242214	11,	-0.028210862
-3.242214	2001,	-0.028210862
-3.0137274	terrorist	-0.028210862
-3.242214	attacks	-0.028210862
-2.965754	America	-0.028210862
-2.965754	brought	-0.028210862
-2.965754	into	-0.29412016
-3.242214	international	-0.028210862
-3.242214	limelight	-0.028210862
-3.242214	agreed	-0.028210862
-3.242214	ditch	-0.028210862
-3.0137274	Taliban	-0.14112434
-2.8290064	support	-0.028210862
-3.242214	United	-0.028210862
-3.242214	States-led	-0.028210862
-3.242214	terror.	-0.028210862
-3.242214	clamped	-0.028210862
-3.242214	down	-0.028210862
-2.8290064	some	-0.028210862
-2.6003752	religious	-0.10013707
-3.242214	militants	-0.028210862
-3.242214	operating	-0.028210862
-2.965754	inside	-0.028210862
-2.5195146	Pakistan	-0.0659609
-2.6998162	also	-0.028210862
-2.965754	those	-0.028210862
-2.965754	fighting	-0.028210862
-3.242214	Indian	-0.028210862
-2.6003752	forces	-0.08910339
-1.7593403	in	-0.22491024
-3.242214	Kashmir.	-0.028210862
-3.242214	As	-0.028210862
-3.242214	result,	-0.028210862
-2.2143147	was	-0.028210834
-3.242214	rewarded	-0.028210862
-3.0137274	American	-0.028210862
-3.242214	financial	-0.028210862
-3.242214	assistance	-0.028210862
-3.242214	arms.	-0.028210862
-3.242214	In	-0.028210862
-3.242214	furtherance	-0.028210862
-3.242214	re-alignment,	-0.028210862
-3.242214	sent	-0.028210862
-2.965754	Pakistani	-0.028210862
-2.965754	army	-0.028210862
-3.242214	tribal	-0.028210862
-3.242214	areas	-0.028210862
-3.242214	bordering	-0.028210862
-3.0137274	Afghanistan	-0.028210862
-2.2143147	for	-0.068294354
-3.0137274	first	-0.028210862
-3.242214	time	-0.028210862
-3.0137274	since	-0.028210862
-3.242214	independence.	-0.028210862
-3.242214	Operations	-0.028210862
-3.242214	there	-0.028210862
-2.6003752	against	-0.028210862
-3.242214	al-Qaeda	-0.028210862
-3.242214	mixed	-0.028210862
-3.242214	results.	-0.028210862
-3.242214	Although	-0.028210862
-3.0137274	US	-0.028210862
-2.965754	viewed	-0.028210862
-3.242214	agent	-0.028210862
-3.242214	change,	-0.028210862
-3.242214	never	-0.028210862
-3.242214	achieved	-0.028210862
-2.965754	domestic	-0.028210862
-3.242214	legitimacy,	-0.028210862
-3.242214	policies	-0.028210862
-2.6003752	were	-0.028210862
-2.965754	seen	-0.028210862
-3.242214	rife	-0.028210862
-3.242214	contradictions.	-0.028210862
-3.242214	For	-0.028210862
-2.965754	example,	-0.028210862
-3.0137274	made	-0.028210862
-3.242214	alliances	-0.028210862
-3.242214	Islamist	-0.028210862
-3.242214	(who	-0.028210862
-3.242214	2004	-0.028210862
-3.242214	voted	-0.028210862
-3.242214	changes	-0.028210862
-3.242214	legitimizing	-0.028210862
-3.0137274	position	-0.028210862
-3.242214	actions).	-0.028210862
-3.242214	At	-0.028210862
-3.242214	same	-0.028210862
-2.965754	time,	-0.028210862
-3.242214	sidelined	-0.028210862
-3.242214	moderate,	-0.028210862
-3.242214	mainstream	-0.028210862
-3.242214	leaders	-0.028210862
-2.965754	while	-0.028210862
-3.242214	claiming	-0.028210862
-3.242214	stood	-0.028210862
-3.242214	"enlightened	-0.028210862
-3.242214	moderation."	-0.028210862
-3.242214	A	-0.028210862
-3.242214	series	-0.028210862
-3.242214	ill-planned	-0.028210862
-2.340639	military	-0.028210862
-2.965754	operations	-0.29412016
-3.242214	complicated	-0.028210862
-2.965754	situation	-0.028210862
-3.242214	volatile	-0.028210862
-3.242214	border	-0.028210862
-3.242214	region.	-0.028210862
-3.242214	March,	-0.028210862
-2.965754	took	-0.028210862
-3.242214	boldest	-0.028210862
-3.242214	step,	-0.028210862
-2.965754	removing	-0.29412016
-3.242214	Chief	-0.028210862
-3.242214	Justice	-0.028210862
-3.242214	Supreme	-0.028210862
-3.242214	Court,	-0.028210862
-3.242214	Iftikhar	-0.028210862
-3.242214	Chaudhry.	-0.028210862
-3.242214	surprise	-0.028210862
-3.242214	many,	-0.028210862
-3.242214	country's	-0.028210862
-3.242214	legal	-0.028210862
-3.242214	community	-0.028210862
-3.242214	organized	-0.028210862
-3.242214	nation-wide	-0.028210862
-3.242214	movement	-0.028210862
-3.242214	restore	-0.028210862
-3.242214	post.	-0.028210862
-3.242214	Hundreds	-0.028210862
-3.242214	thousands	-0.028210862
-3.242214	ordinary	-0.028210862
-2.965754	people	-0.028210862
-3.242214	demanded	-0.028210862
-2.965754	rule	-0.028210862
-3.242214	supremacy	-0.028210862
-3.242214	constitution,	-0.028210862
-3.242214	emboldening	-0.028210862
-3.242214	changing	-0.028210862
-3.242214	dynamic.	-0.028210862
-3.242214	historic	-0.028210862
-2.965754	ruling	-0.028210862
-2.8290064	had	-0.028210862
-3.242214	little	-0.028210862
-3.242214	choice	-0.028210862
-2.392486	but	-0.028210888
-3.242214	accept,	-0.028210862
-3.242214	Court	-0.028210862
-3.242214	itself	-0.028210862
-3.242214	reinstated	-0.028210862
-3.242214	July.	-0.028210862
-3.242214	Subsequently,	-0.028210862
-3.242214	energized	-0.028210862
-3.242214	continued	-0.028210862
-3.242214	decisions,	-0.028210862
-3.242214	embarrassing	-0.028210862
-2.2943268	--	-0.028210862
-3.0137274	especially	-0.028210862
-2.6003752	its	-0.028210862
-3.0137274	intelligence	-0.028210862
-3.242214	agencies.	-0.028210862
-3.242214	Government	-0.028210862
-3.242214	officials	-0.028210862
-3.242214	held	-0.028210862
-3.242214	accountable	-0.028210862
-3.242214	actions	-0.028210862
-3.242214	usually	-0.028210862
-3.242214	beyond	-0.028210862
-3.242214	reach	-0.028210862
-3.242214	law,	-0.028210862
-3.242214	ranging	-0.028210862
-3.242214	brutal	-0.028210862
-3.242214	beatings	-0.028210862
-3.242214	journalists,	-0.028210862
-3.242214	illegal	-0.028210862
-3.242214	confinement	-0.028210862
-3.242214	"national	-0.028210862
-3.242214	security."	-0.028210862
-3.242214	allies	-0.028210862
-3.242214	adjust	-0.028210862
-2.6998162	new	-0.10013707
-2.965754	reality,	-0.028210862
-3.242214	their	-0.028210862
-3.242214	patience	-0.028210862
-3.242214	ran	-0.028210862
-2.965754	out	-0.028210862
-3.0137274	up	-0.028210862
-3.242214	petitions	-0.028210862
-2.965754	run	-0.29412016
-3.0137274	president.	-0.2806611
-3.242214	According	-0.028210862
-3.242214	constitution	-0.028210862
-3.242214	(originally	-0.028210862
-3.242214	promulgated	-0.028210862
-3.242214	1973	-0.028210862
-2.2524807	by	-0.028210862
-3.242214	parliament),	-0.028210862
-3.242214	serving	-0.028210862
-3.242214	official	-0.028210862
-2.965754	cannot	-0.028210862
-3.242214	office.	-0.028210862
-2.6003752	not	-0.08910339
-3.242214	ready	-0.028210862
-2.965754	give	-0.29412016
-3.242214	post,	-0.028210862
-2.965754	wanted	-0.028210862
-3.242214	civilian	-0.028210862
-3.242214	While	-0.028210862
-2.6998162	would	-0.028210862
-3.242214	leave	-0.028210862
-3.242214	"if"	-0.028210862
-3.242214	president,	-0.028210862
-3.242214	track	-0.028210862
-3.242214	record	-0.028210862
-3.242214	reneging	-0.028210862
-3.242214	promises	-0.028210862
-3.242214	haunted	-0.028210862
-3.242214	judiciary.	-0.028210862
-3.242214	proceedings	-0.028210862
-3.242214	court	-0.028210862
-3.0137274	over	-0.028210862
-3.242214	last	-0.028210862
-2.965754	few	-0.028210862
-3.242214	weeks	-0.028210862
-3.242214	jittery.	-0.028210862
-3.242214	11-member	-0.028210862
-3.242214	bench	-0.028210862
-3.242214	easily	-0.028210862
-2.8290064	have	-0.028210862
-3.242214	gone	-0.028210862
-3.242214	him.	-0.028210862
-3.242214	Legally	-0.028210862
-3.242214	cornered,	-0.028210862
-3.242214	now	-0.028210862
-3.0137274	decided	-0.2806611
-3.242214	abandon	-0.028210862
-3.242214	constitutionality,	-0.028210862
-3.242214	leading	-0.028210862
-3.0137274	judges	-0.028210862
-3.242214	provincial	-0.028210862
-3.242214	high	-0.028210862
-3.242214	courts	-0.028210862
-3.242214	putting	-0.028210862
-3.242214	curbs	-0.028210862
-3.242214	Lawyers,	-0.028210862
-3.242214	human	-0.028210862
-3.0137274	rights	-0.028210862
-3.242214	activists,	-0.028210862
-2.965754	been	-0.028210862
-3.242214	arrested.	-0.028210862
-3.242214	There	-0.028210862
-3.242214	widespread	-0.028210862
-3.0137274	public	-0.028210862
-3.242214	resentment	-0.028210862
-3.242214	response	-0.028210862
-2.965754	these	-0.028210862
-3.242214	moves.	-0.028210862
-3.242214	Rather	-0.028210862
-3.242214	than	-0.028210862
-3.242214	taking	-0.028210862
-2.965754	responsibility	-0.29412016
-3.242214	deteriorating	-0.028210862
-2.965754	security	-0.028210862
-3.242214	(as	-0.028210862
-3.242214	evidenced	-0.028210862
-3.242214	regular	-0.028210862
-3.0137274	suicide	-0.028210862
-3.242214	bomb	-0.028210862
-3.242214	attacks)	-0.028210862
-3.242214	increasing	-0.028210862
-3.242214	Talibanization	-0.028210862
-3.242214	areas,	-0.028210862
-3.242214	blame	-0.028210862
-3.242214	sure,	-0.028210862
-3.242214	cases,	-0.028210862
-3.242214	judicial	-0.028210862
-3.242214	activism	-0.028210862
-3.242214	obvious	-0.028210862
-3.242214	(though	-0.028210862
-3.242214	within	-0.028210862
-3.242214	realm	-0.028210862
-3.242214	law),	-0.028210862
-2.965754	media	-0.028210862
-3.242214	mistakes;	-0.028210862
-3.242214	no	-0.028210862
-3.242214	stretch	-0.028210862
-3.242214	imagination	-0.028210862
-2.8290064	can	-0.028210862
-3.242214	linked	-0.028210862
-3.242214	extremism	-0.028210862
-2.8290064	or	-0.028210862
-3.242214	militancy.	-0.028210862
-3.242214	It	-0.028210862
-3.242214	unlikely	-0.028210862
-3.242214	latest	-0.028210862
-3.242214	gambit	-0.028210862
-2.6998162	will	-0.11607086
-3.242214	succeed,	-0.028210862
-3.242214	popular	-0.028210862
-2.965754	at	-0.028210862
-3.242214	lowest	-0.028210862
-3.242214	ebb.	-0.028210862
-3.242214	armed	-0.028210862
-3.242214	repeated	-0.028210862
-3.242214	targets	-0.028210862
-3.242214	bombers	-0.028210862
-2.965754	become	-0.028210862
-3.242214	demoralized.	-0.028210862
-3.242214	difficult	-0.028210862
-3.242214	imagine	-0.028210862
-2.965754	them	-0.028210862
-3.242214	standing	-0.028210862
-3.0137274	should	-0.028210862
-3.242214	civil	-0.028210862
-3.242214	conflict	-0.028210862
-3.242214	erupt.	-0.028210862
-3.242214	Nor	-0.028210862
-3.242214	weak,	-0.028210862
-3.242214	embattled,	-0.028210862
-3.242214	disoriented	-0.028210862
-2.965754	expected	-0.29412016
-3.242214	Islamic	-0.028210862
-3.242214	militancy	-0.028210862
-3.242214	effectively	-0.028210862
-2.8290064	Pakistan.	-0.40559983
-3.242214	Opposition	-0.028210862
-3.242214	parties	-0.028210862
-2.8290064	are	-0.028210862
-3.242214	drawing	-0.028210862
-3.242214	closer	-0.028210862
-3.242214	together,	-0.028210862
-2.965754	former	-0.028210862
-3.242214	Prime	-0.028210862
-3.242214	Minister	-0.028210862
-2.8290064	Benazir	-0.14112434
-2.965754	Bhutto,	-0.18638687
-2.965754	despite	-0.028210862
-3.242214	progress	-0.028210862
-2.2943268	her	-0.028210862
-3.242214	power-sharing	-0.028210862
-3.242214	negotiations	-0.028210862
-3.242214	Musharraf,	-0.028210862
-3.242214	strongly	-0.028210862
-3.242214	condemned	-0.028210862
-3.242214	actions.	-0.028210862
-3.242214	Human	-0.028210862
-3.242214	bodies,	-0.028210862
-3.242214	associations,	-0.028210862
-3.242214	lawyers'	-0.028210862
-3.242214	organizations	-0.028210862
-3.242214	defy	-0.028210862
-3.242214	emergency,	-0.028210862
-2.6003752	which	-0.10013707
-3.242214	pit	-0.028210862
-3.242214	forces.	-0.028210862
-3.242214	Terrorists	-0.028210862
-3.242214	benefit	-0.028210862
-3.242214	attacking	-0.028210862
-3.242214	preoccupied	-0.028210862
-3.242214	aligned	-0.028210862
-2.965754	Musharraf.	-0.29412016
-3.242214	event	-0.028210862
-3.242214	sustained	-0.028210862
-3.242214	protests	-0.028210862
-3.242214	potential	-0.028210862
-3.242214	violence,	-0.028210862
-3.0137274	top	-0.028210862
-3.242214	commanders	-0.028210862
-3.242214	decide	-0.028210862
-3.242214	send	-0.028210862
-3.242214	home	-0.028210862
-3.242214	unprecedented	-0.028210862
-3.242214	chronically	-0.028210862
-3.242214	turbulent	-0.028210862
-3.242214	history.	-0.028210862
-3.242214	Making	-0.028210862
-3.242214	Murder	-0.028210862
-3.242214	assassination	-0.028210862
-2.965754	Muslim	-0.028210862
-3.242214	woman	-0.028210862
-3.242214	lead	-0.028210862
-2.965754	country,	-0.028210862
-2.965754	serious	-0.028210862
-3.242214	blow	-0.028210862
-3.242214	prospects	-0.028210862
-3.0137274	democracy	-0.028210862
-2.965754	and,	-0.028210862
-3.242214	indeed,	-0.028210862
-3.242214	viability	-0.028210862
-3.242214	state.	-0.028210862
-3.242214	chaos	-0.028210862
-3.242214	confusion	-0.028210862
-3.242214	set	-0.028210862
-3.242214	in,	-0.028210862
-3.242214	we	-0.028210862
-3.242214	lose	-0.028210862
-3.242214	sight	-0.028210862
-2.965754	President	-0.028210862
-3.242214	partial	-0.028210862
-3.242214	turn	-0.028210862
-3.242214	events.	-0.028210862
-3.242214	very	-0.028210862
-3.242214	least,	-0.028210862
-3.242214	absolved	-0.028210862
-3.242214	government's	-0.028210862
-2.965754	failure	-0.29412016
-3.242214	provide	-0.028210862
-2.8290064	Bhutto	-0.028210862
-3.242214	adequate	-0.028210862
-3.242214	security.	-0.028210862
-3.242214	Instead,	-0.028210862
-3.242214	pay	-0.028210862
-3.242214	life	-0.028210862
-3.242214	courageously	-0.028210862
-3.242214	challenging	-0.028210862
-2.965754	extremists	-0.028210862
-3.242214	all	-0.028210862
-3.242214	stripes	-0.028210862
-2.965754	Al-Qaeda	-0.29412016
-3.242214	hardliners.	-0.028210862
-3.242214	heir	-0.028210862
-3.242214	Zulfikar	-0.028210862
-3.242214	Ali	-0.028210862
-3.242214	legendary	-0.028210862
-2.6998162	democratic	-0.028210862
-3.0137274	leader	-0.2806611
-3.242214	who	-0.028210862
-3.242214	hanged	-0.028210862
-3.242214	Muhammad	-0.028210862
-3.242214	Zia-ul-Haq's	-0.028210862
-3.242214	1979,	-0.028210862
-3.242214	emerged	-0.028210862
-3.242214	symbol	-0.028210862
-3.242214	resistance	-0.028210862
-3.242214	young	-0.028210862
-3.242214	age	-0.028210862
-3.242214	languished	-0.028210862
-3.242214	jails	-0.028210862
-3.242214	exile	-0.028210862
-3.242214	1980's.	-0.028210862
-3.242214	Z.	-0.028210862
-3.242214	A.	-0.028210862
-3.0137274	Bhutto's	-0.028210862
-3.242214	legacy	-0.028210862
-3.242214	empowerment	-0.028210862
-3.242214	impoverished	-0.028210862
-3.242214	defense	-0.028210862
-3.242214	people's	-0.028210862
-3.242214	amid	-0.028210862
-3.242214	feudalistic	-0.028210862
-3.0137274	politics	-0.028210862
-3.242214	rule.	-0.028210862
-3.242214	bowing	-0.028210862
-3.242214	junta,	-0.028210862
-3.242214	embraced	-0.028210862
-3.242214	gallows.	-0.028210862
-3.242214	Hours	-0.028210862
-2.965754	before	-0.028210862
-3.242214	hanging,	-0.028210862
-3.242214	allowed	-0.028210862
-3.242214	see	-0.028210862
-3.242214	father	-0.028210862
-3.242214	writing	-0.028210862
-3.242214	autobiography:	-0.028210862
-3.242214	"I	-0.028210862
-3.242214	told	-0.028210862
-3.242214	him	-0.028210862
-3.242214	my	-0.028210862
-3.242214	oath	-0.028210862
-3.242214	death	-0.028210862
-3.242214	cell,	-0.028210862
-3.242214	I	-0.028210862
-3.242214	carry	-0.028210862
-3.242214	work."	-0.028210862
-3.242214	She	-0.028210862
-3.242214	largely	-0.028210862
-3.242214	lived	-0.028210862
-3.242214	promise.	-0.028210862
-3.242214	Her	-0.028210862
-3.242214	stint	-0.028210862
-3.0137274	prime	-0.028210862
-3.0137274	minister	-0.028210862
-3.242214	(1988-90)	-0.028210862
-3.242214	brief	-0.028210862
-3.242214	disorganized.	-0.028210862
-3.242214	Lt.	-0.028210862
-3.242214	Gen.	-0.028210862
-3.242214	Hamid	-0.028210862
-3.242214	Gul,	-0.028210862
-3.242214	Inter-Services	-0.028210862
-3.242214	Intelligence	-0.028210862
-3.242214	(ISI)	-0.028210862
-3.242214	chief,	-0.028210862
-3.242214	confirmed	-0.028210862
-3.242214	sponsored	-0.028210862
-2.965754	alliance	-0.028210862
-3.242214	right-wing	-0.028210862
-3.242214	stop	-0.028210862
-3.242214	getting	-0.028210862
-3.242214	parliamentary	-0.028210862
-3.242214	majority.	-0.028210862
-3.242214	Information	-0.028210862
-3.242214	nuclear	-0.028210862
-3.242214	program	-0.028210862
-3.242214	ISI	-0.028210862
-3.242214	domain.	-0.028210862
-3.242214	second	-0.028210862
-3.242214	term	-0.028210862
-3.242214	office	-0.028210862
-3.242214	(1993-96)	-0.028210862
-3.242214	longer	-0.028210862
-3.242214	better,	-0.028210862
-3.242214	again	-0.028210862
-3.242214	fell	-0.028210862
-3.242214	early,	-0.028210862
-3.242214	owing	-0.028210862
-3.242214	charges	-0.028210862
-3.242214	mismanagement	-0.028210862
-3.242214	corruption.	-0.028210862
-3.242214	machinations	-0.028210862
-3.242214	agencies	-0.028210862
-2.965754	played	-0.028210862
-3.242214	part.	-0.028210862
-3.242214	developed	-0.028210862
-3.242214	entrenched	-0.028210862
-3.242214	distrust	-0.028210862
-2.965754	her,	-0.028210862
-3.242214	given	-0.028210862
-3.242214	popularly	-0.028210862
-3.242214	supported	-0.028210862
-3.242214	pro-Western	-0.028210862
-3.242214	peace	-0.028210862
-3.242214	India.	-0.028210862
-3.242214	After	-0.028210862
-3.242214	almost	-0.028210862
-3.242214	decade	-0.028210862
-3.242214	self-imposed	-0.028210862
-3.242214	exile,	-0.028210862
-3.242214	Bhutoo's	-0.028210862
-2.965754	return	-0.29412016
-3.242214	gave	-0.028210862
-3.242214	fresh	-0.028210862
-3.242214	start.	-0.028210862
-3.242214	changed,	-0.028210862
-3.242214	dictatorship	-0.028210862
-3.242214	north	-0.028210862
-3.242214	havoc	-0.028210862
-3.242214	fabric	-0.028210862
-3.242214	society.	-0.028210862
-3.242214	tentative	-0.028210862
-3.242214	arrangement	-0.028210862
-3.242214	together	-0.028210862
-3.242214	Western	-0.028210862
-3.242214	particularly	-0.028210862
-3.242214	Kingdom	-0.028210862
-3.242214	States	-0.028210862
-3.242214	eased	-0.028210862
-3.242214	return,	-0.028210862
-3.242214	hundreds	-0.028210862
-3.242214	welcomed,	-0.028210862
-3.242214	terrorists	-0.028210862
-3.242214	greeted	-0.028210862
-3.242214	string	-0.028210862
-3.242214	bombings.	-0.028210862
-3.242214	contacts	-0.028210862
-3.242214	Mushararf's	-0.028210862
-3.242214	drew	-0.028210862
-3.242214	criticism,	-0.028210862
-3.0137274	she	-0.028210862
-3.242214	adamant	-0.028210862
-3.242214	possible	-0.028210862
-2.965754	only	-0.028210862
-2.965754	through	-0.028210862
-3.242214	transition	-0.028210862
-3.242214	head	-0.028210862
-2.965754	state,	-0.028210862
-3.242214	conduct	-0.028210862
-3.242214	fair	-0.028210862
-3.242214	elections.	-0.028210862
-3.242214	dismay	-0.028210862
-3.242214	forces,	-0.028210862
-3.242214	stayed	-0.028210862
-3.242214	course	-0.028210862
-2.965754	even	-0.028210862
-3.242214	after	-0.028210862
-3.242214	imposed	-0.028210862
-3.242214	emergency	-0.028210862
-3.242214	November	-0.028210862
-3.242214	3	-0.028210862
-3.242214	removed	-0.028210862
-3.242214	ensure	-0.028210862
-3.242214	re-election.	-0.028210862
-3.242214	Indeed,	-0.028210862
-3.242214	persuaded	-0.028210862
-3.0137274	other	-0.028210862
-3.242214	important	-0.028210862
-3.242214	participate	-0.028210862
-3.242214	planned	-0.028210862
-3.242214	January	-0.028210862
-3.242214	8	-0.028210862
-3.242214	election,	-0.028210862
-2.965754	opportunity	-0.028210862
-3.242214	challenge	-0.028210862
-3.242214	extremist	-0.028210862
-3.242214	square.	-0.028210862
-3.242214	seized	-0.028210862
-3.242214	bravely	-0.028210862
-3.242214	traveling	-0.028210862
-3.242214	throughout	-0.028210862
-3.242214	threats	-0.028210862
-3.242214	life,	-0.028210862
-3.242214	arguing	-0.028210862
-3.242214	pluralistic	-0.028210862
-3.242214	One	-0.028210862
-3.242214	understand	-0.028210862
-3.242214	why	-0.028210862
-3.242214	like	-0.028210862
-3.242214	target	-0.028210862
-3.242214	claims	-0.028210862
-3.0137274	it	-0.18638687
-3.242214	impossible	-0.028210862
-3.242214	defend	-0.028210862
-3.242214	attack.	-0.028210862
-3.242214	But	-0.028210862
-3.242214	reportedly	-0.028210862
-3.242214	killed	-0.028210862
-3.242214	sharp	-0.028210862
-3.242214	shooter	-0.028210862
-3.242214	blew	-0.028210862
-2.965754	himself	-0.028210862
-3.242214	up.	-0.028210862
-3.242214	So,	-0.028210862
-3.242214	eyes	-0.028210862
-3.242214	people,	-0.028210862
-3.242214	supporters,	-0.028210862
-3.242214	services,	-0.028210862
-3.242214	either	-0.028210862
-3.242214	alone	-0.028210862
-3.242214	collaboration	-0.028210862
-3.242214	extremists,	-0.028210862
-3.242214	finally	-0.028210862
-3.242214	eliminate	-0.028210862
-3.242214	her.	-0.028210862
-3.242214	Whether	-0.028210862
-3.242214	involved,	-0.028210862
-3.242214	fact	-0.028210862
-3.242214	remains	-0.028210862
-3.242214	lost	-0.028210862
-3.242214	desperately	-0.028210862
-3.242214	needed	-0.028210862
-3.242214	leader.	-0.028210862
-3.242214	With	-0.028210862
-3.242214	future	-0.028210862
-3.242214	balance,	-0.028210862
-3.242214	West's	-0.028210862
-3.242214	crucial,	-0.028210862
-3.242214	means	-0.028210862
-3.242214	recognizing	-0.028210862
-3.242214	resolve	-0.028210862
-3.242214	myriad	-0.028210862
-3.242214	problems	-0.028210862
-3.242214	manage	-0.028210862
-3.242214	On	-0.028210862
-3.242214	contrary,	-0.028210862
-3.242214	nurturing	-0.028210862
-3.242214	current	-0.028210862
-3.242214	environment	-0.028210862
-3.242214	instability	-0.028210862
-3.242214	uncertainty,	-0.028210862
-3.0137274	must	-0.028210862
-3.242214	regarded	-0.028210862
-3.242214	one	-0.028210862
-3.242214	biggest	-0.028210862
-3.242214	problems.	-0.028210862
-3.242214	Exorcising	-0.028210862
-3.242214	Ghost	-0.028210862
-3.242214	CAMBRIDGE	-0.028210862
-3.242214	Following	-0.028210862
-3.242214	recent	-0.028210862
-3.242214	elections,	-0.028210862
-3.242214	rebounding	-0.028210862
-3.242214	politically.	-0.028210862
-3.242214	euphoria	-0.028210862
-3.242214	came	-0.028210862
-3.242214	end	-0.028210862
-3.242214	era	-0.028210862
-3.242214	wearing	-0.028210862
-3.242214	off,	-0.028210862
-3.242214	faces	-0.028210862
-3.242214	stark	-0.028210862
-3.242214	choices.	-0.028210862
-3.242214	Unlike	-0.028210862
-3.242214	Iraq	-0.028210862
-3.242214	Afghanistan,	-0.028210862
-3.242214	60-year-old	-0.028210862
-3.242214	ethnic	-0.028210862
-3.242214	cleavages,	-0.028210862
-3.242214	weak	-0.028210862
-3.242214	institutions,	-0.028210862
-3.242214	North	-0.028210862
-3.242214	perennially	-0.028210862
-3.242214	destabilizing.	-0.028210862
-3.242214	And,	-0.028210862
-3.242214	settles	-0.028210862
-3.242214	establishes	-0.028210862
-3.242214	priorities,	-0.028210862
-3.242214	West,	-0.028210862
-3.242214	States,	-0.028210862
-3.242214	reassess	-0.028210862
-3.242214	impact	-0.028210862
-2.965754	past	-0.028210862
-3.242214	dealings	-0.028210862
-3.242214	minister,	-0.028210862
-3.242214	Yousaf	-0.028210862
-3.242214	Gilani,	-0.028210862
-3.242214	seasoned	-0.028210862
-3.242214	politician	-0.028210862
-3.242214	importantly,	-0.028210862
-2.965754	Sufi	-0.028210862
-3.242214	family	-0.028210862
-3.242214	roots,	-0.028210862
-3.242214	good	-0.028210862
-3.242214	omen	-0.028210862
-3.242214	because	-0.028210862
-3.242214	tradition	-0.028210862
-3.242214	tolerance.	-0.028210862
-3.242214	Gilani	-0.028210862
-3.242214	unequivocally	-0.028210862
-3.242214	inaugural	-0.028210862
-3.242214	address	-0.028210862
-3.242214	terrorism	-0.028210862
-3.242214	priority,	-0.028210862
-3.242214	release	-0.028210862
-3.242214	house	-0.028210862
-3.242214	arrest	-0.028210862
-3.242214	deposed	-0.028210862
-3.242214	respite	-0.028210862
-3.242214	horrendous	-0.028210862
-3.242214	spate	-0.028210862
-3.242214	bombings	-0.028210862
-3.242214	assumed	-0.028210862
-3.242214	power	-0.028210862
-3.242214	similarly	-0.028210862
-3.242214	heartening.	-0.028210862
-3.242214	honeymoon	-0.028210862
-3.242214	period	-0.028210862
-3.242214	coming	-0.028210862
-3.242214	end.	-0.028210862
-3.242214	Already,	-0.028210862
-3.242214	Gilani's	-0.028210862
-3.242214	hometown	-0.028210862
-3.242214	Multan,	-0.028210862
-3.242214	rioters	-0.028210862
-3.242214	attacked	-0.028210862
-3.242214	offices	-0.028210862
-3.242214	banks	-0.028210862
-3.242214	protest	-0.028210862
-3.242214	electricity	-0.028210862
-3.242214	disruptions.	-0.028210862
-3.242214	couple	-0.028210862
-3.242214	well-known	-0.028210862
-3.242214	opposition	-0.028210862
-3.242214	politicians,	-0.028210862
-3.242214	chief	-0.028210862
-3.242214	federal	-0.028210862
-3.242214	cabinet	-0.028210862
-3.242214	previous	-0.028210862
-3.242214	pro-Musharraf	-0.028210862
-3.242214	government,	-0.028210862
-3.242214	publicly	-0.028210862
-3.242214	thrashed,	-0.028210862
-3.242214	raising	-0.028210862
-3.242214	doubts	-0.028210862
-3.242214	control	-0.028210862
-3.242214	order	-0.028210862
-3.242214	country.	-0.028210862
-3.242214	So	-0.028210862
-3.242214	far,	-0.028210862
-3.242214	accepted	-0.028210862
-3.242214	diminishing	-0.028210862
-3.242214	stature	-0.028210862
-3.242214	quietly	-0.028210862
-3.242214	options.	-0.028210862
-3.242214	leadership,	-0.028210862
-3.242214	both	-0.028210862
-3.242214	outside	-0.028210862
-3.242214	parliament,	-0.028210862
-3.242214	carefully	-0.028210862
-3.242214	avoiding	-0.028210862
-3.242214	head-on	-0.028210862
-3.242214	collision	-0.028210862
-3.242214	Interestingly,	-0.028210862
-3.242214	midst	-0.028210862
-3.242214	transition,	-0.028210862
-3.242214	embarked	-0.028210862
-3.242214	week-long	-0.028210862
-3.242214	visit	-0.028210862
-2.965754	China	-0.028210862
-3.242214	lobby	-0.028210862
-3.242214	construction	-0.028210862
-3.242214	oil	-0.028210862
-3.242214	gas	-0.028210862
-3.242214	pipeline	-0.028210862
-3.242214	between	-0.028210862
-3.242214	Persian	-0.028210862
-3.242214	Gulf	-0.028210862
-3.242214	routed	-0.028210862
-3.242214	deeper	-0.028210862
-3.242214	question	-0.028210862
-3.242214	raised	-0.028210862
-2.965754	proposal	-0.028210862
-3.242214	whether	-0.028210862
-3.242214	meant	-0.028210862
-3.242214	convey	-0.028210862
-3.242214	message	-0.028210862
-3.242214	priorities	-0.028210862
-3.242214	shifting.	-0.028210862
-3.242214	revival	-0.028210862
-3.242214	undoubtedly	-0.028210862
-3.242214	effect	-0.028210862
-3.242214	Pakistan-US	-0.028210862
-3.242214	relations.	-0.028210862
-3.242214	links	-0.028210862
-3.242214	appear	-0.028210862
-3.242214	remain	-0.028210862
-3.242214	sound	-0.028210862
-3.242214	footing,	-0.028210862
-3.242214	so	-0.028210862
-3.242214	strategic	-0.028210862
-3.242214	likely	-0.028210862
-3.242214	continue,	-0.028210862
-3.242214	perhaps	-0.028210862
-3.242214	nuanced	-0.028210862
-3.242214	differences	-0.028210862
-3.242214	how	-0.028210862
-3.242214	"war	-0.028210862
-3.242214	terror."	-0.028210862
-3.242214	politicians	-0.028210862
-3.242214	bound	-0.028210862
-3.242214	influenced	-0.028210862
-3.242214	opinion,	-0.028210862
-3.242214	generally	-0.028210862
-3.242214	critical	-0.028210862
-3.242214	policies.	-0.028210862
-3.242214	Nevertheless,	-0.028210862
-3.242214	long-term	-0.028210862
-3.242214	interests	-0.028210862
-3.242214	region	-0.028210862
-3.242214	better	-0.028210862
-3.242214	served	-0.028210862
-3.242214	if	-0.028210862
-3.242214	successfully	-0.028210862
-3.242214	establish	-0.028210862
-3.242214	themselves.	-0.028210862
-3.242214	Senate	-0.028210862
-3.242214	increase	-0.028210862
-3.242214	development	-0.028210862
-3.242214	education	-0.028210862
-3.242214	aid	-0.028210862
-3.242214	winning	-0.028210862
-3.242214	hearts	-0.028210862
-3.242214	minds.	-0.028210862
-3.242214	Meanwhile,	-0.028210862
-3.242214	George	-0.028210862
-3.242214	W.	-0.028210862
-2.965754	Bush	-0.028210862
-3.242214	said	-0.028210862
-3.242214	"if	-0.028210862
-3.242214	another	-0.028210862
-3.242214	11-style	-0.028210862
-3.242214	attack	-0.028210862
-3.242214	being	-0.028210862
-3.242214	planned,	-0.028210862
-3.242214	probably	-0.028210862
-3.242214	plotted	-0.028210862
-3.242214	Afghanistan."	-0.028210862
-3.242214	assessment	-0.028210862
-3.242214	based	-0.028210862
-3.242214	credible	-0.028210862
-3.242214	information	-0.028210862
-3.242214	unknown.	-0.028210862
-3.242214	election-year	-0.028210862
-3.242214	behind	-0.028210862
-3.242214	assertion.	-0.028210862
-3.242214	significant	-0.028210862
-3.242214	voice	-0.028210862
-3.242214	view	-0.028210862
-3.242214	during	-0.028210862
-3.242214	transition.	-0.028210862
-3.242214	take	-0.028210862
-3.242214	seriously,	-0.028210862
-3.242214	regardless	-0.028210862
-3.242214	Bush's	-0.028210862
-3.242214	motivations.	-0.028210862
-3.242214	quickly	-0.028210862
-3.242214	devise	-0.028210862
-3.242214	policy	-0.028210862
-3.242214	deal	-0.028210862
-3.242214	terrorism.	-0.028210862
-3.242214	Recent	-0.028210862
-3.242214	months	-0.028210862
-3.242214	dozens	-0.028210862
-3.242214	activities	-0.028210862
-3.242214	price	-0.028210862
-3.242214	own	-0.028210862
-3.242214	blunders,	-0.028210862
-3.242214	well	-0.028210862
-3.242214	West.	-0.028210862
-3.242214	settle	-0.028210862
-3.242214	Kashmir	-0.028210862
-3.242214	imbroglio	-0.028210862

\2-grams:
-0.9760284	Act? </s>	0
-0.9760284	emergency. </s>	0
-0.9760284	goal? </s>	0
-0.30110523	media. </s>	0
-0.9760284	effectively. </s>	0
-0.9760284	truth. </s>	0
-0.9760284	back. </s>	0
-0.9760284	project. </s>	0
-0.9760284	deliver. </s>	0
-0.9760284	terror. </s>	0
-1.3473897	Pakistan </s>	0
-0.9760284	Kashmir. </s>	0
-0.9760284	arms. </s>	0
-0.9760284	independence. </s>	0
-0.9760284	results. </s>	0
-0.9760284	contradictions. </s>	0
-0.9760284	actions). </s>	0
-0.9760284	moderation." </s>	0
-0.9760284	region. </s>	0
-0.9760284	Chaudhry. </s>	0
-0.9760284	post. </s>	0
-0.9760284	dynamic. </s>	0
-0.9760284	July. </s>	0
-0.9760284	agencies. </s>	0
-0.9760284	security." </s>	0
-0.30110523	president. </s>	0
-0.9760284	office. </s>	0
-0.9760284	judiciary. </s>	0
-0.9760284	jittery. </s>	0
-0.9760284	him. </s>	0
-0.9760284	arrested. </s>	0
-0.9760284	moves. </s>	0
-0.9760284	militancy. </s>	0
-0.9760284	ebb. </s>	0
-0.9760284	demoralized. </s>	0
-0.9760284	erupt. </s>	0
-0.20416513	Pakistan. </s>	0
-0.9760284	actions. </s>	0
-0.9760284	forces. </s>	0
-0.2880463	Musharraf. </s>	0
-0.9760284	history. </s>	0
-0.9760284	state. </s>	0
-0.9760284	events. </s>	0
-0.9760284	security. </s>	0
-0.9760284	hardliners. </s>	0
-0.9760284	1980's. </s>	0
-0.9760284	rule. </s>	0
-0.9760284	gallows. </s>	0
-0.9760284	work." </s>	0
-0.9760284	promise. </s>	0
-0.9760284	disorganized. </s>	0
-0.9760284	majority. </s>	0
-0.9760284	domain. </s>	0
-0.9760284	corruption. </s>	0
-0.9760284	part. </s>	0
-0.9760284	India. </s>	0
-0.9760284	start. </s>	0
-0.9760284	society. </s>	0
-0.9760284	bombings. </s>	0
-0.9760284	elections. </s>	0
-0.9760284	re-election. </s>	0
-0.9760284	square. </s>	0
-0.9760284	attack. </s>	0
-0.9760284	up. </s>	0
-0.9760284	her. </s>	0
-0.9760284	leader. </s>	0
-0.9760284	problems. </s>	0
-0.9760284	Ghost </s>	0
-0.9760284	politically. </s>	0
-0.9760284	choices. </s>	0
-0.9760284	destabilizing. </s>	0
-0.9760284	tolerance. </s>	0
-0.9760284	heartening. </s>	0
-0.9760284	end. </s>	0
-0.9760284	disruptions. </s>	0
-0.9760284	country. </s>	0
-0.9760284	options. </s>	0
-0.9760284	shifting. </s>	0
-0.9760284	relations. </s>	0
-0.9760284	terror." </s>	0
-0.9760284	policies. </s>	0
-0.9760284	themselves. </s>	0
-0.9760284	minds. </s>	0
-0.9760284	Afghanistan." </s>	0
-0.9760284	unknown. </s>	0
-0.9760284	assertion. </s>	0
-0.9760284	transition. </s>	0
-0.9760284	motivations. </s>	0
-0.9760284	terrorism. </s>	0
-0.9760284	West. </s>	0
-2.0001454	<s> Musharraf's	-3.4362688
-1.4773327	Pervez Musharraf's	-3.4362688
-2.3472261	that Musharraf's	-3.4362688
-1.9082364	against Musharraf's	-3.4362688
-1.1886686	Exorcising Musharraf's	-3.4362688
-2.0001552	<s> Last	-3.4362688
-1.8666971	Musharraf's Last	-3.4362688
-1.4950801	Last Act?	-3.4362688
-2.0001607	<s> Desperate	-3.4362688
-1.0561769	Desperate to	-3.4362688
-0.29626203	tried to	-3.4362688
-1.0561769	effort to	-3.4362688
-1.2485677	stability to	-3.4362688
-0.6631565	decision to	-3.4362688
-1.0561769	prove to	-3.4362688
-1.0561769	agreed to	-3.4362688
-1.4561907	Taliban to	-3.4362688
-1.5256193	was to	-3.4362688
-1.3378305	leaders to	-3.4362688
-1.3378305	Justice to	-3.4362688
-1.0561769	movement to	-3.4362688
-1.3904415	had to	-3.4362688
-1.4953732	but to	-3.4362688
-1.0561769	journalists, to	-3.4362688
-1.0561769	adjust to	-3.4362688
-1.4997101	new to	-3.4362688
-1.3378305	up to	-3.4362688
-1.0561769	According to	-3.4362688
-1.0561769	ready to	-3.4362688
-1.2485677	wanted to	-3.4362688
-0.3098435	decided to	-3.4362688
-1.3378305	judges to	-3.4362688
-1.0561769	response to	-3.4362688
-1.0561769	linked to	-3.4362688
-1.0561769	difficult to	-3.4362688
-0.29626203	expected to	-3.4362688
-1.3378305	parties to	-3.4362688
-1.0561769	decide to	-3.4362688
-1.0561769	woman to	-3.4362688
-1.0561769	blow to	-3.4362688
-0.29626203	failure to	-3.4362688
-1.0561769	heir to	-3.4362688
-1.0561769	bowing to	-3.4362688
-1.0561769	allowed to	-3.4362688
-1.0561769	owing to	-3.4362688
-0.29626203	return to	-3.4362688
-1.2485677	opportunity to	-3.4362688
-1.0561769	threats to	-3.4362688
-1.0561769	impossible to	-3.4362688
-1.0561769	coming to	-3.4362688
-1.0561769	banks to	-3.4362688
-1.0561769	visit to	-3.4362688
-1.2485677	China to	-3.4362688
-1.0561769	meant to	-3.4362688
-1.0561769	message to	-3.4362688
-1.0561769	appear to	-3.4362688
-1.0561769	likely to	-3.4362688
-1.0561769	how to	-3.4362688
-1.0561769	bound to	-3.4362688
-1.0561769	Senate to	-3.4362688
-1.0561769	aid to	-3.4362688
-1.0561769	policy to	-3.4362688
-2.8231783	to hold	-3.4362688
-1.197708	hold onto	-3.4362688
-1.197708	onto power,	-3.4362688
-1.194451	power, Pervez	-3.4362688
-1.4886442	President Pervez	-3.4362688
-1.522898	<s> Musharraf	-3.4362688
-1.3870251	Pervez Musharraf	-3.4362688
-2.0647266	the Musharraf	-3.4362688
-1.2633365	that Musharraf	-3.4362688
-1.3870251	General Musharraf	-3.4362688
-1.9773502	with Musharraf	-3.4362688
-1.3870251	brought Musharraf	-3.4362688
-1.1398742	re-alignment, Musharraf	-3.4362688
-1.3870251	viewed Musharraf	-3.4362688
-1.5151899	made Musharraf	-3.4362688
-1.1398742	March, Musharraf	-3.4362688
-1.1398742	cornered, Musharraf	-3.4362688
-1.1398742	areas, Musharraf	-3.4362688
-1.1398742	disoriented Musharraf	-3.4362688
-1.7306553	which Musharraf	-3.4362688
-1.1398742	send Musharraf	-3.4362688
-1.1398742	after Musharraf	-3.4362688
-1.1398742	uncertainty, Musharraf	-3.4362688
-1.1398742	far, Musharraf	-3.4362688
-1.1398742	transition, Musharraf	-3.4362688
-1.1398742	whether Musharraf	-3.4362688
-0.9841185	Musharraf has	-3.4362688
-1.009743	he has	-3.4362688
-2.0801446	Pakistan has	-3.4362688
-1.4649626	Musharraf, has	-3.4362688
-1.182261	importantly, has	-3.4362688
-1.182261	parliament, has	-3.4362688
-1.4649626	Bush has	-3.4362688
-2.2413414	has discarded	-3.4362688
-1.5229107	<s> Pakistan's	-3.4362688
-2.188308	to Pakistan's	-3.4362688
-1.1605507	discarded Pakistan's	-3.4362688
-1.5446349	of Pakistan's	-3.4362688
-1.565963	about Pakistan's	-3.4362688
-1.1605507	If Pakistan's	-3.4362688
-2.098522	that Pakistan's	-3.4362688
-2.1107342	with Pakistan's	-3.4362688
-2.248484	in Pakistan's	-3.4362688
-1.565963	since Pakistan's	-3.4362688
-1.1605507	With Pakistan's	-3.4362688
-1.1605507	resolve Pakistan's	-3.4362688
-1.1605507	if Pakistan's	-3.4362688
-1.1605507	during Pakistan's	-3.4362688
-2.3609304	Pakistan's constitutional	-3.4362688
-2.7695444	of constitutional	-3.4362688
-2.2992294	for constitutional	-3.4362688
-1.667544	constitutional framework	-3.4362688
-1.5915569	Musharraf and	-3.4362688
-1.0538045	framework and	-3.4362688
-0.46133596	judiciary and	-3.4362688
-1.333304	free and	-3.4362688
-1.2448785	stability and	-3.4362688
-1.333304	help and	-3.4362688
-0.46133596	law and	-3.4362688
-1.5236462	government and	-3.4362688
-0.5757432	Taliban and	-3.4362688
-1.2448785	inside and	-3.4362688
-0.9477424	Pakistan and	-3.4362688
-1.7475561	in and	-3.4362688
-1.0538045	assistance and	-3.4362688
-1.2448785	army and	-3.4362688
-1.0538045	legitimacy, and	-3.4362688
-1.333304	position and	-3.4362688
-1.333304	Court and	-3.4362688
-1.0538045	courts and	-3.4362688
-1.0538045	activists, and	-3.4362688
-1.0538045	attacks) and	-3.4362688
-1.0538045	law), and	-3.4362688
-1.0538045	embattled, and	-3.4362688
-1.333304	parties and	-3.4362688
-1.0538045	together, and	-3.4362688
-1.0538045	associations, and	-3.4362688
-1.0538045	protests and	-3.4362688
-1.0538045	chaos and	-3.4362688
-0.29603794	Al-Qaeda and	-3.7372987
-1.4198362	democratic and	-3.4362688
-1.0538045	jails and	-3.4362688
-1.0538045	impoverished and	-3.4362688
-1.333304	politics and	-3.4362688
-1.333304	minister and	-3.4362688
-1.0538045	brief and	-3.4362688
-1.0538045	program and	-3.4362688
-1.0538045	longer and	-3.4362688
-1.0538045	mismanagement and	-3.4362688
-1.2448785	her, and	-3.4362688
-1.0538045	dictatorship and	-3.4362688
-1.0538045	Kingdom and	-3.4362688
-1.2448785	state, and	-3.4362688
-1.0538045	3 and	-3.4362688
-1.0538045	people, and	-3.4362688
-1.0538045	problems and	-3.4362688
-1.0538045	instability and	-3.4362688
-1.0538045	Iraq and	-3.4362688
-1.0538045	institutions, and	-3.4362688
-1.0538045	priority, and	-3.4362688
-1.2448785	bombings and	-3.4362688
-1.0538045	offices and	-3.4362688
-1.2448785	China and	-3.4362688
-1.0538045	oil and	-3.4362688
-1.0538045	development and	-3.4362688
-1.0538045	hearts and	-3.4362688
-2.7166972	and declared	-3.4362688
-1.194451	unequivocally declared	-3.4362688
-1.8668898	and a	-3.4362688
-1.3343024	declared a	-3.4362688
-1.9413017	of a	-3.4362688
-0.99286395	as a	-3.4362688
-1.1318792	on a	-3.4362688
-1.7131339	be a	-3.4362688
-0.8423496	is a	-3.4362688
-1.8262261	that a	-3.4362688
-1.8264238	with a	-3.4362688
-1.4457502	As a	-3.4362688
-1.5144324	In a	-3.4362688
-1.7508478	for a	-3.4362688
-1.5960552	against a	-3.4362688
-1.1092495	organized a	-3.4362688
-1.6864821	-- a	-3.4362688
-1.6966532	by a	-3.4362688
-1.1092495	parliament), a	-3.4362688
-1.5144324	can a	-3.4362688
-1.3343024	at a	-3.4362688
-1.3343024	become a	-3.4362688
-1.6966532	her a	-3.4362688
-1.1092495	attacking a	-3.4362688
-1.1092495	lead a	-3.4362688
-1.1092495	getting a	-3.4362688
-1.3343024	played a	-3.4362688
-1.1092495	almost a	-3.4362688
-1.3343024	through a	-3.4362688
-1.1092495	lost a	-3.4362688
-1.1092495	politicians, a	-3.4362688
-1.1092495	avoiding a	-3.4362688
-1.1092495	convey a	-3.4362688
-1.1092495	devise a	-3.4362688
-2.6702864	a state	-3.4362688
-1.0444422	state of	-3.4362688
-1.4566302	decision of	-3.4362688
-1.2304274	those of	-3.4362688
-1.0444422	furtherance of	-3.4362688
-1.0444422	agent of	-3.4362688
-1.0444422	series of	-3.4362688
-1.3156551	Justice of	-3.4362688
-1.0444422	surprise of	-3.4362688
-1.0444422	Hundreds of	-3.4362688
-1.0444422	thousands of	-3.4362688
-1.2304274	rule of	-3.4362688
-1.0444422	supremacy of	-3.4362688
-1.3156551	especially of	-3.4362688
-1.0444422	reach of	-3.4362688
-1.0444422	beatings of	-3.4362688
-1.2304274	out of	-3.4362688
-1.0444422	record of	-3.4362688
-1.0444422	proceedings of	-3.4362688
-1.3156551	judges of	-3.4362688
-1.0444422	Talibanization of	-3.4362688
-1.0444422	realm of	-3.4362688
-1.0444422	stretch of	-3.4362688
-1.0444422	targets of	-3.4362688
-1.0444422	event of	-3.4362688
-1.0444422	Making of	-3.4362688
-1.0444422	assassination of	-3.4362688
-1.0444422	sight of	-3.4362688
-1.0444422	turn of	-3.4362688
-1.2304274	extremists of	-3.4362688
-1.0444422	symbol of	-3.4362688
-1.0444422	empowerment of	-3.4362688
-1.0444422	defense of	-3.4362688
-1.3156551	minister of	-3.4362688
-1.2304274	alliance of	-3.4362688
-1.0444422	charges of	-3.4362688
-1.0444422	distrust of	-3.4362688
-1.0444422	fabric of	-3.4362688
-1.0444422	hundreds of	-3.4362688
-1.0444422	string of	-3.4362688
-1.0444422	head of	-3.4362688
-1.0444422	dismay of	-3.4362688
-1.0444422	eyes of	-3.4362688
-1.0444422	environment of	-3.4362688
-1.0444422	one of	-3.4362688
-1.0444422	end of	-3.4362688
-1.0444422	impact of	-3.4362688
-1.0444422	because of	-3.4362688
-1.0444422	tradition of	-3.4362688
-1.0444422	spate of	-3.4362688
-1.0444422	hometown of	-3.4362688
-1.0444422	couple of	-3.4362688
-1.0444422	midst of	-3.4362688
-1.0444422	construction of	-3.4362688
-1.0444422	revival of	-3.4362688
-1.0444422	critical of	-3.4362688
-1.0444422	regardless of	-3.4362688
-1.0444422	dozens of	-3.4362688
-1.0444422	price of	-3.4362688
-2.8414447	of emergency.	-3.4362688
-2.0001607	<s> His	-3.4362688
-1.197708	His goal?	-3.4362688
-1.3979801	<s> To	-3.5612075
-1.667544	To stifle	-3.4362688
-1.0753849	to the	-3.4362688
-0.9924267	and the	-3.4362688
-0.6330383	of the	-3.4684534
-1.278387	To the	-3.4362688
-1.024087	stifle the	-3.4362688
-1.5171224	as the	-3.4362688
-0.4559085	fight the	-3.4362688
-1.0566827	on the	-3.4362688
-1.441243	be the	-3.4362688
-0.68831813	from the	-3.4362688
-1.5552623	is the	-3.4362688
-1.024087	breaks the	-3.4362688
-1.1995702	when the	-3.4362688
-0.8948701	with the	-3.4362688
-0.29313505	into the	-3.4362688
-1.024087	ditch the	-3.4362688
-1.3536916	support the	-3.4362688
-0.5199953	in the	-3.4362688
-1.3239017	In the	-3.4362688
-1.024087	sent the	-3.4362688
-0.9061793	for the	-3.4362688
-1.278387	since the	-3.4362688
-1.3747509	against the	-3.4362688
-1.024087	Although the	-3.4362688
-1.024087	At the	-3.4362688
-1.1995702	while the	-3.4362688
-1.024087	complicated the	-3.4362688
-0.29313505	removing the	-3.4362688
-1.024087	many, the	-3.4362688
-1.024087	restore the	-3.4362688
-1.024087	demanded the	-3.4362688
-1.024087	emboldening the	-3.4362688
-1.024087	changing the	-3.4362688
-1.024087	accept, the	-3.4362688
-1.024087	reinstated the	-3.4362688
-1.024087	Subsequently, the	-3.4362688
-1.024087	embarrassing the	-3.4362688
-1.4267892	-- the	-3.4362688
-1.278387	especially the	-3.4362688
-1.024087	beyond the	-3.4362688
-1.4323531	by the	-3.4362688
-0.77435726	not the	-3.4362688
-1.024087	haunted the	-3.4362688
-1.278387	over the	-3.4362688
-1.024087	blame the	-3.4362688
-1.024087	within the	-3.4362688
-0.4559085	Bhutto, the	-3.4362688
-1.024087	defy the	-3.4362688
-1.024087	embraced the	-3.4362688
-1.1995702	before the	-3.4362688
-1.024087	Gul, the	-3.4362688
-1.024087	stayed the	-3.4362688
-1.024087	removed the	-3.4362688
-1.024087	throughout the	-3.4362688
-1.3239017	But the	-3.4362688
-1.024087	supporters, the	-3.4362688
-1.024087	involved, the	-3.4362688
-1.024087	balance, the	-3.4362688
-1.024087	manage the	-3.4362688
-1.024087	On the	-3.4362688
-1.024087	nurturing the	-3.4362688
-1.024087	priorities, the	-3.4362688
-1.024087	reassess the	-3.4362688
-1.024087	outside the	-3.4362688
-1.024087	so the	-3.4362688
-1.024087	winning the	-3.4362688
-1.024087	settle the	-3.4362688
-3.0023062	the independent	-3.4362688
-2.0339403	the judiciary	-3.7372987
-1.1951722	independent judiciary	-3.4362688
-1.1951722	energized judiciary	-3.4362688
-2.7373843	and free	-3.4362688
-1.1951722	conduct free	-3.4362688
-1.1951722	recent free	-3.4362688
-2.7373843	and media.	-3.4362688
-2.8833919	the media.	-3.4362688
-1.6601052	free media.	-3.4362688
-2.0001607	<s> Artfully,	-3.4362688
-1.1951722	Artfully, though	-3.4362688
-2.178781	-- though	-3.4362688
-1.1951722	welcomed, though	-3.4362688
-1.667544	though shamelessly,	-3.4362688
-1.581631	though he	-3.4362688
-1.1666436	shamelessly, he	-3.4362688
-2.0806932	as he	-3.4362688
-0.9214671	that he	-3.4362688
-1.4354964	when he	-3.4362688
-1.1666436	change, he	-3.4362688
-1.4354964	example, he	-3.4362688
-1.4354964	time, he	-3.4362688
-1.1666436	While he	-3.4362688
-1.1666436	"if" he	-3.4362688
-1.1666436	least, he	-3.4362688
-1.1666436	junta, he	-3.4362688
-1.0812702	has tried	-3.7372987
-1.194451	allies tried	-3.4362688
-2.8231783	to sell	-3.4362688
-1.7202566	to this	-3.4362688
-1.1790923	sell this	-3.4362688
-2.141755	for this	-3.4362688
-2.0677505	by this	-3.4362688
-1.4589072	Whether this	-3.4362688
-1.1790923	behind this	-3.4362688
-1.1790923	voice this	-3.4362688
-1.1790923	take this	-3.4362688
-2.1266773	this action	-3.4362688
-2.0413332	Musharraf as	-3.4362688
-1.154542	action as	-3.4362688
-1.154542	limelight as	-3.4362688
-1.4132833	viewed as	-3.4362688
-1.4132833	seen as	-3.4362688
-1.4132833	example, as	-3.4362688
-1.5508407	position as	-3.4362688
-1.154542	succeed, as	-3.4362688
-1.154542	viability as	-3.4362688
-1.154542	emerged as	-3.4362688
-1.154542	stint as	-3.4362688
-1.154542	changed, as	-3.4362688
-1.154542	regarded as	-3.4362688
-1.154542	off, as	-3.4362688
-1.154542	blunders, as	-3.4362688
-1.154542	well as	-3.4362688
-2.3598325	to an	-3.4362688
-2.429845	of an	-3.4362688
-1.03425	as an	-3.4362688
-1.1759465	ousted an	-3.4362688
-1.4529352	announced an	-3.4362688
-2.1161106	for an	-3.4362688
-2.043981	by an	-3.4362688
-1.1759465	sponsored an	-3.4362688
-1.1759465	developed an	-3.4362688
-2.2083402	an effort	-3.4362688
-2.7162132	to bring	-3.4362688
-1.7763155	or bring	-3.4362688
-1.4900653	bring about	-3.4362688
-1.1951722	Information about	-3.4362688
-1.1951722	doubts about	-3.4362688
-1.6580048	about stability	-3.4362688
-2.3466713	political stability	-3.4362688
-2.7373843	and help	-3.4362688
-1.4900653	could help	-3.4362688
-1.1951722	West's help	-3.4362688
-1.7689985	to fight	-3.4362688
-1.6580048	help fight	-3.4362688
-2.0297601	the war	-3.7372987
-1.194451	States-led war	-3.4362688
-0.3048648	war on	-3.61236
-1.1575359	appeared on	-3.4362688
-1.1575359	scene on	-3.4362688
-1.1575359	attacks on	-3.4362688
-1.1575359	down on	-3.4362688
-1.7653352	also on	-3.4362688
-1.418731	rule on	-3.4362688
-1.1575359	reneging on	-3.4362688
-1.1575359	curbs on	-3.4362688
-1.1575359	him on	-3.4362688
-1.1575359	carry on	-3.4362688
-1.1575359	embarked on	-3.4362688
-1.1575359	remain on	-3.4362688
-1.1575359	"war on	-3.4362688
-1.1575359	based on	-3.4362688
-2.3590019	on terror	-3.4362688
-1.194451	terror more	-3.4362688
-1.4886442	and, more	-3.4362688
-1.4950801	more effectively.	-3.4362688
-2.0001607	<s> Nothing	-3.4362688
-1.194451	Nothing could	-3.4362688
-2.1773658	Pakistan could	-3.4362688
-1.5592302	to be	-3.4362688
-2.1599886	Musharraf be	-3.4362688
-1.5896821	To be	-3.4362688
-1.441232	could be	-3.4362688
-1.816998	also be	-3.4362688
-1.441232	cannot be	-3.4362688
-1.8820455	not be	-3.4362688
-1.816998	would be	-3.4362688
-1.441232	these be	-3.4362688
-0.6974973	will be	-3.4362688
-1.5896821	must be	-3.4362688
-2.2591357	be further	-3.4362688
-1.4886442	areas further	-3.4362688
-1.4589072	further from	-3.4362688
-2.044214	-- from	-3.4362688
-1.1790923	ranging from	-3.4362688
-2.0677505	her from	-3.4362688
-1.1790923	absolved from	-3.4362688
-1.1790923	particularly from	-3.4362688
-1.1790923	release from	-3.4362688
-1.1790923	respite from	-3.4362688
-3.0023062	the truth.	-3.4362688
-2.0001607	<s> If	-3.4362688
-2.397585	Pakistan's history	-3.4362688
-1.9159503	Musharraf is	-3.4362688
-1.8953916	as is	-3.4362688
-1.134143	history is	-3.4362688
-1.6361487	support is	-3.4362688
-1.8131939	Pakistan is	-3.4362688
-1.5017104	Afghanistan is	-3.4362688
-1.6774439	US is	-3.4362688
-1.134143	There is	-3.4362688
-1.134143	It is	-3.4362688
-0.7621547	which is	-3.4362688
-1.3769507	country, is	-3.4362688
-1.5017104	democracy is	-3.4362688
-0.47455877	it is	-3.4362688
-1.134143	era is	-3.4362688
-1.134143	Gilani, is	-3.4362688
-1.134143	terrorism is	-3.4362688
-1.134143	power is	-3.4362688
-1.134143	period is	-3.4362688
-1.3769507	proposal is	-3.4362688
-1.134143	attack is	-3.4362688
-1.134143	probably is	-3.4362688
-1.134143	assessment is	-3.4362688
-1.134143	information is	-3.4362688
-2.5452893	is any	-3.4362688
-1.197708	any indicator,	-3.4362688
-2.1106596	to his	-3.4362688
-1.5136703	and his	-3.4362688
-2.1934438	of his	-3.4362688
-1.9866112	as his	-3.4362688
-1.1685718	on his	-3.4362688
-1.8463708	from his	-3.4362688
-1.1515685	indicator, his	-3.4362688
-1.5023124	in his	-3.4362688
-1.1515685	legitimizing his	-3.4362688
-1.4079031	took his	-3.4362688
-1.5434726	up his	-3.7372987
-1.1515685	leave his	-3.4362688
-1.1515685	president, his	-3.4362688
-1.1515685	condemned his	-3.4362688
-1.4079031	before his	-3.4362688
-1.1515685	ensure his	-3.4362688
-1.1515685	accepted his	-3.4362688
-1.8401567	Musharraf's decision	-3.4362688
-2.4635317	a decision	-3.4362688
-2.3202176	his decision	-3.4362688
-2.0883164	The decision	-3.4362688
-1.7546394	first decision	-3.4362688
-2.8231783	to impose	-3.4362688
-1.197708	impose martial	-3.4362688
-2.7695444	of law	-3.4362688
-1.1951722	martial law	-3.4362688
-1.6601052	over law	-3.4362688
-1.6589705	law may	-3.4362688
-1.1919082	Terrorists may	-3.4362688
-1.1919082	commanders may	-3.4362688
-1.6506522	politics may	-3.4362688
-1.7921785	may prove	-3.4362688
-3.0023062	the proverbial	-3.4362688
-1.197708	proverbial straw	-3.4362688
-1.6904325	decision that	-3.4362688
-1.1398742	straw that	-3.4362688
-1.3870251	announced that	-3.4362688
-1.1398742	thinking that	-3.4362688
-1.697806	US that	-3.4362688
-1.1398742	claiming that	-3.4362688
-1.3870251	ruling that	-3.4362688
-1.7809497	but that	-3.4362688
-1.1398742	actions that	-3.4362688
-1.1398742	unlikely that	-3.4362688
-1.1398742	confirmed that	-3.4362688
-1.1398742	adamant that	-3.4362688
-1.1398742	seized that	-3.4362688
-1.1398742	claims that	-3.4362688
-1.1398742	remains that	-3.4362688
-1.1398742	recognizing that	-3.4362688
-1.1398742	euphoria that	-3.4362688
-1.1398742	address that	-3.4362688
-1.1398742	Gulf that	-3.4362688
-1.1398742	said that	-3.4362688
-1.1398742	significant that	-3.4362688
-2.4653027	that breaks	-3.4362688
-3.0023062	the camel's	-3.4362688
-1.197708	camel's back.	-3.4362688
-2.0001552	<s> General	-3.4362688
-2.2037668	by General	-3.4362688
-2.5079195	Musharraf appeared	-3.4362688
-3.0023062	the national	-3.4362688
-1.197708	national scene	-3.4362688
-2.3214178	on October	-3.4362688
-2.6299534	in October	-3.4362688
-1.4950801	October 12,	-3.4362688
-1.197708	12, 1999,	-3.4362688
-1.194451	1999, when	-3.4362688
-1.4886442	out when	-3.4362688
-2.3295612	he ousted	-3.4362688
-0.8836986	an elected	-3.4362688
-2.2327013	was elected	-3.4362688
-1.8093402	the government	-3.4362688
-1.6062465	about government	-3.4362688
-1.7095408	elected government	-3.4362688
-1.8453332	against government	-3.4362688
-2.043981	military government	-3.4362688
-0.77673733	new government	-3.4362688
-2.043981	her government	-3.4362688
-1.1759465	Zia-ul-Haq's government	-3.4362688
-1.1759465	attacked government	-3.4362688
-2.7166972	and announced	-3.4362688
-2.2909448	he announced	-3.4362688
-2.2083402	an ambitious	-3.4362688
-1.197708	ambitious "nation-building"	-3.4362688
-1.197708	"nation-building" project.	-3.4362688
-2.0001607	<s> Many	-3.4362688
-1.197708	Many Pakistanis,	-3.4362688
-1.197708	Pakistanis, disillusioned	-3.4362688
-1.1313056	disillusioned with	-3.4362688
-1.1313056	rewarded with	-3.4362688
-1.1313056	rife with	-3.4362688
-1.1313056	alliances with	-3.4362688
-1.1313056	standing with	-3.4362688
-1.7889726	her with	-3.4362688
-1.1313056	negotiations with	-3.4362688
-1.1313056	aligned with	-3.4362688
-1.5728599	Bhutto with	-3.4362688
-1.1313056	pay with	-3.4362688
-1.3719999	alliance with	-3.4362688
-1.1313056	peace with	-3.4362688
-1.1313056	havoc with	-3.4362688
-1.1313056	arrangement with	-3.4362688
-1.1313056	together with	-3.4362688
-1.1313056	contacts with	-3.4362688
-1.1313056	collaboration with	-3.4362688
-1.1313056	came with	-3.4362688
-1.1313056	dealings with	-3.4362688
-1.1313056	collision with	-3.4362688
-1.1313056	links with	-3.4362688
-1.1313056	perhaps with	-3.4362688
-1.1313056	deal with	-3.4362688
-1.1313056	imbroglio with	-3.4362688
-1.2146119	Pakistan's political	-3.4362688
-1.6515677	and political	-3.4362688
-2.2090416	the political	-3.4362688
-1.418731	bring political	-3.4362688
-2.027469	his political	-3.4362688
-1.7919427	religious political	-3.4362688
-1.418731	domestic political	-3.4362688
-1.1575359	Islamist political	-3.4362688
-1.1575359	mainstream political	-3.4362688
-1.6496178	country's political	-3.4362688
-1.7919427	new political	-3.4362688
-1.1575359	Opposition political	-3.4362688
-1.1575359	right-wing political	-3.4362688
-1.1575359	fresh political	-3.4362688
-1.1575359	important political	-3.4362688
-2.38471	political class,	-3.4362688
-1.194451	class, remained	-3.4362688
-1.6580048	she remained	-3.4362688
-1.4950801	remained mute,	-3.4362688
-1.197708	mute, thinking	-3.4362688
-2.2909448	he might	-3.4362688
-1.194451	bench might	-3.4362688
-1.4950801	might deliver.	-3.4362688
-0.95862186	<s> The	-3.4776614
-2.1364808	The September	-3.4362688
-1.194451	another September	-3.4362688
-1.4950801	September 11,	-3.4362688
-1.197708	11, 2001,	-3.4362688
-2.8833919	the terrorist	-3.4362688
-1.1951722	2001, terrorist	-3.4362688
-1.6601052	other terrorist	-3.4362688
-1.667544	terrorist attacks	-3.4362688
-2.3214178	on America	-3.4362688
-2.4610453	with America	-3.4362688
-1.4886442	America brought	-3.4362688
-2.005856	forces brought	-3.4362688
-2.4514368	Musharraf into	-3.4362688
-1.4886442	army into	-3.4362688
-3.0023062	the international	-3.4362688
-1.197708	international limelight	-3.4362688
-2.3295612	he agreed	-3.4362688
-2.8231783	to ditch	-3.4362688
-2.7373843	and Taliban	-3.4362688
-2.8833919	the Taliban	-3.4362688
-1.9434713	against Taliban	-3.4362688
-1.7484248	and support	-3.4362688
-1.7666857	or support	-3.4362688
-1.1919082	popular support	-3.4362688
-1.1919082	Western support	-3.4362688
-1.669925	the United	-3.4362688
-1.7888854	United States-led	-3.4362688
-2.3590019	on terror.	-3.7372987
-2.5079195	Musharraf clamped	-3.4362688
-1.197708	clamped down	-3.4362688
-2.6911933	of some	-3.4362688
-2.2940054	on some	-3.4362688
-2.4237342	with some	-3.4362688
-2.587865	in some	-3.4362688
-2.5089328	to religious	-3.4362688
-1.7291311	and religious	-3.7372987
-1.7429181	some religious	-3.4362688
-1.7429181	country's religious	-3.4362688
-1.1854529	challenge religious	-3.4362688
-1.1854529	why religious	-3.4362688
-1.9611096	religious militants	-3.4362688
-1.197708	militants operating	-3.4362688
-1.194451	operating inside	-3.4362688
-1.194451	both inside	-3.4362688
-1.6990372	<s> Pakistan	-3.4362688
-1.7300116	to Pakistan	-3.4362688
-2.2783823	that Pakistan	-3.4362688
-1.4649626	inside Pakistan	-3.4362688
-1.3936713	in Pakistan	-3.4362688
-1.182261	result, Pakistan	-3.4362688
-1.182261	elections, Pakistan	-3.4362688
-2.5781586	and also	-3.4362688
-0.6065426	may also	-3.4362688
-2.0526307	but also	-3.4362688
-1.4773327	media also	-3.4362688
-1.1886686	agencies also	-3.4362688
-2.3208275	as those	-3.4362688
-2.3214178	on those	-3.4362688
-2.419266	that fighting	-3.4362688
-1.4886442	those fighting	-3.4362688
-1.4950801	fighting Indian	-3.4362688
-1.2237391	political forces	-3.4362688
-1.1854529	Indian forces	-3.4362688
-1.1854529	al-Qaeda forces	-3.4362688
-1.1854529	armed forces	-3.4362688
-1.8259258	democratic forces	-3.4362688
-1.1854529	extremist forces	-3.4362688
-1.3209689	declared in	-3.4362688
-1.428592	help in	-3.4362688
-1.6818913	government in	-3.4362688
-1.6846693	Pakistan in	-3.4362688
-0.8103914	forces in	-3.4362688
-1.1012589	(who in	-3.4362688
-0.30031583	operations in	-3.4362688
-1.3209689	situation in	-3.4362688
-1.428592	Justice in	-3.4362688
-1.1012589	promulgated in	-3.4362688
-1.1012589	resentment in	-3.4362688
-1.1012589	sure, in	-3.4362688
-1.3209689	extremism in	-3.7372987
-1.4944012	or in	-3.4362688
-1.1012589	progress in	-3.4362688
-1.1012589	unprecedented in	-3.4362688
-1.1012589	Murder in	-3.4362688
-1.1012589	languished in	-3.4362688
-1.1012589	exile in	-3.4362688
-1.428592	politics in	-3.4362688
-1.1012589	writing in	-3.4362688
-1.1012589	oath in	-3.4362688
-1.1012589	term in	-3.4362688
-1.1012589	decade in	-3.4362688
-1.1012589	transition in	-3.4362688
-1.1012589	participate in	-3.4362688
-1.1012589	So, in	-3.4362688
-1.1012589	future in	-3.4362688
-1.1012589	settles in	-3.4362688
-1.1012589	Already, in	-3.4362688
-1.1012589	order in	-3.4362688
-1.1012589	Interestingly, in	-3.4362688
-1.3209689	proposal in	-3.4362688
-1.1012589	interests in	-3.4362688
-1.1012589	plotted in	-3.4362688
-2.6901765	in Kashmir.	-3.4362688
-1.5229323	<s> As	-3.4362688
-2.6702864	a result,	-3.4362688
-2.1085765	Musharraf was	-3.4362688
-2.026433	he was	-3.4362688
-1.7631651	decision was	-3.4362688
-1.9908298	government was	-3.4362688
-1.9600984	Pakistan was	-3.4362688
-1.1635865	activism was	-3.4362688
-1.6960589	Benazir was	-3.4362688
-1.5737264	democracy was	-3.4362688
-1.668688	Bhutto was	-3.4362688
-1.5737264	who was	-3.4362688
-1.1635865	legacy was	-3.4362688
-1.1635865	(1988-90) was	-3.4362688
-1.1635865	(1993-96) was	-3.4362688
-2.269667	was rewarded	-3.4362688
-2.0001564	<s> American	-3.4362688
-2.1077003	this American	-3.4362688
-2.472197	with American	-3.4362688
-1.667544	American financial	-3.4362688
-1.197708	financial assistance	-3.4362688
-2.8187711	and arms.	-3.4362688
-1.3979801	<s> In	-3.4362688
-1.7888854	In furtherance	-3.4362688
-2.454938	his re-alignment,	-3.4362688
-2.5079195	Musharraf sent	-3.4362688
-2.8546653	the Pakistani	-3.4362688
-1.7763155	But Pakistani	-3.4362688
-1.4886442	Pakistani army	-3.4362688
-1.194451	preoccupied army	-3.4362688
-1.8940599	the tribal	-3.61236
-1.4950801	tribal areas	-3.4362688
-1.4950801	areas bordering	-3.4362688
-2.0001564	<s> Afghanistan	-3.4362688
-2.6426253	in Afghanistan	-3.4362688
-1.1951722	bordering Afghanistan	-3.4362688
-1.7375572	support for	-3.4362688
-1.5737264	Afghanistan for	-3.4362688
-1.1635865	voted for	-3.4362688
-1.1635865	stood for	-3.4362688
-1.1635865	accountable for	-3.4362688
-1.1635865	confinement for	-3.4362688
-0.30532235	run for	-3.4362688
-0.30532235	responsibility for	-3.4362688
-1.1635865	prospects for	-3.4362688
-1.1635865	life for	-3.4362688
-1.1635865	father for	-3.4362688
-1.1635865	arguing for	-3.4362688
-1.1635865	lobby for	-3.4362688
-2.0339403	the first	-3.4362688
-2.4130454	his first	-3.4362688
-1.4900653	Her first	-3.4362688
-1.7888854	first time	-3.4362688
-1.1951722	time since	-3.4362688
-1.7790759	have since	-3.4362688
-1.4900653	bombings since	-3.4362688
-2.397585	Pakistan's independence.	-3.4362688
-2.0001607	<s> Operations	-3.4362688
-1.197708	Operations there	-3.4362688
-1.1854529	there against	-3.4362688
-1.4711037	ruling against	-3.4362688
-1.1854529	petitions against	-3.4362688
-1.1854529	gone against	-3.4362688
-1.4711037	them against	-3.4362688
-1.1854529	defend against	-3.4362688
-2.8187711	and al-Qaeda	-3.4362688
-1.4950801	brought mixed	-3.4362688
-1.197708	mixed results.	-3.4362688
-2.0001607	<s> Although	-3.4362688
-2.7695444	of US	-3.4362688
-1.6636081	the US	-3.4362688
-1.1951722	long-term US	-3.4362688
-1.9394467	US viewed	-3.4362688
-1.6580048	she viewed	-3.4362688
-2.2083402	an agent	-3.4362688
-2.8414447	of change,	-3.4362688
-2.2413414	has never	-3.4362688
-1.197708	never achieved	-3.4362688
-1.194451	achieved domestic	-3.4362688
-2.2037668	by domestic	-3.4362688
-2.38471	political legitimacy,	-3.4362688
-2.454938	his policies	-3.4362688
-2.3114414	that were	-3.4362688
-1.6323415	Afghanistan were	-3.4362688
-1.1854529	policies were	-3.4362688
-1.1854529	officials were	-3.4362688
-1.1854529	government, were	-3.4362688
-1.1854529	priorities were	-3.4362688
-1.9394467	were seen	-3.4362688
-1.7763155	have seen	-3.4362688
-2.3586612	as rife	-3.4362688
-2.513684	with contradictions.	-3.4362688
-2.0001607	<s> For	-3.4362688
-1.194451	For example,	-3.4362688
-1.6580048	prime example,	-3.4362688
-2.2992294	he made	-3.4362688
-1.9434713	also made	-3.4362688
-1.1951722	weeks made	-3.4362688
-1.667544	made alliances	-3.4362688
-2.513684	with Islamist	-3.4362688
-2.0245202	forces (who	-3.4362688
-2.6901765	in 2004	-3.4362688
-1.197708	2004 voted	-3.4362688
-1.667544	constitutional changes	-3.4362688
-1.197708	changes legitimizing	-3.4362688
-2.4130454	his position	-3.4362688
-2.2111926	military position	-3.4362688
-2.2111926	her position	-3.4362688
-2.8187711	and actions).	-3.4362688
-1.6990503	<s> At	-3.7372987
-3.0023062	the same	-3.4362688
-1.194451	same time,	-3.4362688
-1.4886442	last time,	-3.4362688
-2.3295612	he sidelined	-3.4362688
-1.197708	sidelined moderate,	-3.4362688
-1.197708	moderate, mainstream	-3.4362688
-1.0735418	political leaders	-3.4362688
-1.6580048	leaders while	-3.4362688
-1.194451	And, while	-3.4362688
-1.4950801	while claiming	-3.4362688
-2.3295612	he stood	-3.4362688
-2.3295612	for "enlightened	-3.4362688
-1.197708	"enlightened moderation."	-3.4362688
-1.3979801	<s> A	-3.4362688
-1.7888854	A series	-3.4362688
-2.8414447	of ill-planned	-3.4362688
-2.121848	Pakistan's military	-3.4362688
-1.6929393	and military	-3.4362688
-2.3819778	the military	-3.4362688
-2.1248877	as military	-3.4362688
-1.2928904	his military	-3.61236
-1.9760723	The military	-3.4362688
-1.1728233	ill-planned military	-3.4362688
-1.1728233	serving military	-3.4362688
-1.5978854	top military	-3.4362688
-1.1728233	Mushararf's military	-3.4362688
-2.2037668	military operations	-3.4362688
-1.194451	ISI operations	-3.4362688
-1.4950801	further complicated	-3.4362688
-2.8546653	the situation	-3.4362688
-1.4886442	security situation	-3.4362688
-3.0023062	the volatile	-3.4362688
-1.197708	volatile border	-3.4362688
-1.197708	border region.	-3.4362688
-1.4950801	Last March,	-3.4362688
-2.4514368	Musharraf took	-3.4362688
-1.6580048	Court took	-3.4362688
-2.454938	his boldest	-3.4362688
-1.197708	boldest step,	-3.4362688
-1.194451	step, removing	-3.4362688
-1.194451	constitutionality, removing	-3.4362688
-1.8940599	the Chief	-3.91339
-1.197708	Chief Justice	-3.4362688
-1.8940599	the Supreme	-3.7372987
-1.4950801	Supreme Court,	-3.4362688
-1.197708	Court, Iftikhar	-3.4362688
-1.197708	Iftikhar Chaudhry.	-3.4362688
-3.0023062	the surprise	-3.4362688
-2.8414447	of many,	-3.4362688
-1.669925	the country's	-3.4362688
-1.7888854	country's legal	-3.4362688
-1.197708	legal community	-3.4362688
-1.197708	community organized	-3.4362688
-2.6702864	a nation-wide	-3.4362688
-1.197708	nation-wide movement	-3.4362688
-2.8231783	to restore	-3.4362688
-2.454938	his post.	-3.4362688
-2.0001607	<s> Hundreds	-3.4362688
-1.7682252	of thousands	-3.7372987
-1.7682252	of ordinary	-3.4362688
-2.7510269	of people	-3.4362688
-1.4886442	ordinary people	-3.4362688
-1.4950801	people demanded	-3.4362688
-2.8546653	the rule	-3.4362688
-1.194451	emergency rule	-3.4362688
-3.0023062	the supremacy	-3.4362688
-3.0023062	the constitution,	-3.4362688
-1.197708	constitution, emboldening	-3.4362688
-2.8187711	and changing	-3.4362688
-2.38471	political dynamic.	-3.4362688
-2.6702864	a historic	-3.4362688
-1.194451	historic ruling	-3.4362688
-1.194451	continued ruling	-3.4362688
-2.4116874	Musharraf had	-3.4362688
-2.1554513	Pakistan had	-3.4362688
-2.1784637	military had	-3.4362688
-1.7666857	Bhutto had	-3.4362688
-1.7888854	had little	-3.4362688
-1.197708	little choice	-3.4362688
-1.1759465	choice but	-3.4362688
-2.0216665	-- but	-3.4362688
-1.4529352	reality, but	-3.4362688
-1.4529352	post, but	-3.4362688
-1.1759465	mistakes; but	-3.4362688
-1.1759465	better, but	-3.4362688
-1.1759465	criticism, but	-3.4362688
-1.4529352	state, but	-3.4362688
-1.1759465	crucial, but	-3.4362688
-2.8231783	to accept,	-3.4362688
-1.4950801	Supreme Court	-3.4362688
-1.667544	Court itself	-3.4362688
-1.197708	itself reinstated	-3.4362688
-2.6901765	in July.	-3.4362688
-2.0001607	<s> Subsequently,	-3.4362688
-3.0023062	the energized	-3.4362688
-1.6708647	judiciary continued	-3.4362688
-2.2985296	government decisions,	-3.4362688
-1.197708	decisions, embarrassing	-3.4362688
-2.0338218	government --	-3.4362688
-1.7610252	support --	-3.4362688
-1.8820455	forces --	-3.4362688
-1.1697226	bombers --	-3.4362688
-1.1697226	home --	-3.4362688
-1.1697226	stripes --	-3.4362688
-1.1697226	age --	-3.4362688
-1.1697226	States --	-3.4362688
-1.1697226	CAMBRIDGE --	-3.4362688
-1.1697226	quietly --	-3.4362688
-1.1697226	activities --	-3.4362688
-2.7373843	and especially	-3.4362688
-2.178781	-- especially	-3.4362688
-1.1951722	West, especially	-3.4362688
-2.5672948	of its	-3.4362688
-1.6323415	especially its	-3.4362688
-1.4711037	at its	-3.4362688
-1.1854529	indeed, its	-3.4362688
-1.1854529	Following its	-3.4362688
-1.1854529	establishes its	-3.4362688
-2.0339403	the intelligence	-3.4362688
-1.6601052	American intelligence	-3.4362688
-1.9434713	its intelligence	-3.4362688
-1.7888854	intelligence agencies.	-3.4362688
-2.0001607	<s> Government	-3.4362688
-1.197708	Government officials	-3.4362688
-1.9578701	were held	-3.4362688
-1.197708	held accountable	-3.4362688
-2.3295612	for actions	-3.4362688
-1.9578701	were usually	-3.4362688
-1.197708	usually beyond	-3.4362688
-3.0023062	the reach	-3.4362688
-3.0023062	the law,	-3.4362688
-1.197708	law, ranging	-3.4362688
-2.0804274	from brutal	-3.4362688
-1.197708	brutal beatings	-3.4362688
-2.8414447	of journalists,	-3.4362688
-2.8231783	to illegal	-3.4362688
-1.197708	illegal confinement	-3.4362688
-2.3295612	for "national	-3.4362688
-1.197708	"national security."	-3.4362688
-2.38471	political allies	-3.4362688
-2.8231783	to adjust	-3.4362688
-2.278234	Pakistan's new	-3.4362688
-1.8573648	the new	-3.91339
-2.0620635	this new	-3.4362688
-2.0883164	The new	-3.4362688
-1.9742609	not new	-3.4362688
-1.7763155	In reality,	-3.4362688
-1.9453329	new reality,	-3.4362688
-2.123515	but their	-3.4362688
-1.197708	their patience	-3.4362688
-1.197708	patience ran	-3.4362688
-1.9394467	were out	-3.4362688
-1.194451	ran out	-3.4362688
-1.4900653	took up	-3.4362688
-0.30761725	give up	-3.7372987
-1.1951722	lived up	-3.4362688
-1.667544	up petitions	-3.4362688
-2.7162132	to run	-3.4362688
-1.4886442	cannot run	-3.4362688
-2.8833919	the president.	-3.4362688
-2.2992294	for president.	-3.4362688
-1.4900653	civilian president.	-3.4362688
-2.0001607	<s> According	-3.4362688
-3.0023062	the constitution	-3.4362688
-1.197708	constitution (originally	-3.4362688
-1.197708	(originally promulgated	-3.4362688
-2.6901765	in 1973	-3.4362688
-1.9126501	but by	-3.4362688
-1.1666436	1973 by	-3.4362688
-1.1666436	evidenced by	-3.4362688
-1.1666436	benefit by	-3.4362688
-1.1666436	hanged by	-3.4362688
-1.1666436	machinations by	-3.4362688
-1.4354964	opportunity by	-3.4362688
-1.1666436	killed by	-3.4362688
-1.1666436	contrary, by	-3.4362688
-1.1666436	deposed by	-3.4362688
-1.1666436	raised by	-3.4362688
-1.1666436	influenced by	-3.4362688
-1.7888854	elected parliament),	-3.4362688
-2.6702864	a serving	-3.4362688
-2.2382526	military official	-3.4362688
-2.2909448	he cannot	-3.4362688
-1.194451	official cannot	-3.4362688
-1.7888854	elected office.	-3.4362688
-2.5161533	and not	-3.4362688
-1.4008775	is not	-3.4362688
-2.143283	was not	-3.4362688
-1.8916361	would not	-3.4362688
-1.7429181	or not	-3.4362688
-1.6323415	should not	-3.4362688
-2.0245202	not ready	-3.4362688
-2.7162132	to give	-3.4362688
-1.9394467	would give	-3.4362688
-2.2382526	military post,	-3.4362688
-1.9394467	also wanted	-3.4362688
-1.6580048	who wanted	-3.4362688
-1.5891602	a civilian	-3.4362688
-2.0001607	<s> While	-3.4362688
-2.3655128	Musharraf would	-3.4362688
-2.2292569	he would	-3.4362688
-1.3155506	that would	-3.4362688
-1.7653414	Taliban would	-3.4362688
-1.1886686	I would	-3.4362688
-1.9578701	would leave	-3.4362688
-1.667544	position "if"	-3.4362688
-1.7888854	elected president,	-3.4362688
-2.454938	his track	-3.4362688
-1.197708	track record	-3.4362688
-2.8414447	of reneging	-3.4362688
-2.454938	his promises	-3.4362688
-1.197708	promises haunted	-3.4362688
-3.0023062	the judiciary.	-3.4362688
-2.1658454	The proceedings	-3.4362688
-3.0023062	the court	-3.4362688
-1.1951722	court over	-3.4362688
-1.1951722	control over	-3.4362688
-1.1951722	differences over	-3.4362688
-2.0489075	the last	-3.4362688
-2.209173	has few	-3.4362688
-1.4886442	last few	-3.4362688
-1.4950801	few weeks	-3.4362688
-2.5079195	Musharraf jittery.	-3.4362688
-3.0023062	the 11-member	-3.4362688
-1.197708	11-member bench	-3.4362688
-1.4950801	might easily	-3.4362688
-1.6506522	leaders have	-3.4362688
-2.1483252	-- have	-3.4362688
-1.1919082	easily have	-3.4362688
-1.1919082	months have	-3.4362688
-1.7888854	have gone	-3.4362688
-1.9578701	against him.	-3.4362688
-2.0001607	<s> Legally	-3.4362688
-1.197708	Legally cornered,	-3.4362688
-2.2413414	has now	-3.4362688
-1.1951722	now decided	-3.4362688
-1.1951722	finally decided	-3.4362688
-1.4900653	Bush decided	-3.4362688
-2.8231783	to abandon	-3.4362688
-1.197708	abandon constitutionality,	-3.4362688
-3.0023062	the leading	-3.4362688
-1.1951722	leading judges	-3.4362688
-1.6601052	top judges	-3.4362688
-1.1951722	arrest judges	-3.4362688
-2.8187711	and provincial	-3.4362688
-1.197708	provincial high	-3.4362688
-1.197708	high courts	-3.4362688
-2.8187711	and putting	-3.4362688
-1.197708	putting curbs	-3.4362688
-2.0001607	<s> Lawyers,	-3.4362688
-1.197708	Lawyers, human	-3.4362688
-1.1951722	human rights	-3.4362688
-1.1951722	Human rights	-3.4362688
-1.1951722	people's rights	-3.4362688
-1.667544	rights activists,	-3.4362688
-2.209173	has been	-3.4362688
-1.6580048	since been	-3.4362688
-1.4950801	been arrested.	-3.4362688
-2.0001607	<s> There	-3.4362688
-2.5452893	is widespread	-3.4362688
-2.8833919	the public	-3.4362688
-1.4900653	domestic public	-3.4362688
-1.1951722	widespread public	-3.4362688
-1.667544	public resentment	-3.4362688
-2.6901765	in response	-3.4362688
-2.7162132	to these	-3.4362688
-1.7763155	can these	-3.4362688
-1.4950801	these moves.	-3.4362688
-1.6990503	<s> Rather	-3.7372987
-1.197708	Rather than	-3.4362688
-1.4950801	than taking	-3.4362688
-1.194451	taking responsibility	-3.4362688
-1.194451	partial responsibility	-3.4362688
-3.0023062	the deteriorating	-3.4362688
-2.8546653	the security	-3.4362688
-1.194451	deteriorating security	-3.4362688
-1.4950801	situation (as	-3.4362688
-1.197708	(as evidenced	-3.4362688
-2.2382526	by regular	-3.4362688
-2.6021862	a suicide	-3.4362688
-1.378968	of suicide	-3.5612075
-1.1951722	regular suicide	-3.4362688
-1.8822275	suicide bomb	-3.4362688
-1.197708	bomb attacks)	-3.4362688
-3.0023062	the increasing	-3.4362688
-1.197708	increasing Talibanization	-3.4362688
-1.4950801	tribal areas,	-3.4362688
-2.8231783	to blame	-3.4362688
-2.2985296	be sure,	-3.4362688
-1.7888854	some cases,	-3.4362688
-1.197708	cases, judicial	-3.4362688
-1.197708	judicial activism	-3.4362688
-2.269667	was obvious	-3.4362688
-1.197708	obvious (though	-3.4362688
-1.197708	(though within	-3.4362688
-3.0023062	the realm	-3.4362688
-1.667544	constitutional law),	-3.4362688
-2.8546653	the media	-3.4362688
-1.194451	bodies, media	-3.4362688
-1.667544	made mistakes;	-3.4362688
-2.2382526	by no	-3.4362688
-1.197708	no stretch	-3.4362688
-3.0023062	the imagination	-3.4362688
-1.1919082	imagination can	-3.4362688
-1.1919082	Nor can	-3.4362688
-1.6506522	who can	-3.4362688
-1.1919082	One can	-3.4362688
-2.2985296	be linked	-3.4362688
-0.78397053	religious extremism	-3.61236
-1.4836524	extremism or	-3.4362688
-1.1919082	effectively or	-3.4362688
-1.1919082	alone or	-3.4362688
-1.4836524	Whether or	-3.4362688
-2.3295612	for militancy.	-3.4362688
-1.6990503	<s> It	-3.7372987
-2.5452893	is unlikely	-3.4362688
-1.8822275	Musharraf's latest	-3.4362688
-1.197708	latest gambit	-3.4362688
-1.8401567	support will	-3.4362688
-2.1288714	Pakistan will	-3.4362688
-1.1886686	gambit will	-3.4362688
-1.9183918	which will	-3.4362688
-1.1886686	region will	-3.4362688
-1.8854938	will succeed,	-3.4362688
-2.454938	his popular	-3.4362688
-2.490535	is at	-3.4362688
-1.194451	resistance at	-3.4362688
-1.9578701	its lowest	-3.4362688
-1.197708	lowest ebb.	-3.4362688
-2.397585	Pakistan's armed	-3.4362688
-2.2038379	-- repeated	-3.4362688
-1.197708	repeated targets	-3.4362688
-1.8822275	suicide bombers	-3.4362688
-1.4886442	post, become	-3.4362688
-1.7763155	have become	-3.4362688
-1.4950801	become demoralized.	-3.4362688
-2.5452893	is difficult	-3.4362688
-2.8231783	to imagine	-3.4362688
-1.194451	imagine them	-3.4362688
-1.194451	pit them	-3.4362688
-1.4950801	them standing	-3.4362688
-2.4633617	Musharraf should	-3.4362688
-2.267581	government should	-3.4362688
-1.1951722	we should	-3.4362688
-1.667544	should civil	-3.4362688
-1.197708	civil conflict	-3.4362688
-1.197708	conflict erupt.	-3.4362688
-2.0001607	<s> Nor	-3.4362688
-2.6702864	a weak,	-3.4362688
-1.197708	weak, embattled,	-3.4362688
-2.8187711	and disoriented	-3.4362688
-2.2591357	be expected	-3.4362688
-1.7763155	are expected	-3.4362688
-1.6708647	fight Islamic	-3.4362688
-1.197708	Islamic militancy	-3.4362688
-1.197708	militancy effectively	-3.4362688
-2.647444	to Pakistan.	-3.4362688
-2.4237342	with Pakistan.	-3.4362688
-1.4836524	through Pakistan.	-3.4362688
-1.1919082	pluralistic Pakistan.	-3.4362688
-2.0001607	<s> Opposition	-3.4362688
-1.0735418	political parties	-3.4362688
-1.6506522	parties are	-3.4362688
-1.1919082	organizations are	-3.4362688
-1.1919082	North are	-3.4362688
-1.1919082	politicians are	-3.4362688
-1.7888854	are drawing	-3.4362688
-1.197708	drawing closer	-3.4362688
-1.197708	closer together,	-3.4362688
-2.7166972	and former	-3.4362688
-2.8546653	the former	-3.4362688
-1.4950801	former Prime	-3.4362688
-1.197708	Prime Minister	-3.4362688
-2.6911933	of Benazir	-3.4362688
-1.1919082	Minister Benazir	-3.4362688
-1.1919082	1979, Benazir	-3.4362688
-1.1919082	hanging, Benazir	-3.4362688
-0.6077034	Benazir Bhutto,	-3.4362688
-1.194451	Ali Bhutto,	-3.4362688
-1.6641645	Bhutto, despite	-3.4362688
-1.4886442	country, despite	-3.4362688
-1.4950801	despite progress	-3.4362688
-2.2829287	to her	-3.4362688
-2.3576448	of her	-3.4362688
-2.1834037	with her	-3.4362688
-1.528432	in her	-3.4362688
-1.9300902	but her	-3.4362688
-1.1697226	see her	-3.4362688
-1.1697226	stop her	-3.4362688
-1.1697226	given her	-3.4362688
-1.1697226	gave her	-3.4362688
-1.1697226	eased her	-3.4362688
-1.1697226	greeted her	-3.4362688
-2.2382526	her power-sharing	-3.4362688
-1.197708	power-sharing negotiations	-3.4362688
-1.3825585	with Musharraf,	-3.4362688
-2.2413414	has strongly	-3.4362688
-1.197708	strongly condemned	-3.4362688
-2.454938	his actions.	-3.4362688
-2.0001607	<s> Human	-3.4362688
-1.667544	rights bodies,	-3.4362688
-1.4950801	media associations,	-3.4362688
-2.8187711	and lawyers'	-3.4362688
-1.197708	lawyers' organizations	-3.4362688
-2.8231783	to defy	-3.4362688
-3.0023062	the emergency,	-3.4362688
-2.49552	in which	-3.4362688
-1.1854529	emergency, which	-3.4362688
-1.1854529	return, which	-3.4362688
-1.1854529	election, which	-3.4362688
-1.1854529	roots, which	-3.4362688
-1.1854529	opinion, which	-3.4362688
-1.8854938	will pit	-3.4362688
-1.4950801	security forces.	-3.4362688
-2.0001607	<s> Terrorists	-3.4362688
-1.9578701	also benefit	-3.4362688
-2.2382526	by attacking	-3.4362688
-2.6702864	a preoccupied	-3.4362688
-2.0245202	forces aligned	-3.4362688
-2.4610453	with Musharraf.	-3.4362688
-2.2037668	by Musharraf.	-3.4362688
-3.0023062	the event	-3.4362688
-2.8414447	of sustained	-3.4362688
-1.197708	sustained protests	-3.4362688
-2.8187711	and potential	-3.4362688
-1.197708	potential violence,	-3.4362688
-2.6021862	a top	-3.4362688
-1.7790759	country's top	-3.4362688
-1.1951722	violence, top	-3.4362688
-2.2382526	military commanders	-3.4362688
-1.7921785	may decide	-3.4362688
-2.8231783	to send	-3.4362688
-2.5079195	Musharraf home	-3.4362688
-2.2985296	be unprecedented	-3.4362688
-2.397585	Pakistan's chronically	-3.4362688
-1.197708	chronically turbulent	-3.4362688
-1.197708	turbulent history.	-3.4362688
-2.1658454	The Making	-3.4362688
-2.6702864	a Murder	-3.4362688
-2.1658454	The assassination	-3.4362688
-2.5845547	a Muslim	-3.4362688
-1.7763155	first Muslim	-3.4362688
-1.4950801	Muslim woman	-3.4362688
-2.8231783	to lead	-3.4362688
-2.8546653	the country,	-3.4362688
-1.4886442	Muslim country,	-3.4362688
-2.5845547	a serious	-3.4362688
-1.4886442	despite serious	-3.4362688
-1.4950801	serious blow	-3.4362688
-2.397585	Pakistan's prospects	-3.4362688
-2.737797	to democracy	-3.4362688
-2.2992294	for democracy	-3.4362688
-1.1951722	Afghanistan, democracy	-3.4362688
-1.6580048	democracy and,	-3.4362688
-1.194451	politician and,	-3.4362688
-1.4950801	and, indeed,	-3.4362688
-1.9578701	its viability	-3.4362688
-2.6702864	a state.	-3.4362688
-1.667544	As chaos	-3.4362688
-2.8187711	and confusion	-3.4362688
-1.197708	confusion set	-3.4362688
-1.197708	set in,	-3.4362688
-1.197708	in, we	-3.4362688
-2.0245202	not lose	-3.4362688
-1.197708	lose sight	-3.4362688
-2.7510269	of President	-3.4362688
-1.194451	Meanwhile, President	-3.4362688
-1.8822275	Musharraf's partial	-3.4362688
-2.1266773	this turn	-3.4362688
-2.8414447	of events.	-3.4362688
-3.0023062	the very	-3.4362688
-1.197708	very least,	-3.4362688
-2.2985296	be absolved	-3.4362688
-2.454938	his government's	-3.4362688
-2.8546653	the failure	-3.4362688
-1.194451	government's failure	-3.4362688
-2.8231783	to provide	-3.4362688
-1.1919082	provide Bhutto	-3.4362688
-1.1919082	Instead, Bhutto	-3.4362688
-1.1919082	forces, Bhutto	-3.4362688
-1.7666857	But Bhutto	-3.4362688
-2.513684	with adequate	-3.4362688
-1.197708	adequate security.	-3.4362688
-2.0001607	<s> Instead,	-3.4362688
-2.8231783	to pay	-3.4362688
-2.2382526	her life	-3.4362688
-2.3295612	for courageously	-3.4362688
-1.197708	courageously challenging	-3.4362688
-1.9453329	religious extremists	-3.4362688
-1.194451	challenging extremists	-3.4362688
-2.8414447	of all	-3.4362688
-1.197708	all stripes	-3.4362688
-2.0600812	from Al-Qaeda	-3.4362688
-1.194451	like Al-Qaeda	-3.4362688
-2.2382526	military hardliners.	-3.4362688
-1.667544	As heir	-3.4362688
-2.8231783	to Zulfikar	-3.4362688
-1.197708	Zulfikar Ali	-3.4362688
-3.0023062	the legendary	-3.4362688
-2.278234	Pakistan's democratic	-3.4362688
-2.4635317	a democratic	-3.4362688
-2.6248407	of democratic	-3.4362688
-1.7546394	some democratic	-3.4362688
-1.1886686	legendary democratic	-3.4362688
-1.8700986	democratic leader	-3.4362688
-1.1951722	pro-Western leader	-3.4362688
-1.4900653	only leader	-3.4362688
-0.32212782	leader who	-3.4362688
-2.269667	was hanged	-3.4362688
-1.4950801	General Muhammad	-3.4362688
-1.197708	Muhammad Zia-ul-Haq's	-3.4362688
-2.6901765	in 1979,	-3.4362688
-1.7921785	Benazir emerged	-3.4362688
-2.6702864	a symbol	-3.4362688
-2.8414447	of resistance	-3.4362688
-2.6702864	a young	-3.4362688
-1.197708	young age	-3.4362688
-2.123515	but languished	-3.4362688
-2.6901765	in jails	-3.4362688
-2.8187711	and exile	-3.4362688
-3.0023062	the 1980's.	-3.4362688
-2.0001607	<s> Z.	-3.4362688
-1.197708	Z. A.	-3.4362688
-2.0001564	<s> Bhutto's	-3.4362688
-2.7695444	of Bhutto's	-3.4362688
-1.1951722	A. Bhutto's	-3.4362688
-1.667544	Bhutto's legacy	-3.4362688
-2.269667	was empowerment	-3.4362688
-3.0023062	the impoverished	-3.4362688
-2.8187711	and defense	-3.4362688
-1.4950801	ordinary people's	-3.4362688
-1.667544	rights amid	-3.4362688
-1.197708	amid feudalistic	-3.4362688
-1.8700986	democratic politics	-3.4362688
-1.1951722	feudalistic politics	-3.4362688
-1.1951722	election-year politics	-3.4362688
-2.2382526	military rule.	-3.4362688
-1.4950801	than bowing	-3.4362688
-2.2382526	military junta,	-3.4362688
-2.3295612	he embraced	-3.4362688
-3.0023062	the gallows.	-3.4362688
-2.0001607	<s> Hours	-3.4362688
-1.194451	Hours before	-3.4362688
-1.194451	shooter before	-3.4362688
-2.454938	his hanging,	-3.4362688
-2.269667	was allowed	-3.4362688
-2.8231783	to see	-3.4362688
-2.2382526	her father	-3.4362688
-1.4950801	time, writing	-3.4362688
-2.2382526	her autobiography:	-3.4362688
-1.197708	autobiography: "I	-3.4362688
-1.197708	"I told	-3.4362688
-1.197708	told him	-3.4362688
-2.3590019	on my	-3.4362688
-1.197708	my oath	-3.4362688
-2.454938	his death	-3.4362688
-1.197708	death cell,	-3.4362688
-1.197708	cell, I	-3.4362688
-1.9578701	would carry	-3.4362688
-2.454938	his work."	-3.4362688
-1.6990503	<s> She	-3.4362688
-1.4950801	She largely	-3.4362688
-1.197708	largely lived	-3.4362688
-3.0023062	the promise.	-3.4362688
-1.6990503	<s> Her	-3.4362688
-1.7888854	first stint	-3.4362688
-2.6021862	a prime	-3.4362688
-2.3289497	as prime	-3.4362688
-1.9487876	new prime	-3.4362688
-1.6601052	prime minister	-3.4362688
-1.1951722	chief minister	-3.4362688
-1.1951722	cabinet minister	-3.4362688
-1.667544	minister (1988-90)	-3.4362688
-2.269667	was brief	-3.4362688
-2.8187711	and disorganized.	-3.4362688
-2.0001607	<s> Lt.	-3.4362688
-1.197708	Lt. Gen.	-3.4362688
-1.197708	Gen. Hamid	-3.4362688
-1.197708	Hamid Gul,	-3.4362688
-1.4950801	former Inter-Services	-3.4362688
-1.197708	Inter-Services Intelligence	-3.4362688
-1.197708	Intelligence (ISI)	-3.4362688
-1.197708	(ISI) chief,	-3.4362688
-1.197708	chief, confirmed	-3.4362688
-2.3295612	he sponsored	-3.4362688
-2.1798222	an alliance	-3.4362688
-1.194451	strategic alliance	-3.4362688
-2.8414447	of right-wing	-3.4362688
-2.8231783	to stop	-3.4362688
-2.0804274	from getting	-3.4362688
-2.6702864	a parliamentary	-3.4362688
-1.197708	parliamentary majority.	-3.4362688
-2.0001607	<s> Information	-3.4362688
-2.397585	Pakistan's nuclear	-3.4362688
-1.197708	nuclear program	-3.4362688
-2.8187711	and ISI	-3.4362688
-2.2382526	her domain.	-3.4362688
-1.4950801	Her second	-3.4362688
-1.197708	second term	-3.4362688
-2.6901765	in office	-3.4362688
-1.197708	office (1993-96)	-3.4362688
-2.269667	was longer	-3.4362688
-2.8187711	and better,	-3.4362688
-2.2985296	government again	-3.4362688
-1.197708	again fell	-3.4362688
-1.197708	fell early,	-3.4362688
-1.197708	early, owing	-3.4362688
-2.8231783	to charges	-3.4362688
-2.8414447	of mismanagement	-3.4362688
-2.8187711	and corruption.	-3.4362688
-1.4950801	reality, machinations	-3.4362688
-1.7888854	intelligence agencies	-3.4362688
-1.9394467	also played	-3.4362688
-1.194451	north played	-3.4362688
-2.6702864	a part.	-3.4362688
-1.7888854	had developed	-3.4362688
-2.2083402	an entrenched	-3.4362688
-1.197708	entrenched distrust	-3.4362688
-2.7510269	of her,	-3.4362688
-1.194451	target her,	-3.4362688
-1.4950801	her, given	-3.4362688
-2.6702864	a popularly	-3.4362688
-1.197708	popularly supported	-3.4362688
-1.197708	supported pro-Western	-3.4362688
-1.4950801	wanted peace	-3.4362688
-1.3825585	with India.	-3.7372456
-2.0001607	<s> After	-3.4362688
-1.197708	After almost	-3.4362688
-2.6702864	a decade	-3.4362688
-2.6901765	in self-imposed	-3.4362688
-1.197708	self-imposed exile,	-3.4362688
-1.197708	exile, Bhutoo's	-3.4362688
-2.5845547	a return	-3.4362688
-1.194451	Bhutoo's return	-3.4362688
-1.4950801	October gave	-3.4362688
-2.6702864	a fresh	-3.4362688
-2.38471	political start.	-3.4362688
-1.7888854	had changed,	-3.4362688
-2.2382526	military dictatorship	-3.4362688
-3.0023062	the north	-3.4362688
-1.4950801	played havoc	-3.4362688
-3.0023062	the fabric	-3.4362688
-2.8414447	of society.	-3.4362688
-1.7888854	A tentative	-3.4362688
-1.197708	tentative arrangement	-3.4362688
-1.4950801	Musharraf, together	-3.4362688
-2.513684	with Western	-3.4362688
-2.2038379	-- particularly	-3.4362688
-1.7888854	United Kingdom	-3.4362688
-1.7888854	United States	-3.4362688
-2.2038379	-- eased	-3.4362688
-2.2382526	her return,	-3.4362688
-1.9611096	which hundreds	-3.4362688
-1.4950801	people welcomed,	-3.4362688
-1.667544	though terrorists	-3.4362688
-1.197708	terrorists greeted	-3.4362688
-2.6702864	a string	-3.4362688
-1.8822275	suicide bombings.	-3.4362688
-1.667544	Bhutto's contacts	-3.4362688
-2.513684	with Mushararf's	-3.4362688
-2.2985296	government drew	-3.4362688
-1.197708	drew criticism,	-3.4362688
-2.102589	but she	-3.4362688
-1.9487876	which she	-3.4362688
-1.1951722	Indeed, she	-3.4362688
-1.4950801	remained adamant	-3.4362688
-2.269667	was possible	-3.4362688
-2.8546653	the only	-3.4362688
-1.194451	possible only	-3.4362688
-1.4886442	only through	-3.4362688
-1.194451	routed through	-3.4362688
-2.6702864	a transition	-3.4362688
-1.4950801	civilian head	-3.4362688
-2.7510269	of state,	-3.4362688
-1.194451	60-year-old state,	-3.4362688
-2.8187711	and conduct	-3.4362688
-2.8187711	and fair	-3.4362688
-1.197708	fair elections.	-3.4362688
-3.0023062	the dismay	-3.4362688
-1.8822275	democratic forces,	-3.4362688
-1.7888854	Bhutto stayed	-3.4362688
-3.0023062	the course	-3.4362688
-1.6580048	she even	-3.4362688
-1.194451	course even	-3.4362688
-1.4950801	even after	-3.4362688
-2.5079195	Musharraf imposed	-3.4362688
-1.197708	imposed emergency	-3.4362688
-2.3590019	on November	-3.4362688
-1.197708	November 3	-3.4362688
-2.8187711	and removed	-3.4362688
-2.8231783	to ensure	-3.4362688
-2.454938	his re-election.	-3.4362688
-2.0001607	<s> Indeed,	-3.4362688
-1.4950801	even persuaded	-3.4362688
-2.7373843	and other	-3.4362688
-1.4900653	few other	-3.4362688
-1.1951722	persuaded other	-3.4362688
-1.667544	other important	-3.4362688
-2.8231783	to participate	-3.4362688
-3.0023062	the planned	-3.4362688
-1.197708	planned January	-3.4362688
-1.197708	January 8	-3.4362688
-1.197708	8 election,	-3.4362688
-2.1798222	an opportunity	-3.4362688
-2.419266	that opportunity	-3.4362688
-2.8231783	to challenge	-3.4362688
-1.9611096	religious extremist	-3.4362688
-1.667544	public square.	-3.4362688
-1.4950801	She seized	-3.4362688
-2.2382526	by bravely	-3.4362688
-1.197708	bravely traveling	-3.4362688
-1.197708	traveling throughout	-3.4362688
-1.4950801	serious threats	-3.4362688
-2.2382526	her life,	-3.4362688
-1.197708	life, arguing	-3.4362688
-2.8187711	and pluralistic	-3.4362688
-2.0001607	<s> One	-3.4362688
-1.7888854	can understand	-3.4362688
-1.197708	understand why	-3.4362688
-1.4950801	extremists like	-3.4362688
-1.9578701	would target	-3.4362688
-2.2985296	government claims	-3.4362688
-2.429077	that it	-3.4362688
-1.7790759	But it	-3.4362688
-1.1951722	planned, it	-3.4362688
-2.5452893	is impossible	-3.4362688
-2.8231783	to defend	-3.4362688
-1.8822275	suicide attack.	-3.4362688
-1.3010621	<s> But	-3.5331786
-2.269667	was reportedly	-3.4362688
-1.197708	reportedly killed	-3.4362688
-2.6702864	a sharp	-3.4362688
-1.197708	sharp shooter	-3.4362688
-1.667544	terrorist blew	-3.4362688
-2.4514368	Musharraf himself	-3.4362688
-1.194451	blew himself	-3.4362688
-1.4950801	himself up.	-3.4362688
-2.0001607	<s> So,	-3.4362688
-3.0023062	the eyes	-3.4362688
-2.397585	Pakistan's people,	-3.4362688
-1.667544	Bhutto's supporters,	-3.4362688
-1.7888854	intelligence services,	-3.4362688
-1.197708	services, either	-3.4362688
-1.197708	either alone	-3.4362688
-2.6901765	in collaboration	-3.4362688
-2.513684	with extremists,	-3.4362688
-1.197708	extremists, finally	-3.4362688
-2.8231783	to eliminate	-3.4362688
-1.197708	eliminate her.	-3.4362688
-1.6990503	<s> Whether	-3.4362688
-2.269667	was involved,	-3.4362688
-3.0023062	the fact	-3.4362688
-1.197708	fact remains	-3.4362688
-2.2413414	has lost	-3.4362688
-2.6702864	a desperately	-3.4362688
-1.197708	desperately needed	-3.4362688
-1.197708	needed leader.	-3.4362688
-2.0001607	<s> With	-3.4362688
-2.397585	Pakistan's future	-3.4362688
-3.0023062	the balance,	-3.4362688
-3.0023062	the West's	-3.4362688
-2.2985296	be crucial,	-3.4362688
-2.4653027	that means	-3.4362688
-1.197708	means recognizing	-3.4362688
-1.7888854	can resolve	-3.4362688
-2.397585	Pakistan's myriad	-3.4362688
-1.197708	myriad problems	-3.4362688
-2.8187711	and manage	-3.4362688
-2.0001607	<s> On	-3.4362688
-3.0023062	the contrary,	-3.4362688
-2.2382526	by nurturing	-3.4362688
-3.0023062	the current	-3.4362688
-1.197708	current environment	-3.4362688
-2.8414447	of instability	-3.4362688
-2.8187711	and uncertainty,	-3.4362688
-2.1837645	Pakistan must	-3.4362688
-1.4900653	himself must	-3.4362688
-1.1951722	States, must	-3.4362688
-2.2985296	be regarded	-3.4362688
-2.3586612	as one	-3.4362688
-2.397585	Pakistan's biggest	-3.4362688
-1.197708	biggest problems.	-3.4362688
-2.0001607	<s> Exorcising	-3.4362688
-1.8822275	Musharraf's Ghost	-3.4362688
-2.0001607	<s> CAMBRIDGE	-3.4362688
-2.2038379	-- Following	-3.4362688
-1.9578701	its recent	-3.4362688
-1.667544	free elections,	-3.4362688
-2.5452893	is rebounding	-3.4362688
-1.197708	rebounding politically.	-3.4362688
-3.0023062	the euphoria	-3.4362688
-2.4653027	that came	-3.4362688
-3.0023062	the end	-3.4362688
-2.5079195	Musharraf era	-3.4362688
-2.5452893	is wearing	-3.4362688
-1.197708	wearing off,	-3.4362688
-2.2985296	government faces	-3.4362688
-1.197708	faces stark	-3.4362688
-1.197708	stark choices.	-3.4362688
-2.0001607	<s> Unlike	-3.4362688
-1.197708	Unlike Iraq	-3.4362688
-2.8187711	and Afghanistan,	-3.4362688
-2.1266773	this 60-year-old	-3.4362688
-2.123515	but ethnic	-3.4362688
-1.197708	ethnic cleavages,	-3.4362688
-1.197708	cleavages, weak	-3.4362688
-1.197708	weak institutions,	-3.4362688
-3.0023062	the North	-3.4362688
-1.7888854	are perennially	-3.4362688
-1.197708	perennially destabilizing.	-3.4362688
-2.0001607	<s> And,	-3.4362688
-2.2985296	government settles	-3.4362688
-2.8187711	and establishes	-3.4362688
-1.9578701	its priorities,	-3.4362688
-3.0023062	the West,	-3.4362688
-1.7888854	United States,	-3.4362688
-1.667544	must reassess	-3.4362688
-3.0023062	the impact	-3.4362688
-1.9394467	its past	-3.4362688
-1.194451	own past	-3.4362688
-1.4950801	past dealings	-3.4362688
-1.667544	prime minister,	-3.4362688
-1.197708	minister, Yousaf	-3.4362688
-1.197708	Yousaf Gilani,	-3.4362688
-2.6702864	a seasoned	-3.4362688
-1.197708	seasoned politician	-3.4362688
-1.4950801	more importantly,	-3.4362688
-2.209173	has Sufi	-3.4362688
-2.8546653	the Sufi	-3.4362688
-1.4950801	Sufi family	-3.4362688
-1.197708	family roots,	-3.4362688
-2.6702864	a good	-3.4362688
-1.197708	good omen	-3.4362688
-1.197708	omen because	-3.4362688
-1.4950801	Sufi tradition	-3.4362688
-2.8414447	of tolerance.	-3.4362688
-2.0001607	<s> Gilani	-3.4362688
-1.197708	Gilani unequivocally	-3.4362688
-2.454938	his inaugural	-3.4362688
-1.197708	inaugural address	-3.4362688
-1.4950801	fighting terrorism	-3.4362688
-1.667544	top priority,	-3.4362688
-2.8231783	to release	-3.4362688
-2.0804274	from house	-3.4362688
-1.197708	house arrest	-3.4362688
-1.667544	judges deposed	-3.4362688
-2.1658454	The respite	-3.4362688
-3.0023062	the horrendous	-3.4362688
-1.197708	horrendous spate	-3.4362688
-1.8822275	suicide bombings	-3.4362688
-2.2985296	government assumed	-3.4362688
-1.197708	assumed power	-3.4362688
-2.5452893	is similarly	-3.4362688
-1.197708	similarly heartening.	-3.4362688
-3.0023062	the honeymoon	-3.4362688
-1.197708	honeymoon period	-3.4362688
-2.5452893	is coming	-3.4362688
-2.2083402	an end.	-3.4362688
-2.0001607	<s> Already,	-3.4362688
-2.6901765	in Gilani's	-3.4362688
-1.197708	Gilani's hometown	-3.4362688
-2.8414447	of Multan,	-3.4362688
-1.197708	Multan, rioters	-3.4362688
-1.197708	rioters attacked	-3.4362688
-2.2985296	government offices	-3.4362688
-2.8187711	and banks	-3.4362688
-2.8231783	to protest	-3.4362688
-1.197708	protest electricity	-3.4362688
-1.197708	electricity disruptions.	-3.4362688
-1.7888854	A couple	-3.4362688
-2.8414447	of well-known	-3.4362688
-1.197708	well-known opposition	-3.4362688
-1.197708	opposition politicians,	-3.4362688
-2.6702864	a chief	-3.4362688
-2.6702864	a federal	-3.4362688
-1.197708	federal cabinet	-3.4362688
-3.0023062	the previous	-3.4362688
-1.197708	previous pro-Musharraf	-3.4362688
-1.197708	pro-Musharraf government,	-3.4362688
-1.9578701	were publicly	-3.4362688
-1.197708	publicly thrashed,	-3.4362688
-1.197708	thrashed, raising	-3.4362688
-1.197708	raising doubts	-3.4362688
-2.2985296	government control	-3.4362688
-2.8187711	and order	-3.4362688
-3.0023062	the country.	-3.4362688
-2.0001607	<s> So	-3.4362688
-1.197708	So far,	-3.4362688
-2.2413414	has accepted	-3.4362688
-2.454938	his diminishing	-3.4362688
-1.197708	diminishing stature	-3.4362688
-1.197708	stature quietly	-3.4362688
-1.667544	other options.	-3.4362688
-2.38471	political leadership,	-3.4362688
-1.197708	leadership, both	-3.4362688
-2.8187711	and outside	-3.4362688
-3.0023062	the parliament,	-3.4362688
-1.4950801	been carefully	-3.4362688
-1.197708	carefully avoiding	-3.4362688
-2.6702864	a head-on	-3.4362688
-1.197708	head-on collision	-3.4362688
-2.0001607	<s> Interestingly,	-3.4362688
-3.0023062	the midst	-3.4362688
-2.38471	political transition,	-3.4362688
-2.5079195	Musharraf embarked	-3.4362688
-2.6702864	a week-long	-3.4362688
-1.197708	week-long visit	-3.4362688
-2.7162132	to China	-3.4362688
-1.194451	between China	-3.4362688
-2.8231783	to lobby	-3.4362688
-2.3295612	for construction	-3.4362688
-2.2083402	an oil	-3.4362688
-2.8187711	and gas	-3.4362688
-1.197708	gas pipeline	-3.4362688
-1.197708	pipeline between	-3.4362688
-3.0023062	the Persian	-3.4362688
-1.197708	Persian Gulf	-3.4362688
-2.2985296	be routed	-3.4362688
-2.1658454	The deeper	-3.4362688
-1.197708	deeper question	-3.4362688
-1.197708	question raised	-3.4362688
-2.1024313	this proposal	-3.4362688
-1.7763155	A proposal	-3.4362688
-2.5452893	is whether	-3.4362688
-2.5079195	Musharraf meant	-3.4362688
-2.8231783	to convey	-3.4362688
-2.6702864	a message	-3.4362688
-2.397585	Pakistan's priorities	-3.4362688
-1.9578701	were shifting.	-3.4362688
-2.1658454	The revival	-3.4362688
-1.8854938	will undoubtedly	-3.4362688
-1.197708	undoubtedly effect	-3.4362688
-1.197708	effect Pakistan-US	-3.4362688
-1.197708	Pakistan-US relations.	-3.4362688
-2.2382526	military links	-3.4362688
-1.4950801	America appear	-3.4362688
-2.8231783	to remain	-3.4362688
-2.6702864	a sound	-3.4362688
-1.197708	sound footing,	-3.4362688
-1.197708	footing, so	-3.4362688
-3.0023062	the strategic	-3.4362688
-2.5452893	is likely	-3.4362688
-2.8231783	to continue,	-3.4362688
-1.197708	continue, perhaps	-3.4362688
-1.7888854	some nuanced	-3.4362688
-1.197708	nuanced differences	-3.4362688
-1.667544	over how	-3.4362688
-3.0023062	the "war	-3.4362688
-2.3590019	on terror."	-3.4362688
-1.4950801	Pakistani politicians	-3.4362688
-1.7888854	are bound	-3.4362688
-2.2985296	be influenced	-3.4362688
-1.667544	public opinion,	-3.4362688
-2.5452893	is generally	-3.4362688
-1.197708	generally critical	-3.4362688
-1.9578701	US policies.	-3.4362688
-2.0001607	<s> Nevertheless,	-3.4362688
-1.197708	Nevertheless, long-term	-3.4362688
-1.9578701	US interests	-3.4362688
-3.0023062	the region	-3.4362688
-2.2985296	be better	-3.4362688
-1.197708	better served	-3.4362688
-1.197708	served if	-3.4362688
-2.0245202	forces successfully	-3.4362688
-1.197708	successfully establish	-3.4362688
-1.197708	establish themselves.	-3.4362688
-1.9578701	US Senate	-3.4362688
-2.8231783	to increase	-3.4362688
-1.197708	increase development	-3.4362688
-2.8187711	and education	-3.4362688
-1.197708	education aid	-3.4362688
-2.6901765	in winning	-3.4362688
-3.0023062	the hearts	-3.4362688
-2.8187711	and minds.	-3.4362688
-2.0001607	<s> Meanwhile,	-3.4362688
-1.4950801	President George	-3.4362688
-1.197708	George W.	-3.4362688
-2.419266	that Bush	-3.4362688
-1.194451	W. Bush	-3.4362688
-2.2413414	has said	-3.4362688
-2.4653027	that "if	-3.4362688
-1.197708	"if another	-3.4362688
-1.4950801	September 11-style	-3.4362688
-1.197708	11-style attack	-3.4362688
-1.4170864	is being	-3.4362688
-1.4950801	being planned,	-3.4362688
-1.6708647	it probably	-3.4362688
-1.4950801	being plotted	-3.4362688
-2.0245202	not Afghanistan."	-3.4362688
-1.7888854	intelligence assessment	-3.4362688
-2.5452893	is based	-3.4362688
-2.3590019	on credible	-3.4362688
-1.197708	credible information	-3.4362688
-2.5452893	is unknown.	-3.4362688
-1.667544	American election-year	-3.4362688
-2.2985296	be behind	-3.4362688
-2.1266773	this assertion.	-3.4362688
-2.5452893	is significant	-3.4362688
-2.8231783	to voice	-3.4362688
-0.9593539	this view	-3.4362688
-1.4950801	view during	-3.4362688
-2.38471	political transition.	-3.4362688
-1.667544	must take	-3.4362688
-1.4950801	view seriously,	-3.4362688
-1.197708	seriously, regardless	-3.4362688
-2.8414447	of Bush's	-3.4362688
-1.197708	Bush's motivations.	-3.4362688
-1.667544	should quickly	-3.4362688
-1.197708	quickly devise	-3.4362688
-2.6702864	a policy	-3.4362688
-2.8231783	to deal	-3.4362688
-2.513684	with terrorism.	-3.4362688
-2.0001607	<s> Recent	-3.4362688
-1.197708	Recent months	-3.4362688
-1.4950801	seen dozens	-3.4362688
-1.667544	terrorist activities	-3.4362688
-3.0023062	the price	-3.4362688
-2.397585	Pakistan's own	-3.4362688
-1.4950801	past blunders,	-3.4362688
-2.3586612	as well	-3.4362688
-3.0023062	the West.	-3.4362688
-2.8231783	to settle	-3.4362688
-3.0023062	the Kashmir	-3.4362688
-1.197708	Kashmir imbroglio	-3.4362688

\3-grams:
-0.0001422667	Last Act? </s>
-0.0001422667	of emergency. </s>
-0.0001422667	His goal? </s>
-0.00007955487	and media. </s>
-0.00007955487	the media. </s>
-0.00007955487	free media. </s>
-0.0001422667	more effectively. </s>
-0.0001422667	the truth. </s>
-0.0001422667	camel's back. </s>
-0.0001422667	"nation-building" project. </s>
-0.0001422667	might deliver. </s>
-0.00007111458	on terror. </s>
-0.47725886	in Pakistan </s>
-0.0001422667	in Kashmir. </s>
-0.0001422667	and arms. </s>
-0.0001422667	Pakistan's independence. </s>
-0.0001422667	mixed results. </s>
-0.0001422667	with contradictions. </s>
-0.0001422667	and actions). </s>
-0.0001422667	"enlightened moderation." </s>
-0.0001422667	border region. </s>
-0.0001422667	Iftikhar Chaudhry. </s>
-0.0001422667	his post. </s>
-0.0001422667	political dynamic. </s>
-0.0001422667	in July. </s>
-0.0001422667	intelligence agencies. </s>
-0.0001422667	"national security." </s>
-0.00007955487	the president. </s>
-0.00007955487	for president. </s>
-0.00007955487	civilian president. </s>
-0.0001422667	elected office. </s>
-0.0001422667	the judiciary. </s>
