\data\
ngram 1=6329
ngram 2=19137
ngram 3=23870

\1-grams:
-4.3462453	<unk>	0
0	<s>	-0.38427776
-3.2551982	</s>	0
-2.652123	he	-0.21635376
-2.2113428	is	-0.22912787
-1.9522046	a	-0.1200031
-4.212571	caricaturist	-0.053203974
-1.2868385	,	-0.37221453
-2.8249996	but	-0.12045364
-2.7179956	also	-0.07318837
-4.212571	sensualist	-0.053203974
-4.0597653	creating	-0.053203974
-4.212571	warm-hearted	-0.053203974
-4.212571	eye-catching	-0.053203974
-4.0597653	images	-0.053203974
-3.0608907	through	-0.09019881
-4.212571	exaggerated	-0.053203974
-4.0597653	form	-0.053203974
-1.3572671	.	-0.9172308
-4.0597653	however	-0.124697685
-3.2551982	under	-0.10400362
-1.7813171	the	-0.13952711
-3.7215505	air	-0.053203974
-4.212571	navigation	-0.053203974
-3.8613431	order	-0.053203974
-3.615966	2009	-0.33522758
-2.8249996	which	-0.11860379
-3.399151	came	-0.22904009
-2.9271224	into	-0.17277917
-3.8613431	effect	-0.053203974
-2.7956774	last	-0.25941157
-3.7215505	month	-0.19892384
-3.3456876	police	-0.0898656
-2.4390557	are	-0.14021805
-3.5310967	allowed	-0.09953584
-1.6726707	to	-0.22107393
-4.0597653	arrest	-0.053203974
-3.1472669	any	-0.07245862
-3.7215505	person	-0.053203974
-4.212571	suspected	-0.053203974
-1.6791266	of	-0.22251642
-4.212571	directing	-0.053203974
-2.632213	or	-0.09044947
-4.212571	shining	-0.053203974
-3.615966	light	-0.053203974
-2.3012638	at	-0.38953254
-2.577436	an	-0.08264986
-4.0597653	aircraft	-0.21032563
-1.7586043	in	-0.28753754
-3.7215505	flight	-0.124697685
-4.212571	dazzle	-0.053203974
-4.212571	distract	-0.053203974
-4.212571	pilot	-0.053203974
-2.492057	(	-0.13571438
-3.3456876	washington	-0.073975705
-2.5365376	)	-0.2845954
-2.7682104	—	-0.07946909
-3.8613431	consensus	-0.053203974
-3.2980905	began	-0.14985882
-4.212571	emerge	-0.053203974
-3.399151	sunday	-0.08040597
-2.070664	that	-0.18602659
-3.5310967	best	-0.053203974
-3.2551982	way	-0.21556018
-3.7215505	give	-0.053204
-4.212571	florida's	-0.053203974
-4.0597653	democrats	-0.053203974
-4.212571	voice	-0.053203974
-4.212571	electing	-0.053203974
-3.7215505	candidate	-0.124697685
-1.9751626	for	-0.25126353
-3.216164	president	-0.09537845
-4.212571	lies	-0.053203974
-2.2459102	with	-0.18757187
-3.1165261	u	-1.0219736
-3.8613431	s	-0.053203974
-4.212571	postal	-0.053203974
-3.7215505	service	-0.053203974
-2.7179956	this	-0.10917648
-2.3245852	was	-0.15228793
-3.3456876	enough	-0.1161474
-4.212571	send	-0.053203974
-3.5310967	ms	-0.16748111
-3.7215505	green	-0.053203974
-2.7300155	who	-0.13529849
-2.9673014	“	-0.06948579
-4.212571	corpsed	-0.053203974
-3.0608907	”	-0.10304239
-4.0597653	1997	-0.053203974
-3.0115798	over	-0.39686167
-3.615966	name	-0.053203974
-4.0597653	papua	-0.21032563
-2.9467473	new	-0.1174607
-4.212571	guinea	-0.053203974
-2.4581814	’	-0.59460956
-3.4601321	chief	-0.09260663
-3.4601321	staff	-0.09260663
-3.8613431	jack	-0.053203974
-4.212571	tuat	-0.053203974
-3.8613431	fit	-0.053203974
-4.212571	giggles	-0.053203974
-3.4601321	report	-0.095791005
-3.615966	released	-0.10942635
-3.399151	wednesday	-0.11810807
-2.2539802	by	-0.2111974
-4.212571	kaiser	-0.053203974
-3.4601321	family	-0.09260663
-4.0597653	foundation	-0.053203974
-3.216164	found	-0.17334901
-4.0597653	youngsters	-0.053203974
-2.9673014	between	-0.11676561
-3.615966	8	-0.09260663
-1.6538596	and	-0.1458202
-3.3456876	18	-0.14052561
-3.0878181	years	-0.1280898
-3.4601321	old	-0.053203974
-4.212571	devote	-0.053203974
-3.615966	average	-0.053203974
-3.5310967	7	-0.083536334
-3.8613431	hours	-0.053203974
-4.212571	38	-0.053203974
-3.8613431	minutes	-0.053203974
-3.0355358	per	-0.2903793
-3.1165261	day	-0.28805438
-4.0597653	entertainment	-0.053203974
-3.4601321	media	-0.124697685
-2.7682104	not	-0.10942779
-4.212571	uwink	-0.053203974
-4.0597653	restaurant	-0.053203974
-4.212571	nsw	-0.053203974
-3.7215505	premier	-0.124697685
-4.212571	morris	-0.053203974
-4.212571	iemma	-0.053203974
-3.7215505	suggested	-0.124697685
-3.7215505	ban	-0.053203974
-2.7179956	after	-0.23528396
-4.212571	scandal	-0.053203974
-4.212571	beachside	-0.053203974
-3.4601321	city	-0.10659454
-4.0597653	wollongong	-0.053203974
-3.4601321	where	-0.07245862
-3.8613431	corruption	-0.053203974
-4.212571	watchdog	-0.053203974
-2.5365376	has	-0.17498943
-3.7215505	heard	-0.053203974
-3.615966	evidence	-0.09260663
-4.212571	bribes	-0.053203974
-4.212571	solicited	-0.053203974
-3.7215505	development	-0.053203974
-4.212571	approvals	-0.053203974
-3.8613431	sexual	-0.053203974
-4.212571	relations	-0.053203974
-4.212571	developers	-0.053203974
-4.212571	female	-0.053203974
-3.5310967	council	-0.09953584
-4.0597653	planner	-0.053203974
-3.399151	these	-0.053203974
-3.615966	design	-0.053203974
-3.8613431	changes	-0.053203974
-2.6131759	will	-0.21520224
-3.5310967	take	-0.10400362
-4.212571	least	-0.053203974
-3.4601321	five	-0.1359717
-3.615966	come	-0.11810807
-3.216164	market	-0.134431
-4.212571	solve	-0.053203974
-4.212571	emissions	-0.053203974
-3.7215505	problems	-0.053203974
-2.1276524	on	-0.3126686
-2.5949385	their	-0.07863982
-3.4601321	own	-0.07245862
-3.615966	added	-0.124697685
-4.212571	york	-0.053203974
-4.0597653	reuters	-0.053203974
-3.0355358	-	-0.08024006
-4.212571	quarterback	-0.053203974
-4.212571	marc	-0.053203974
-4.0597653	bulger	-0.053203974
-3.615966	return	-0.1944456
-3.8613431	st	-0.053203974
-4.0597653	louis	-0.053203974
-4.212571	rams	-0.053203974
-3.615966	starting	-0.053203974
-4.0597653	lineup	-0.053203974
-4.212571	remainder	-0.053203974
-3.2551982	season	-0.21267803
-3.7215505	coach	-0.053203974
-4.212571	jim	-0.053203974
-4.212571	haslett	-0.053203974
-2.3918247	said	-0.31778404
-3.3456876	tuesday	-0.20781432
-3.615966	despite	-0.1491968
-2.5949385	his	-0.07691111
-4.212571	iconic	-0.053203974
-4.212571	status	-0.053203974
-2.4453378	it	-0.27444986
-4.212571	slowly	-0.053203974
-4.212571	revealing	-0.053203974
-4.212571	mere	-0.053203974
-3.3456876	human	-0.34357238
-2.8564458	all	-0.13320234
-3.615966	though	-0.053203974
-4.212571	hotels	-0.053203974
-2.9888766	we	-0.15566216
-4.212571	checked	-0.053203974
-3.0115798	say	-0.15938222
-2.890348	there	-0.27862087
-4.212571	plenty	-0.053203974
-3.8613431	rooms	-0.053203974
-3.2980905	free	-0.053203974
-3.8613431	moment	-0.124697685
-3.399151	it's	-0.053204
-3.399151	likely	-0.20718874
-3.615966	visitors	-0.053203974
-4.212571	qingdao	-0.053203974
-3.8613431	august	-0.053203974
-3.0115798	may	-0.15444672
-2.5288005	have	-0.19393334
-3.615966	look	-0.09260663
-4.212571	cheaper	-0.053203974
-4.0597653	options	-0.053203974
-2.890348	if	-0.2128055
-2.7956774	they	-0.18924464
-3.8613431	leave	-0.053203974
-4.212571	booking	-0.053203974
-3.2980905	too	-0.07575235
-3.399151	late	-0.053203974
-4.212571	ve	-0.053203974
-2.5689423	had	-0.17336753
-3.7215505	experience	-0.053203974
-3.615966	getting	-0.053203974
-3.5310967	know	-0.053203974
-4.212571	clintons	-0.053203974
-2.6838117	one	-0.23989579
-3.615966	side	-0.1944456
-4.0597653	fence	-0.053203974
-3.8613431	mother	-0.053203974
-3.0608907	like	-0.12180828
-3.0355358	my	-0.053203974
-4.212571	neighbour	-0.053203974
-2.8730662	her	-0.12348366
-4.212571	eights	-0.053203974
-3.8613431	kids	-0.053203974
-2.9888766	no	-0.0748276
-4.0597653	father	-0.053203974
-2.9673014	them	-0.14168784
-4.0597653	bush's	-0.053203974
-3.615966	failure	-0.33522758
-4.0597653	keep	-0.053203974
-4.0597653	congress	-0.053203974
-4.212571	informed	-0.053203974
-3.7215505	created	-0.053203974
-4.212571	friction	-0.053203974
-4.212571	imperil	-0.053203974
-4.212571	congressional	-0.053203974
-3.399151	support	-0.20781432
-4.212571	policies	-0.053203974
-3.5310967	toward	-0.09953584
-3.2980905	north	-0.077861466
-4.0597653	korea	-0.053203974
-4.212571	syria	-0.053203974
-4.0597653	mississippi	-0.053203974
-3.3456876	reported	-0.15950076
-4.0597653	deaths	-0.053203974
-2.544415	about	-0.20317078
-3.399151	11	-0.1359717
-4.212571	injuries	-0.053203974
-3.0115798	two	-0.09004258
-4.212571	tornadoes	-0.053203974
-4.212571	ripped	-0.053203974
-3.5310967	across	-0.16748111
-4.0597653	industrial	-0.053203974
-4.212571	park	-0.053203974
-4.0597653	seriously	-0.053203974
-4.212571	damaging	-0.053203974
-4.212571	caterpillar	-0.053203974
-4.0597653	factory	-0.1514074
-4.212571	farm	-0.053203974
-3.7215505	communities	-0.124697685
-3.8613431	university	-0.053203974
-4.212571	campus	-0.053203974
-4.212571	oxford	-0.053203974
-4.212571	jason	-0.053203974
-3.3456876	2	-0.11810807
-4.212571	collaboration	-0.053203974
-4.212571	nasa	-0.053203974
-3.8613431	french	-0.053203974
-3.615966	space	-0.053203974
-3.4601321	agency	-0.087481335
-4.212571	cnes	-0.053203974
-2.3392038	as	-0.29129305
-3.615966	well	-0.053203974
-4.212571	noaa	-0.053203974
-3.615966	european	-0.053203974
-4.212571	meteorological	-0.053203974
-4.0597653	satellite	-0.053203974
-3.615966	organization	-0.053203974
-4.212571	eumetsat	-0.053203974
-4.0597653	publicly	-0.053203974
-4.212571	privately-owned	-0.053203974
-4.212571	stations	-0.053203974
-4.0597653	eastern	-0.053203974
-4.212571	illinois	-0.053203974
-3.615966	scored	-0.053203974
-4.0597653	24	-0.053203974
-3.7215505	points	-0.053203974
-2.9888766	off	-0.11374552
-3.8613431	19	-0.124697685
-4.212571	tennessee-martin	-0.053203974
-4.212571	turnovers	-0.053203974
-4.212571	camp	-0.053203974
-4.0597653	short	-0.053203974
-4.0597653	walk	-0.053203974
-2.2878494	from	-0.20684476
-4.212571	heliport	-0.053203974
-3.615966	low	-0.053203974
-4.212571	bluff	-0.053203974
-4.212571	overlooking	-0.053203974
-4.0597653	creek	-0.053203974
-4.212571	lazy	-0.053203974
-4.212571	tea-and-milk-colored	-0.053203974
-3.7215505	current	-0.053203974
-4.212571	celtic	-0.053203974
-2.6420538	:	-0.14534417
-4.212571	boruc	-0.053203974
-4.212571	caldwell	-0.053203974
-3.8613431	wilson	-0.053203974
-4.0597653	64	-0.21032563
-4.212571	mcmanus	-0.053203974
-4.212571	loovens	-0.053203974
-4.212571	naylor	-0.053203974
-4.212571	mcgeady	-0.053203974
-4.212571	scott	-0.053203974
-3.615966	brown	-0.053203974
-4.212571	crosas	-0.053203974
-4.212571	hartley	-0.053203974
-3.8613431	90	-0.053203974
-4.212571	robson	-0.053203974
-4.212571	mcdonald	-0.053203974
-4.212571	sheridan	-0.053203974
-4.212571	maloney	-0.053203974
-4.212571	confrontations	-0.053203974
-4.212571	monks	-0.053203974
-3.7215505	monday	-0.053203974
-3.216164	year	-0.18333356
-2.4581814	"	-0.10116583
-4.212571	maximizing	-0.053203974
-4.212571	eyeballs	-0.053203974
-3.8613431	proved	-0.053203974
-4.0597653	especially	-0.053203974
-4.0597653	challenging	-0.053203974
-3.8613431	17	-0.053203974
-4.212571	oct	-0.053203974
-3.216164	most	-0.09449462
-4.212571	overstretched	-0.053203974
-3.2980905	state	-0.053204
-2.7817268	its	-0.07349936
-3.7215505	size	-0.053203974
-4.212571	draws	-0.053203974
-3.7215505	attention	-0.124697685
-4.212571	considerable	-0.053203974
-4.0597653	fiscal	-0.053203974
-4.212571	woes	-0.053203974
-3.3456876	without	-0.08040597
-4.0597653	clear	-0.053203974
-4.212571	reference	-0.053203974
-3.4601321	30	-0.09260663
-3.399151	%	-0.12595691
-3.615966	figure	-0.053203974
-3.7215505	throughout	-0.124697685
-3.5310967	americans	-0.053203974
-2.810091	would	-0.21252717
-3.615966	europe	-0.13594419
-3.7215505	review	-0.053203974
-3.8613431	discusses	-0.053203974
-3.5310967	greater	-0.053203974
-3.4601321	use	-0.1359717
-4.212571	unmanned	-0.053203974
-4.212571	airplanes	-0.053203974
-4.212571	reconnaissance	-0.053203974
-4.212571	airstrikes	-0.053203974
-4.212571	recognizing	-0.053203974
-3.2980905	need	-0.22904009
-4.0597653	protect	-0.1514074
-4.0597653	troops	-0.053203974
-4.212571	roadside	-0.053203974
-3.8613431	bombs	-0.053203974
-4.212571	enhancing	-0.053203974
-3.7215505	training	-0.053203974
-3.615966	intelligence	-0.10942635
-4.0597653	sometimes	-0.053203974
-4.212571	seized	-0.053203974
-4.212571	villagers	-0.053203974
-4.0597653	carry	-0.053203974
-4.212571	unbearably	-0.053203974
-3.7215505	heavy	-0.053203974
-4.212571	loads	-0.053203974
-4.212571	heads	-0.053203974
-3.4601321	days	-0.08040597
-4.212571	jungles	-0.053203974
-2.810091	when	-0.22474465
-3.8613431	main	-0.053203974
-4.212571	roads	-0.053203974
-2.5524378	were	-0.102392
-4.212571	dangerous	-0.053203974
-4.212571	vehicles	-0.053203974
-4.212571	occidental	-0.053203974
-3.615966	shares	-0.053203974
-3.7215505	rose	-0.053203974
-4.212571	$7	-0.053203974
-4.0597653	62	-0.21032563
-2.9271224	1	-0.38362744
-3.216164	percent	-0.118760355
-4.212571	$49	-0.053203974
-4.212571	70	-0.053203974
-3.399151	both	-0.053203974
-3.399151	men	-0.053203974
-4.0597653	testified	-0.053203974
-4.0597653	prosecution	-0.053203974
-3.7215505	online	-0.053203974
-4.0597653	publishing	-0.053203974
-4.212571	tool	-0.053203974
-3.4601321	called	-0.053203974
-3.7215505	making	-0.09260663
-3.7215505	news	-0.053203974
-4.212571	mtn	-0.053203974
-3.2980905	been	-0.08325999
-4.212571	ten	-0.053203974
-4.0597653	england's	-0.053203974
-4.212571	rbcs	-0.053203974
-4.0597653	playing	-0.053203974
-3.615966	big	-0.09260663
-4.0597653	bad	-0.053203974
-4.212571	sec	-0.053203974
-4.212571	primed	-0.053203974
-3.8613431	win	-0.053203974
-4.212571	rough	-0.053203974
-4.212571	tumble	-0.053203974
-3.615966	east	-0.09953584
-4.212571	division	-0.053203974
-4.212571	thieves	-0.053203974
-4.212571	stole	-0.053203974
-3.7215505	500	-0.053203974
-4.0597653	metal	-0.053203974
-3.8613431	clips	-0.3230036
-4.212571	railway	-0.053203974
-3.4601321	line	-0.09260663
-2.9888766	could	-0.123836875
-3.8613431	caused	-0.3230036
-4.212571	derailment	-0.053203974
-3.1803508	even	-0.09260663
-4.0597653	boundaries	-0.053203974
-2.9271224	be	-0.122249864
-3.4601321	used	-0.10400362
-2.6838117	more	-0.19083375
-3.0608907	than	-0.12692164
-4.212571	decade	-0.053203974
-2.8564458	out	-0.22909106
-3.8613431	date	-0.053203974
-3.8613431	based	-0.1514074
-4.212571	electoral	-0.053203974
-4.212571	rolls	-0.053203974
-3.8613431	february	-0.053203974
-3.8613431	2000	-0.053203974
-2.9673014	so	-0.12214409
-3.8613431	whom	-0.053203974
-3.4601321	did	-0.11810807
-2.7423778	you	-0.13601704
-4.0597653	relate	-0.053203974
-4.212571	essay	-0.053203974
-4.212571	author	-0.053203974
-2.7817268	?	-0.9557838
-4.212571	solzhenitsyn's	-0.053203974
-3.615966	death	-0.10942635
-4.0597653	inspired	-0.053203974
-3.1472669	many	-0.11066294
-4.212571	tributes	-0.053203974
-3.615966	including	-0.053203974
-3.2980905	man	-0.10942635
-4.212571	dismantled	-0.053203974
-4.212571	gulag	-0.053203974
-3.8613431	camps	-0.1514074
-4.0597653	1980s	-0.053203974
-3.5310967	former	-0.053204
-4.0597653	soviet	-0.053203974
-4.212571	mikhail	-0.053203974
-4.212571	gorbachev	-0.053203974
-4.212571	denny	-0.053203974
-4.212571	hamlin	-0.053203974
-3.2980905	took	-0.09953584
-4.212571	japanese	-0.053203974
-4.0597653	automaker	-0.053203974
-3.1165261	first	-0.06899808
-4.0597653	victory	-0.053203974
-4.0597653	lane	-0.053203974
-3.7215505	winning	-0.124697685
-3.5310967	second	-0.07245862
-4.212571	qualifying	-0.053203974
-3.4601321	race	-0.19892384
-3.4601321	thursday	-0.1161474
-4.0597653	governments	-0.053203974
-3.8613431	receive	-0.053203974
-4.212571	dalai	-0.053203974
-4.212571	lama	-0.053203974
-3.7215505	personal	-0.053203974
-3.7215505	capacity	-0.053203974
-3.8613431	risk	-0.053203974
-4.212571	ire	-0.053203974
-3.7215505	chinese	-0.053203974
-3.216164	government	-0.073975705
-3.8613431	although	-0.053203974
-3.7215505	beijing	-0.053203974
-4.0597653	itself	-0.053203974
-3.8613431	various	-0.053203974
-4.212571	occaisions	-0.053203974
-3.7215505	ready	-0.2743726
-4.212571	talk	-0.053203974
-2.9673014	him	-0.14473417
-4.0597653	tibet	-0.053203974
-4.0597653	certain	-0.053203974
-4.0597653	conditions	-0.053203974
-3.8613431	cnn	-0.053203974
-3.0608907	--	-0.08903482
-3.8613431	strong	-0.053203974
-3.4601321	opposition	-0.053203974
-3.5310967	conservative	-0.09260663
-3.399151	voters	-0.053203974
-4.212571	virginia's	-0.053203974
-4.212571	gop	-0.053203974
-3.8613431	primary	-0.053203974
-4.212571	three-quarters	-0.053203974
-3.8613431	republican	-0.1514074
-3.8613431	surveyed	-0.1514074
-4.212571	satisfied	-0.053203974
-3.4601321	john	-0.1359717
-3.615966	mccain	-0.053203974
-4.0597653	party's	-0.124697685
-4.212571	standard-bearer	-0.053203974
-3.8613431	november	-0.053203974
-3.8613431	privacy	-0.053203974
-4.212571	protections	-0.053203974
-4.0597653	built	-0.053203974
-3.2980905	our	-0.10942635
-3.615966	products	-0.10942635
-4.212571	yasmin	-0.053203974
-4.212571	rassool	-0.053203974
-4.212571	unite	-0.053203974
-2.9467473	against	-0.16362597
-4.212571	fascism	-0.053203974
-2.9467473	she	-0.120037325
-3.8613431	rally	-0.053203974
-3.8613431	protest	-0.053203974
-3.4601321	visit	-0.053203974
-3.0878181	mr	-0.18624526
-4.212571	wilders	-0.053203974
-3.615966	planned	-0.053203974
-4.212571	edl	-0.053203974
-3.3456876	march	-0.053203974
-4.212571	surely	-0.053203974
-2.9467473	what	-0.12131796
-4.212571	chooses	-0.053203974
-3.2980905	do	-0.14450553
-3.7215505	body	-0.053203974
-3.2980905	business	-0.08040597
-4.0597653	nobody	-0.21032563
-3.4601321	else	-0.053203974
-3.5310967	public	-0.053203974
-4.212571	portillo	-0.053203974
-4.212571	speak	-0.053203974
-4.212571	epidermolysis	-0.053203974
-4.212571	bullosa	-0.053203974
-3.8613431	rare	-0.053203974
-4.212571	skin	-0.053203974
-3.8613431	condition	-0.053203974
-2.9083462	can	-0.10339637
-3.8613431	affect	-0.053203974
-3.2551982	children	-0.07575235
-3.7215505	full	-0.124697685
-4.0597653	flavor	-0.053203974
-4.212571	maupillier	-0.053203974
-3.0878181	says	-0.21840034
-3.8613431	ball	-0.053203974
-4.0597653	touched	-0.053203974
-3.5310967	ground	-0.09260663
-2.9467473	just	-0.09722123
-3.0878181	before	-0.19096218
-3.615966	hit	-0.053203974
-4.212571	glove	-0.053203974
-4.0597653	allowing	-0.053203974
-4.212571	duhay	-0.053203974
-4.212571	scamper	-0.053203974
-2.9888766	home	-0.14434096
-3.399151	third	-0.053203974
-4.0597653	7-3	-0.053203974
-3.3456876	lead	-0.18712422
-3.2551982	part	-0.43072253
-4.212571	yanukovych	-0.053203974
-4.0597653	seek	-0.053203974
-3.7215505	messages	-0.053203974
-4.212571	introducing	-0.053203974
-4.212571	visa-free	-0.053203974
-4.212571	travel	-0.053203974
-4.212571	immigration	-0.053203974
-4.212571	fears	-0.053203974
-4.212571	expressed	-0.053203974
-2.9673014	some	-0.13612491
-3.8613431	eu	-0.053203974
-4.0597653	capitals	-0.053203974
-4.212571	q	-0.053203974
-4.212571	riley	-0.053203974
-4.212571	northampton	-0.053203974
-3.7215505	england	-0.053203974
-4.212571	asks	-0.053203974
-3.5310967	why	-0.053203974
-4.0597653	can't	-0.053203974
-4.212571	pcs	-0.053203974
-3.7215505	turn	-0.053203974
-3.8613431	television	-0.053203974
-3.4601321	does	-0.2344279
-4.212571	depending	-0.053203974
-4.0597653	chain	-0.053203974
-3.8613431	adding	-0.124697685
-4.212571	lounge	-0.053203974
-3.7215505	access	-0.44794232
-3.2980905	your	-0.053203974
-3.8613431	hotel	-0.053203974
-3.5310967	bill	-0.09953584
-3.216164	might	-0.098553605
-4.212571	upwards	-0.053203974
-4.0597653	$50	-0.053203974
-4.0597653	weigh	-0.053203974
-3.8613431	cost	-0.1514074
-4.0597653	overpriced	-0.053203974
-4.212571	breakfasts	-0.053203974
-4.0597653	bar	-0.053203974
-3.615966	food	-0.10942635
-4.212571	fee	-0.053203974
-3.399151	won	-0.12595691
-4.0597653	t	-0.053203974
-4.212571	sting	-0.053203974
-3.1803508	much	-0.18712422
-3.2551982	here	-0.077861466
-4.0597653	/	-0.053203974
-3.4601321	energy	-0.09260663
-3.8613431	resources	-0.053203974
-4.0597653	russian	-0.053203974
-3.8613431	gas	-0.053203974
-4.212571	nabucco	-0.053203974
-3.7215505	spent	-0.053203974
-4.212571	1970s	-0.053203974
-3.8613431	rock	-0.053203974
-4.0597653	photographer	-0.053203974
-4.212571	chronicling	-0.053203974
-4.212571	likes	-0.053203974
-4.0597653	queen	-0.053203974
-4.212571	kiss	-0.053203974
-4.212571	abba	-0.053203974
-3.8613431	sex	-0.053203974
-4.212571	pistols	-0.053203974
-4.212571	mötley	-0.053203974
-4.212571	crüe	-0.053203974
-3.8613431	29	-0.053203974
-4.212571	closed-door	-0.053203974
-4.0597653	deliberations	-0.21032563
-3.7215505	interest	-0.124697685
-3.7215505	rate	-0.053203974
-3.7215505	policy	-0.053203974
-3.2551982	officials	-0.10942635
-3.7215505	believed	-0.053203974
-4.212571	extracted	-0.053203974
-3.8613431	secret	-0.053203974
-4.212571	promise	-0.053203974
-4.212571	netanyahu	-0.053203974
-4.0597653	allow	-0.053203974
-4.212571	provocative	-0.053203974
-4.0597653	steps	-0.053203974
-3.8613431	jerusalem	-0.124697685
-4.212571	philadelphia	-0.053203974
-4.212571	11-8	-0.053203974
-3.8613431	injured	-0.053203974
-4.0597653	jimmy	-0.053203974
-4.212571	rollins	-0.053203974
-3.8613431	context	-0.053203974
-4.0597653	haul	-0.053203974
-4.212571	jpmorgan	-0.053203974
-4.212571	chase	-0.053203974
-3.3456876	&	-0.053203974
-4.212571	co's	-0.053203974
-4.212571	jpm	-0.053203974
-4.0597653	n	-0.1514074
-4.212571	quote	-0.053203974
-4.212571	profile	-0.053203974
-3.216164	research	-0.053204
-3.615966	initial	-0.053203974
-4.212571	fire-sale	-0.053203974
-4.212571	takeover	-0.053203974
-4.0597653	bid	-0.053203974
-4.212571	$236	-0.053203974
-2.9467473	million	-0.06388119
-3.7215505	bear	-0.124697685
-4.212571	stearns	-0.053203974
-4.212571	cos	-0.053203974
-3.8613431	inc	-0.1514074
-4.212571	bsc	-0.053203974
-4.212571	rickey	-0.053203974
-4.212571	mirabito	-0.053203974
-3.8613431	andrew	-0.053203974
-4.212571	brancaccio	-0.053203974
-3.216164	each	-0.09953584
-2.9673014	three	-0.112878196
-4.0597653	goals	-0.053203974
-4.212571	georgetown	-0.053203974
-4.212571	2-1	-0.053203974
-4.212571	topped	-0.053203974
-3.8613431	visiting	-0.053203974
-3.7215505	red	-0.053203974
-4.0597653	storm	-0.053203974
-4.212571	0-1	-0.053203974
-4.212571	superstars	-0.053203974
-4.212571	bunch	-0.053203974
-4.212571	solid	-0.053203974
-3.216164	players	-0.07575235
-3.615966	end	-0.053203974
-2.577436	up	-0.2604723
-4.212571	nba	-0.053203974
-4.212571	lottery-pick	-0.053203974
-3.0878181	money	-0.1827126
-4.212571	pockets	-0.053203974
-3.4601321	national	-0.053204
-3.8613431	title	-0.053203974
-4.0597653	forever	-0.21032563
-4.212571	withstood	-0.053203974
-4.212571	mighty	-0.053203974
-4.212571	mind	-0.053203974
-4.212571	qcdoc	-0.053203974
-3.8613431	italian	-0.053203974
-4.212571	architect	-0.053203974
-4.212571	carlo	-0.053203974
-4.212571	ratti	-0.053203974
-4.212571	tries	-0.053203974
-4.212571	push	-0.053203974
-3.8613431	art	-0.053203974
-4.0597653	van	-0.21032563
-4.212571	persie	-0.053203974
-3.399151	next	-0.10400362
-3.2980905	get	-0.09261909
-3.4601321	call	-0.053203974
-4.0597653	arriving	-0.053203974
-4.212571	64th	-0.053203974
-4.0597653	minute	-0.053203974
-3.2980905	place	-0.11373506
-4.212571	anonymous	-0.053203974
-4.212571	denilson	-0.053203974
-3.0115798	other	-0.06308125
-4.0597653	words	-0.053203974
-4.212571	projects	-0.053203974
-3.3456876	future	-0.077861466
-3.7215505	events	-0.053203974
-3.0355358	while	-0.112878196
-4.0597653	result	-0.1514074
-4.0597653	audit	-0.053203974
-3.615966	includes	-0.053203974
-3.0878181	only	-0.08903482
-4.212571	realised	-0.053203974
-4.0597653	gains	-0.053203974
-4.0597653	losses	-0.053203974
-4.212571	incidentally	-0.053203974
-2.9467473	i	-0.14134873
-3.8613431	m	-0.053203974
-3.7215505	going	-0.44794232
-3.3456876	school	-0.083536334
-4.212571	architect/urban	-0.053203974
-3.216164	work	-0.118760355
-4.0597653	towards	-0.053203974
-3.7215505	everyone	-0.053203974
-3.7215505	live	-0.10942635
-4.212571	nice	-0.053203974
-4.212571	walkable	-0.053203974
-4.0597653	neighborhood	-0.053203974
-4.212571	bligh	-0.053203974
-3.4601321	14	-0.09260663
-2.7817268	people	-0.20471212
-3.615966	killed	-0.09260663
-3.8613431	flooding	-0.053203974
-3.8613431	equivalent	-0.1514074
-4.212571	toll	-0.053203974
-4.212571	exacted	-0.053203974
-3.0115798	during	-0.2747125
-4.0597653	1974	-0.053203974
-4.212571	flood	-0.053203974
-3.3456876	oil	-0.053203974
-3.3456876	prices	-0.12595691
-4.212571	marching	-0.053203974
-4.0597653	steadily	-0.053203974
-3.5310967	higher	-0.053203974
-3.0878181	since	-0.13737902
-4.0597653	fall	-0.053203974
-4.212571	occasional	-0.053203974
-3.399151	price	-0.12595691
-4.212571	corrections	-0.053203974
-4.212571	$10	-0.053203974
-3.615966	followed	-0.10942635
-4.212571	rapid	-0.053203974
-3.8613431	rebounds	-0.1514074
-4.212571	heights	-0.053203974
-4.212571	long-term	-0.053203974
-4.212571	lease	-0.053203974
-3.5310967	agreement	-0.053203974
-3.8613431	key	-0.053203974
-3.8613431	component	-0.1514074
-4.0597653	google's	-0.053203974
-3.615966	strategy	-0.17402484
-4.212571	continued	-0.053203974
-3.8613431	growth	-0.1514074
-3.8613431	silicon	-0.3230036
-4.0597653	valley	-0.124697685
-3.4601321	david	-0.053203974
-4.212571	radcliffe	-0.053203974
-4.212571	vice-president	-0.053203974
-3.4601321	real	-0.1491968
-4.212571	estate	-0.053203974
-4.212571	workplace	-0.053203974
-3.3456876	services	-0.23288172
-4.0597653	ticket	-0.053203974
-4.212571	$48	-0.053203974
-4.212571	80	-0.053203974
-4.0597653	opening	-0.053203974
-3.8613431	2008	-0.10942635
-4.0597653	highest	-0.053203974
-4.212571	majors	-0.053203974
-3.1472669	another	-0.053203974
-4.212571	parallel	-0.053203974
-4.212571	kennedy	-0.053203974
-4.0597653	example	-0.053203974
-4.212571	prove	-0.053203974
-4.0597653	relevant	-0.053203974
-3.2980905	obama	-0.09467379
-4.212571	strategists	-0.053203974
-4.212571	smell	-0.053203974
-3.8613431	hospital	-0.053203974
-3.8613431	calls	-0.053203974
-3.8613431	surgery	-0.053203974
-4.0597653	worry	-0.21032563
-4.212571	scent	-0.053203974
-4.212571	doughnuts	-0.053203974
-4.212571	croissants	-0.053203974
-4.212571	stirs	-0.053203974
-4.212571	feelings	-0.053203974
-4.212571	comfort	-0.053203974
-4.212571	glee	-0.053203974
-4.212571	post-mortem	-0.053203974
-4.212571	examination	-0.053203974
-3.615966	due	-0.33522758
-4.212571	investigating	-0.053203974
-4.0597653	circumstances	-0.053203974
-4.212571	man's	-0.053203974
-4.212571	plain	-0.053203974
-3.7215505	white	-0.053203974
-4.212571	drying	-0.053203974
-4.212571	cloth	-0.053203974
-3.216164	made	-0.07245862
-4.212571	linen	-0.053203974
-4.212571	featuring	-0.053203974
-4.212571	initials	-0.053203974
-4.212571	catherine	-0.053203974
-4.212571	william	-0.053203974
-4.212571	intertwined	-0.053203974
-4.212571	prince's	-0.053203974
-4.212571	coronet	-0.053203974
-4.0597653	tony	-0.053203974
-4.212571	pouncey	-0.053203974
-3.7215505	60	-0.053203974
-3.2551982	those	-0.11894802
-3.7215505	patients	-0.053203974
-4.0597653	shown	-0.053203974
-4.0597653	twice	-0.053203974
-4.212571	officially	-0.053203974
-4.0597653	mourning	-0.053203974
-3.4601321	think	-0.083536334
-4.0597653	judges	-0.053203974
-4.212571	insane	-0.053203974
-4.212571	mccain's	-0.053203974
-3.4601321	campaign	-0.08040597
-3.8613431	manager	-0.1514074
-4.212571	rick	-0.053203974
-4.212571	davis	-0.053203974
-4.212571	registered	-0.053203974
-4.212571	lobbyist	-0.053203974
-3.5310967	paid	-0.053203974
-4.212571	$98	-0.053203974
-4.212571	996	-0.053203974
-3.615966	2007	-0.09953584
-3.4601321	taking	-0.13594419
-4.0597653	salary	-0.053203974
-3.8613431	according	-0.3230036
-4.212571	cho	-0.053203974
-4.212571	starring	-0.053203974
-4.212571	'star	-0.053203974
-4.212571	trek'	-0.053203974
-4.0597653	allows	-0.053203974
-4.212571	fulfill	-0.053203974
-4.0597653	greatest	-0.053203974
-4.212571	fantasies	-0.053203974
-4.212571	childhood	-0.053203974
-4.212571	projections	-0.053203974
-4.212571	airbus	-0.053203974
-3.2980905	today	-0.14052561
-4.212571	2020	-0.053203974
-4.212571	earliest	-0.053203974
-3.399151	several	-0.053203974
-3.2980905	members	-0.17791592
-4.212571	14-strong	-0.053203974
-4.212571	stag	-0.053203974
-3.3456876	party	-0.077861466
-4.212571	waded	-0.053203974
-3.615966	sea	-0.09953584
-4.212571	rescue	-0.053203974
-4.212571	kelly	-0.053203974
-4.0597653	beaten	-0.053203974
-3.1472669	back	-0.09260663
-4.212571	waves	-0.053203974
-3.5310967	don't	-0.12595691
-3.7215505	religious	-0.053203974
-4.212571	nutter	-0.053203974
-4.212571	oppose	-0.053203974
-4.212571	chalfant	-0.053203974
-3.4601321	right	-0.09260663
-4.0597653	hold	-0.053203974
-3.8613431	special	-0.053203974
-4.0597653	meetings	-0.053203974
-3.7215505	change	-0.053203974
-4.0597653	driver	-0.053203974
-4.0597653	licence	-0.21032563
-4.212571	massacre	-0.053203974
-3.4601321	world	-0.07245862
-3.615966	remain	-0.10942635
-4.0597653	silent	-0.053203974
-3.0608907	such	-0.1745597
-4.0597653	crimes	-0.053203974
-4.0597653	abbas	-0.053203974
-4.212571	engaging	-0.053203974
-3.2551982	set	-0.13218103
-4.212571	ranged	-0.053203974
-4.212571	folk-pop	-0.053203974
-4.212571	rock-and-roll	-0.053203974
-4.212571	que	-0.053203974
-4.0597653	sera	-0.21032563
-4.212571	lightly	-0.053203974
-4.0597653	latin	-0.053203974
-4.0597653	standard	-0.053203974
-4.212571	doris	-0.053203974
-4.212571	1956	-0.053203974
-4.212571	accepted	-0.053203974
-4.0597653	join	-0.053203974
-4.212571	darkmarket	-0.053203974
-4.0597653	criminals	-0.053203974
-3.8613431	provide	-0.053203974
-3.7215505	details	-0.053203974
-3.615966	100	-0.053203974
-4.212571	compromised	-0.053203974
-3.4601321	credit	-0.053203974
-4.0597653	cards	-0.053203974
-4.0597653	so-called	-0.053203974
-4.212571	reviewer	-0.053203974
-3.8613431	check	-0.053203974
-4.212571	write	-0.053203974
-3.615966	january	-0.053203974
-4.212571	rainfall	-0.053203974
-4.0597653	elegant	-0.053203974
-4.212571	outpost	-0.053203974
-3.5310967	london	-0.053203974
-4.212571	similarly	-0.053203974
-4.212571	buzzes	-0.053203974
-4.212571	corrigan's	-0.053203974
-4.212571	ebullience	-0.053203974
-4.212571	corporates	-0.053203974
-4.0597653	turning	-0.053203974
-4.0597653	bond	-0.053203974
-3.5310967	markets	-0.053203974
-4.212571	rethink	-0.053203974
-4.212571	strategies	-0.053203974
-4.212571	issuance	-0.053203974
-4.0597653	looks	-0.053203974
-3.615966	continue	-0.1944456
-3.1803508	time	-0.11810807
-4.212571	borrowing	-0.053203974
-3.4601321	costs	-0.09260663
-3.7215505	rise	-0.124697685
-4.212571	gilbert	-0.053203974
-4.212571	themes	-0.053203974
-4.0597653	class	-0.053203974
-4.212571	inequality	-0.053203974
-4.212571	overbearing	-0.053203974
-4.212571	nationalism	-0.053203974
-4.0597653	incompetent	-0.053203974
-3.4601321	authorities	-0.053203974
-4.212571	absurdly	-0.053203974
-4.0597653	treated	-0.053203974
-3.8613431	zone	-0.1514074
-4.0597653	gulf	-0.053203974
-3.7215505	largest	-0.053203974
-3.8613431	western	-0.053203974
-4.212571	hemisphere	-0.053203974
-4.0597653	stay	-0.053203974
-4.212571	fishing	-0.053203974
-4.212571	fueling	-0.053203974
-4.0597653	changing	-0.053203974
-4.212571	crews	-0.053203974
-4.212571	unloading	-0.053203974
-4.212571	catches	-0.053203974
-4.212571	refrigerated	-0.053203974
-4.212571	boats	-0.053203974
-3.2551982	international	-0.073975705
-4.212571	monitoring	-0.053203974
-4.0597653	extremely	-0.053203974
-3.8613431	difficult	-0.053203974
-4.0597653	yes	-0.053203974
-4.212571	walked	-0.053203974
-4.212571	podium	-0.053203974
-4.212571	grinned	-0.053203974
-3.5310967	thousands	-0.41440883
-4.212571	serenading	-0.053203974
-4.0597653	boos	-0.21032563
-3.8613431	raised	-0.053203974
-4.0597653	index	-0.053203974
-3.8613431	middle	-0.053203974
-4.0597653	fingers	-0.053203974
-3.7215505	anyone	-0.053203974
-4.0597653	imagine	-0.053203974
-3.7215505	kind	-0.44794232
-4.212571	frenzy	-0.053203974
-4.0597653	managed	-0.21032563
-4.0597653	bring	-0.053203974
-4.212571	94	-0.053203974
-4.212571	166	-0.053203974
-3.7215505	units	-0.053203974
-3.8613431	onto	-0.1514074
-4.212571	obviously	-0.053203974
-4.212571	surprise	-0.053203974
-4.212571	seems	-0.053203974
-4.0597653	wait	-0.053203974
-4.0597653	promised	-0.053203974
-3.2980905	cut	-0.053203974
-4.0597653	neither	-0.053203974
-4.0597653	fed	-0.053203974
-3.399151	given	-0.083536334
-4.0597653	behavior	-0.053203974
-3.615966	few	-0.10659454
-4.212571	kevin	-0.053203974
-4.212571	logan	-0.053203974
-4.0597653	economist	-0.21032563
-4.212571	dresdner	-0.053203974
-4.212571	kleinwort	-0.053203974
-4.212571	wasserstein	-0.053203974
-4.0597653	bridge	-0.053203974
-4.0597653	celebration	-0.053203974
-4.0597653	scheduled	-0.21032563
-3.5310967	include	-0.053203974
-4.212571	dance	-0.053203974
-4.0597653	performance	-0.053203974
-4.212571	13-	-0.053203974
-4.212571	16-year-old	-0.053203974
-4.212571	girls	-0.053203974
-3.7215505	pressure	-0.053203974
-4.212571	ultra-orthodox	-0.053203974
-4.212571	conservatives	-0.053203974
-4.212571	changed	-0.053203974
-4.212571	outfits	-0.053203974
-3.4601321	then	-0.07000455
-4.212571	canceled	-0.053203974
-4.212571	routine	-0.053203974
-4.212571	twentieth-century	-0.053203974
-3.615966	systems	-0.10942635
-3.216164	around	-0.10659454
-3.8613431	hospitals	-0.1514074
-4.212571	highly	-0.053203974
-4.212571	trained	-0.053203974
-4.212571	professionals	-0.053203974
-4.212571	high-tech	-0.053203974
-3.8613431	equipment	-0.053203974
-3.615966	little	-0.053203974
-3.7215505	role	-0.10942635
-4.212571	carers	-0.053203974
-4.212571	remarkably	-0.053203974
-4.0597653	successful	-0.21032563
-3.615966	economic	-0.053203974
-4.212571	polices	-0.053203974
-4.212571	reagan-bush	-0.053203974
-4.212571	i-bush	-0.053203974
-4.212571	ii	-0.053203974
-4.212571	throwbacks	-0.053203974
-4.212571	uninformed	-0.053203974
-4.212571	aggressively	-0.053203974
-4.212571	aristocratic	-0.053203974
-3.5310967	great	-0.053203974
-3.5310967	britain	-0.1514074
-4.212571	mid-1700's	-0.053203974
-4.212571	edmund	-0.053203974
-4.212571	burke	-0.053203974
-4.212571	voiced	-0.053203974
-3.8613431	liberal	-0.053203974
-4.212571	theories	-0.053203974
-3.7215505	point	-0.10942635
-4.212571	egan	-0.053203974
-3.8613431	tried	-0.1514074
-4.212571	broker	-0.053203974
-3.399151	deal	-0.18837526
-4.212571	koreans	-0.053203974
-4.0597653	agree	-0.053203974
-4.0597653	release	-0.053203974
-3.2551982	american	-0.053203974
-4.212571	pows	-0.053203974
-3.399151	instead	-0.29241982
-4.212571	apologizing	-0.053203974
-4.0597653	voting	-0.053203974
-4.0597653	hillary	-0.053203974
-3.7215505	!	-0.124697685
-4.0597653	looked	-0.053203974
-4.212571	3m	-0.053203974
-3.2980905	women	-0.077861466
-3.615966	study	-0.09953584
-4.212571	tracked	-0.053203974
-3.399151	health	-0.08040597
-4.212571	age	-0.053203974
-3.5310967	50	-0.09953584
-4.212571	onwards	-0.053203974
-3.5310967	recession	-0.27362683
-3.5310967	–	-0.053203974
-3.1803508	how	-0.12536389
-4.212571	happens	-0.053203974
-4.212571	opposed	-0.053203974
-4.212571	legalized	-0.053203974
-4.212571	gaming	-0.053203974
-3.216164	four	-0.053203974
-3.399151	major	-0.053203974
-3.8613431	sports	-0.053203974
-4.0597653	leagues	-0.053203974
-4.212571	numerous	-0.053203974
-3.399151	groups	-0.22895505
-3.5310967	often	-0.053203974
-4.212571	determine	-0.053203974
-3.8613431	attorney	-0.053203974
-2.9888766	should	-0.20122208
-4.0597653	wasn't	-0.053203974
-4.212571	objecting	-0.053203974
-4.212571	stress	-0.053203974
-3.7215505	speculation	-0.053203974
-4.212571	retailer	-0.053203974
-3.8613431	eventually	-0.053203974
-3.8613431	involved	-0.053203974
-4.212571	absolutely	-0.053203974
-4.212571	fruitless	-0.053203974
-3.615966	stage	-0.053203974
-4.212571	foiled	-0.053203974
-4.0597653	plots	-0.053203974
-4.0597653	separatists	-0.053203974
-4.212571	xinjiang	-0.053203974
-4.0597653	region	-0.053203974
-4.212571	northwest	-0.053203974
-3.615966	china	-0.053203974
-3.8613431	borders	-0.053203974
-3.615966	china's	-0.053203974
-3.8613431	muslim	-0.053203974
-3.7215505	population	-0.053203974
-4.212571	targeting	-0.053203974
-3.5310967	games	-0.16748111
-3.8613431	alleged	-0.053203974
-3.8613431	attempts	-0.3230036
-3.8613431	crash	-0.053203974
-4.212571	airliner	-0.053203974
-4.212571	kidnap	-0.053203974
-4.212571	athletes	-0.053203974
-4.0597653	journalists	-0.053203974
-4.0597653	jurors	-0.053203974
-3.8613431	july	-0.053203974
-4.212571	28	-0.053203974
-4.212571	bbfc	-0.053203974
-4.212571	pegi	-0.053203974
-3.7215505	far	-0.053203974
-3.8613431	failed	-0.3230036
-4.212571	reach	-0.053203974
-4.0597653	ministers	-0.053203974
-4.212571	hoped	-0.053203974
-4.212571	consultation	-0.053203974
-3.5310967	department	-0.053203974
-3.7215505	culture	-0.124697685
-4.0597653	sport	-0.053203974
-3.615966	issue	-0.10942635
-4.0597653	refugees	-0.053203974
-3.5310967	seven	-0.053203974
-4.212571	-run	-0.053203974
-4.212571	southeastern	-0.053203974
-4.212571	nepal	-0.053203974
-3.8613431	hand	-0.053203974
-4.212571	del	-0.053203974
-4.212571	toro	-0.053203974
-4.212571	hogan	-0.053203974
-4.0597653	prime	-0.053203974
-4.0597653	influence	-0.053203974
-4.212571	mystery	-0.053203974
-4.212571	ambition	-0.053203974
-4.212571	lowder	-0.053203974
-3.8613431	member	-0.1514074
-4.212571	auburn	-0.053203974
-3.5310967	board	-0.1514074
-4.212571	trustees	-0.053203974
-4.212571	donated	-0.053203974
-4.0597653	tens	-0.21032563
-4.0597653	millions	-0.21032563
-3.7215505	dollars	-0.053203974
-4.0597653	athletic	-0.053203974
-3.399151	companies	-0.087481335
-4.0597653	world's	-0.053203974
-4.212571	cellphone	-0.053203974
-3.7215505	maker	-0.053203974
-4.212571	nokia	-0.053203974
-3.3456876	top	-0.053203974
-3.7215505	mobile	-0.053203974
-3.8613431	network	-0.053203974
-4.212571	gear	-0.053203974
-4.212571	ericsson	-0.053203974
-4.212571	aiming	-0.053203974
-4.212571	boost	-0.053203974
-4.212571	take-up	-0.053203974
-3.7215505	technology	-0.124697685
-4.212571	agreeing	-0.053203974
-4.212571	license	-0.053203974
-4.212571	patents	-0.053203974
-4.212571	fair	-0.053203974
-4.0597653	reasonable	-0.053203974
-3.615966	terms	-0.1944456
-3.7215505	teams	-0.053203974
-4.212571	threats	-0.053203974
-4.212571	tournament	-0.053203974
-4.212571	sfa	-0.053203974
-4.212571	welcome	-0.053203974
-4.212571	debate	-0.053203974
-4.0597653	alcohol	-0.053203974
-4.212571	sponsorship	-0.053203974
-4.212571	griffin	-0.053203974
-4.0597653	wearing	-0.21032563
-4.212571	smart	-0.053203974
-3.615966	suit	-0.09260663
-3.615966	looking	-0.10942635
-3.8613431	younger	-0.053203974
-4.212571	fitter	-0.053203974
-4.0597653	remember	-0.053203974
-4.212571	preparing	-0.053203974
-4.0597653	interviews	-0.053203974
-4.212571	cameras	-0.053203974
-4.212571	prepared	-0.053203974
-4.0597653	notes	-0.053203974
-4.212571	95	-0.053203974
-3.7215505	lawyers	-0.053203974
-4.212571	slow	-0.053203974
-3.0878181	down	-0.14322357
-3.7215505	justice	-0.053203974
-4.212571	screaching	-0.053203974
-4.212571	halt	-0.053203974
-4.212571	wish	-0.053203974
-4.0597653	drop	-0.053203974
-3.8613431	dead	-0.053203974
-4.212571	colts	-0.053203974
-4.212571	14-2	-0.053203974
-3.5310967	put	-0.087481335
-4.212571	36-year-old	-0.053203974
-3.4601321	south	-0.14985882
-4.212571	dakota	-0.053203974
-4.212571	native	-0.053203974
-3.7215505	reserve	-0.053203974
-4.0597653	intend	-0.053203974
-4.212571	kickers	-0.053203974
-4.212571	active	-0.053203974
-4.212571	roster	-0.053203974
-4.0597653	meaning	-0.053203974
-4.212571	vinatieri	-0.053203974
-3.8613431	yet	-0.053203974
-3.8613431	kick	-0.053203974
-4.212571	healthy	-0.053203974
-3.7215505	faces	-0.124697685
-3.8613431	additional	-0.053203974
-3.8613431	charges	-0.053203974
-4.0597653	inviting	-0.053203974
-4.0597653	al-qaeda	-0.053203974
-4.212571	dissemination	-0.053203974
-4.212571	terrorist	-0.053203974
-4.212571	publications	-0.053203974
-4.0597653	indeed	-0.053203974
-3.8613431	effort	-0.053203974
-3.5310967	announced	-0.09953584
-3.8613431	september	-0.053203974
-4.212571	23rd	-0.053203974
-3.5310967	united	-0.1778025
-3.8613431	nations	-0.053203974
-3.615966	global	-0.053203974
-4.212571	compact	-0.053203974
-4.0597653	intended	-0.1514074
-3.4601321	help	-0.053203974
-3.4601321	see	-0.07575235
-3.615966	rights	-0.077861466
-4.212571	incorporate	-0.053203974
-3.8613431	thinking	-0.053203974
-4.212571	cartoonist	-0.053203974
-4.212571	reflection	-0.053203974
-3.7215505	larger	-0.053203974
-4.0597653	view	-0.053203974
-3.7215505	cause	-0.10942635
-4.212571	whe	-0.053203974
-3.4601321	something	-0.13594419
-3.8613431	sources	-0.053203974
-4.212571	surround	-0.053203974
-3.399151	us	-0.095791005
-4.0597653	educated	-0.053203974
-4.0597653	$5	-0.053203974
-3.8613431	debt	-0.053203974
-3.2980905	every	-0.1117902
-3.7215505	child	-0.053203974
-4.0597653	w	-0.21032563
-3.8613431	d	-0.1514074
-4.212571	renamed	-0.053203974
-4.212571	organisation	-0.053203974
-3.7215505	society	-0.23831756
-4.212571	muslims	-0.053203974
-4.212571	1977	-0.053203974
-4.212571	farrakhan	-0.053203974
-4.212571	revived	-0.053203974
-3.5310967	nation	-0.09953584
-4.212571	islam	-0.053203974
-4.212571	anti-semitic	-0.053203974
-4.212571	anti-white	-0.053203974
-4.212571	views	-0.053203974
-4.0597653	los	-0.21032563
-4.212571	angeles	-0.053203974
-4.212571	wave	-0.053203974
-3.8613431	injury	-0.053203974
-4.212571	lawsuits	-0.053203974
-4.0597653	stemming	-0.21032563
-4.212571	toyota's	-0.053203974
-4.0597653	massive	-0.053203974
-4.0597653	recall	-0.053203974
-4.0597653	growing	-0.053203974
-3.615966	number	-0.33522758
-3.7215505	consumer	-0.053203974
-4.212571	class-action	-0.053203974
-3.7215505	cases	-0.053203974
-3.7215505	40	-0.053203974
-4.212571	shrinking	-0.053203974
-4.212571	resale	-0.053203974
-3.8613431	value	-0.1514074
-3.8613431	cars	-0.1514074
-4.212571	1985	-0.053203974
-3.7215505	important	-0.053203974
-4.0597653	book	-0.053203974
-3.5310967	awards	-0.053203974
-3.7215505	common	-0.053203974
-4.212571	racial	-0.053203974
-4.212571	struggles	-0.053203974
-4.0597653	boston	-0.053203974
-3.7215505	questions	-0.09953584
-4.0597653	al	-0.053203974
-4.212571	jazeera	-0.053203974
-3.5310967	press	-0.09260663
-4.0597653	tv	-0.053203974
-4.212571	pravda	-0.053203974
-4.0597653	illegal	-0.053203974
-4.212571	invasions	-0.053203974
-3.8613431	afghanistan	-0.053203974
-3.7215505	iraq	-0.10942635
-4.212571	1278	-0.053203974
-4.212571	pareage	-0.053203974
-4.212571	andorra	-0.053203974
-4.212571	adopts	-0.053203974
-3.8613431	joint	-0.053203974
-4.212571	allegiance	-0.053203974
-3.615966	spanish	-0.053203974
-4.212571	prince	-0.053203974
-4.212571	disputes	-0.053203974
-4.212571	heirs	-0.053203974
-4.0597653	urgel	-0.053203974
-4.212571	countship	-0.053203974
-4.212571	bishops	-0.053203974
-3.7215505	college	-0.053203974
-4.212571	mattered	-0.053203974
-3.8613431	kentucky	-0.053203974
-3.7215505	gave	-0.053203974
-4.0597653	eight	-0.053203974
-4.212571	vermont	-0.053203974
-3.5310967	good	-0.053203974
-3.8613431	democrat	-0.053203974
-3.8613431	holding	-0.053203974
-4.212571	126-124	-0.053203974
-4.212571	wizards	-0.053203974
-3.8613431	needed	-0.1514074
-3.615966	stop	-0.09953584
-4.212571	kings	-0.053203974
-4.212571	pooh	-0.053203974
-4.212571	jeter	-0.053203974
-4.212571	blew	-0.053203974
-3.615966	past	-0.053203974
-4.0597653	wall	-0.053203974
-4.212571	tied	-0.053203974
-4.212571	score	-0.053203974
-4.0597653	layup	-0.053203974
-3.5310967	further	-0.053203974
-4.212571	embarrassment	-0.053203974
-3.7215505	mrs	-0.053203974
-4.0597653	palin	-0.21032563
-4.212571	alaska	-0.053203974
-3.8613431	governor	-0.053203974
-4.212571	vice-presidential	-0.053203974
-3.8613431	ruled	-0.053203974
-3.3456876	run	-0.053203974
-4.212571	presidency	-0.053203974
-4.212571	2012	-0.053203974
-4.212571	polar	-0.053203974
-4.212571	frog	-0.053203974
-3.8613431	licensed	-0.053203974
-4.0597653	video	-0.053203974
-3.7215505	original	-0.053203974
-4.0597653	format	-0.053203974
-4.212571	enables	-0.053203974
-3.7215505	company	-0.053203974
-4.212571	meet	-0.053203974
-4.212571	burning	-0.053203974
-4.0597653	buying	-0.053203974
-4.212571	renting	-0.053203974
-4.212571	downloading	-0.053203974
-4.212571	knee	-0.053203974
-4.212571	replacement	-0.053203974
-4.212571	necessarily	-0.053203974
-4.0597653	golf	-0.053203974
-4.212571	tennis	-0.053203974
-4.212571	jogging	-0.053203974
-4.212571	d'lima	-0.053203974
-4.212571	advised	-0.053203974
-4.212571	consider	-0.053203974
-4.212571	modifying	-0.053203974
-3.7215505	activities	-0.053203974
-3.216164	less	-0.26380217
-4.212571	strain	-0.053203974
-4.0597653	knees	-0.053203974
-3.5310967	sales	-0.13594419
-4.0597653	72	-0.21032563
-3.8613431	weekend	-0.053203974
-4.0597653	five-year	-0.053203974
-4.212571	kratzer	-0.053203974
-3.7215505	recently	-0.053203974
-4.212571	fielded	-0.053203974
-4.0597653	e-mail	-0.053203974
-4.212571	borrowers	-0.053203974
-4.0597653	straits	-0.053203974
-3.7215505	similar	-0.09953584
-4.212571	martins	-0.053203974
-4.212571	lenders	-0.053203974
-4.212571	reining	-0.053203974
-4.0597653	explanation	-0.053203974
-3.8613431	determined	-0.053203974
-3.7215505	property	-0.053203974
-3.8613431	values	-0.053203974
-3.7215505	associated	-0.21032563
-4.0597653	lines	-0.053203974
-4.0597653	declined	-0.053203974
-4.0597653	sharply	-0.053203974
-4.212571	anelka	-0.053203974
-3.7215505	fired	-0.053203974
-4.212571	malouda's	-0.053203974
-4.0597653	cross	-0.053203974
-4.212571	complete	-0.053203974
-4.0597653	scoring	-0.053203974
-3.5310967	inside	-0.053203974
-4.212571	hour	-0.053203974
-4.212571	officeholders	-0.053203974
-4.212571	representative	-0.053203974
-3.615966	signed	-0.09260663
-4.212571	pledge	-0.053203974
-4.212571	i've	-0.053203974
-3.615966	done	-0.053203974
-3.8613431	everything	-0.053203974
-3.216164	power	-0.053203974
-4.212571	invite	-0.053203974
-4.212571	venezuela	-0.053203974
-4.212571	ecuador	-0.053203974
-4.212571	participate	-0.053203974
-4.212571	noble	-0.053203974
-4.212571	treasury	-0.053203974
-4.212571	enforcement	-0.053203974
-4.212571	bend	-0.053203974
-3.7215505	saw	-0.124697685
-4.0597653	huge	-0.053203974
-4.212571	log	-0.053203974
-4.212571	metre	-0.053203974
-4.212571	thick	-0.053203974
-4.212571	blocking	-0.053203974
-4.212571	river	-0.053203974
-4.0597653	holes	-0.053203974
-4.0597653	savings	-0.053203974
-4.0597653	proposals	-0.053203974
-4.0597653	exposed	-0.053203974
-3.8613431	answer	-0.053203974
-3.5310967	direct	-0.053203974
-4.212571	phillies	-0.053203974
-4.212571	eighth	-0.053203974
-4.0597653	straight	-0.053203974
-4.212571	turner	-0.053203974
-3.615966	field	-0.10942635
-3.7215505	become	-0.053203974
-3.4601321	team	-0.053203974
-4.212571	consecutive	-0.053203974
-4.212571	victories	-0.053203974
-4.0597653	atlanta	-0.053203974
-4.212571	cincinnati	-0.053203974
-4.212571	seven-game	-0.053203974
-4.0597653	streak	-0.053203974
-4.212571	1980	-0.053203974
-4.212571	africa's	-0.053203974
-4.212571	rush	-0.053203974
-3.8613431	writing	-0.053203974
-4.212571	180	-0.053203974
-4.212571	865	-0.053203974
-3.8613431	uk	-0.053203974
-4.212571	drivers	-0.053203974
-4.0597653	warning	-0.053203974
-4.212571	arrange	-0.053203974
-4.0597653	repairs	-0.053203974
-4.0597653	potential	-0.053203974
-3.7215505	problem	-0.10942635
-4.212571	sticking	-0.053203974
-4.212571	jamming	-0.053203974
-4.212571	accelerator	-0.053203974
-4.212571	pedals	-0.053203974
-4.0597653	identified	-0.053203974
-4.0597653	sussex	-0.053203974
-4.0597653	guilty	-0.053203974
-4.212571	murdering	-0.053203974
-4.212571	teenager	-0.053203974
-4.0597653	spotted	-0.053203974
-4.212571	chatting	-0.053203974
-4.212571	girlfriend	-0.053203974
-4.212571	nightclub	-0.053203974
-4.212571	eastbourne	-0.053203974
-4.212571	examples	-0.053203974
-3.8613431	comments	-0.053203974
-3.7215505	necessary	-0.053203974
-4.212571	presenters	-0.053203974
-3.615966	able	-0.5448523
-4.0597653	successfully	-0.053203974
-4.0597653	create	-0.053203974
-4.0597653	identity	-0.053203974
-4.212571	connect	-0.053203974
-3.3456876	young	-0.083536334
-4.212571	listeners	-0.053203974
-4.212571	mentioning	-0.053203974
-4.212571	drinking	-0.053203974
-4.212571	interviewed	-0.053203974
-4.212571	separately	-0.053203974
-4.212571	coin	-0.053203974
-4.212571	toss	-0.053203974
-4.0597653	same	-0.053203974
-4.0597653	except	-0.21032563
-4.212571	brief	-0.053203974
-4.212571	handshake	-0.053203974
-4.212571	hug	-0.053203974
-4.212571	packers	-0.053203974
-4.0597653	practice	-0.053203974
-3.7215505	favre	-0.124697685
-4.212571	rejoined	-0.053203974
-3.8613431	minnesota	-0.053203974
-4.212571	vikings	-0.053203974
-4.212571	denied	-0.053203974
-4.212571	milwaukee	-0.053203974
-3.7215505	journal	-0.053203974
-4.212571	sentinel	-0.053203974
-3.615966	friday	-0.2344279
-3.8613431	let	-0.053203974
-3.8613431	available	-0.1514074
-3.7215505	trade	-0.053203974
-4.0597653	watching	-0.053203974
-4.212571	patch	-0.053203974
-4.212571	realize	-0.053203974
-4.0597653	easy	-0.053203974
-3.8613431	thing	-0.1514074
-4.212571	kaminsky	-0.053203974
-4.0597653	interview	-0.053203974
-3.615966	conference	-0.053203974
-3.216164	later	-0.25089565
-4.0597653	classic	-0.053203974
-3.5310967	case	-0.1359717
-4.0597653	cutting	-0.053203974
-4.212571	nose	-0.053203974
-4.212571	spite	-0.053203974
-3.615966	face	-0.1491968
-3.615966	p	-0.1944456
-4.212571	idea	-0.053203974
-3.8613431	google	-0.053203974
-3.8613431	‘	-0.053203974
-3.7215505	knows	-0.053203974
-4.212571	paranoid	-0.053203974
-4.212571	ignorance	-0.053203974
-4.0597653	we'll	-0.053203974
-4.212571	quick	-0.053203974
-4.212571	taps	-0.053203974
-4.0597653	waiting	-0.21032563
-3.8613431	someone	-0.053203974
-3.4601321	show	-0.1161474
-4.0597653	pick	-0.21032563
-3.615966	share	-0.09953584
-4.212571	load	-0.053203974
-3.4601321	long	-0.053203974
-3.399151	life	-0.053203974
-3.5310967	go	-0.1161474
-4.212571	hinges	-0.053203974
-3.8613431	documents	-0.053203974
-4.0597653	listed	-0.053203974
-3.7215505	presented	-0.053203974
-3.8613431	iran	-0.053203974
-4.212571	agencies	-0.053203974
-4.212571	indicate	-0.053203974
-4.212571	iranians	-0.053203974
-4.212571	ventured	-0.053203974
-4.212571	explosives	-0.053203974
-4.212571	uranium	-0.053203974
-4.0597653	processing	-0.053203974
-3.7215505	missile	-0.053203974
-4.212571	warhead	-0.053203974
-4.212571	ordinarily	-0.053203974
-4.212571	constructing	-0.053203974
-3.3456876	nuclear	-0.083536334
-3.8613431	weapons	-0.053203974
-4.212571	hundred	-0.053203974
-4.0597653	peacekeepers	-0.053203974
-3.8613431	areas	-0.053203974
-4.212571	affected	-0.053203974
-4.212571	latest	-0.053203974
-3.8613431	violence	-0.1514074
-4.0597653	criticised	-0.053203974
-4.212571	un	-0.053203974
-4.0597653	failing	-0.053203974
-4.212571	prevent	-0.053203974
-4.212571	killings	-0.053203974
-4.0597653	contrast	-0.053203974
-4.212571	riddled	-0.053203974
-4.212571	directives	-0.053203974
-4.212571	lab	-0.053203974
-4.212571	equality	-0.053203974
-4.212571	laws	-0.053203974
-4.212571	barmy	-0.053203974
-4.212571	harmy	-0.053203974
-4.212571	drowning	-0.053203974
-4.212571	tsunami	-0.053203974
-3.7215505	citizens	-0.124697685
-4.212571	hostile	-0.053203974
-3.4601321	country	-0.087481335
-4.212571	indiginous	-0.053203974
-4.212571	traditions	-0.053203974
-4.0597653	meanwhile	-0.053203974
-4.212571	spears'	-0.053203974
-4.0597653	trial	-0.053203974
-4.212571	misdemeanor	-0.053203974
-3.7215505	driving	-0.053203974
-4.212571	saudi	-0.053203974
-4.212571	boss	-0.053203974
-3.4601321	running	-0.053203974
-4.0597653	increase	-0.053203974
-3.8613431	15	-0.053203974
-4.212571	entitlement	-0.053203974
-4.212571	olds	-0.053203974
-4.212571	alongside	-0.053203974
-4.212571	childcare	-0.053203974
-4.212571	disadvantaged	-0.053203974
-4.212571	welcomed	-0.053203974
-3.5310967	parents	-0.053203974
-4.212571	richard	-0.053203974
-4.212571	hytner	-0.053203974
-4.0597653	deputy	-0.053203974
-4.0597653	chairman	-0.053203974
-4.0597653	advertising	-0.053203974
-4.0597653	saatchi	-0.053203974
-3.4601321	along	-0.2344279
-4.0597653	range	-0.053203974
-4.212571	influential	-0.053203974
-3.5310967	figures	-0.053203974
-4.212571	sectors	-0.053203974
-3.7215505	weeks	-0.053203974
-3.615966	ago	-0.1944456
-4.0597653	invoking	-0.21032563
-4.212571	spirit	-0.053203974
-4.212571	churchill	-0.053203974
-4.212571	rallying	-0.053203974
-4.212571	craft	-0.053203974
-4.212571	bretton	-0.053203974
-4.212571	woods	-0.053203974
-4.0597653	adjusted	-0.053203974
-4.212571	ebitda	-0.053203974
-4.212571	excludes	-0.053203974
-4.212571	share-based	-0.053203974
-4.212571	compensation	-0.053203974
-4.212571	pre-opening	-0.053203974
-4.212571	expenses	-0.053203974
-3.7215505	items	-0.053203974
-3.615966	included	-0.10942635
-4.0597653	loss	-0.053203974
-4.212571	continuing	-0.053203974
-4.212571	operations	-0.053203974
-4.212571	fake	-0.053203974
-4.212571	flesh	-0.053203974
-4.212571	fail	-0.053203974
-4.212571	enjoys	-0.053203974
-3.615966	british	-0.053203974
-4.0597653	clearly	-0.053203974
-4.0597653	delighted	-0.053203974
-4.212571	compliment	-0.053203974
-4.212571	v	-0.053203974
-4.212571	advantage	-0.053203974
-3.7215505	play	-0.053203974
-4.212571	hectoring	-0.053203974
-4.212571	speeches	-0.053203974
-4.0597653	protesting	-0.053203974
-3.7215505	hamas	-0.124697685
-4.0597653	hizbullah	-0.053203974
-4.0597653	birmingham	-0.053203974
-4.212571	willing	-0.053203974
-4.0597653	offer	-0.053203974
-3.615966	jones	-0.053203974
-4.212571	earns	-0.053203974
-3.1803508	£	-0.10942635
-4.212571	000	-0.053203974
-3.3456876	week	-0.14994386
-3.4601321	10	-0.16205685
-4.0597653	cent	-0.053203974
-3.399151	pay	-0.053203974
-4.212571	anticipated	-0.053203974
-4.212571	earnings	-0.053203974
-4.212571	42	-0.053203974
-3.8613431	cents	-0.053203974
-4.0597653	revenue	-0.053203974
-3.615966	$2	-0.33522758
-3.2980905	billion	-0.08040597
-3.7215505	survey	-0.124697685
-3.7215505	analysts	-0.053203974
-4.212571	thomson	-0.053203974
-3.216164	financial	-0.07245862
-4.0597653	bleak	-0.053203974
-4.0597653	visited	-0.053203974
-4.212571	excuse	-0.053203974
-4.212571	grumpy	-0.053203974
-4.212571	grunting	-0.053203974
-4.212571	eye-rolling	-0.053203974
-4.212571	baa	-0.053203974
-4.0597653	employee	-0.053203974
-4.212571	salute	-0.053203974
-4.212571	reclusive	-0.053203974
-4.212571	chicagoan	-0.053203974
-4.212571	kept	-0.053203974
-4.0597653	distance	-0.21032563
-4.0597653	hollywood	-0.053203974
-4.212571	featured	-0.053203974
-4.212571	hughes'	-0.053203974
-4.212571	popular	-0.053203974
-4.212571	teen	-0.053203974
-4.212571	comedies	-0.053203974
-4.212571	sixteen	-0.053203974
-4.212571	candles	-0.053203974
-4.0597653	ferris	-0.053203974
-4.212571	bueller's	-0.053203974
-4.0597653	breakfast	-0.053203974
-3.7215505	club	-0.053203974
-4.0597653	tape	-0.053203974
-4.212571	aired	-0.053203974
-3.5310967	saturday	-0.053203974
-4.212571	arabic	-0.053203974
-4.212571	channel	-0.053203974
-4.212571	al-jazeera	-0.053203974
-4.0597653	al-balawi	-0.053203974
-4.0597653	message	-0.053203974
-4.0597653	cia	-0.053203974
-4.212571	jordanian	-0.053203974
-4.212571	lib	-0.053203974
-4.212571	dems	-0.053203974
-4.212571	lit	-0.053203974
-3.615966	want	-0.1944456
-3.8613431	local	-0.053203974
-3.7215505	rather	-0.1944456
-3.8613431	scottish	-0.053203974
-4.212571	warner	-0.053203974
-4.212571	shaw	-0.053203974
-4.212571	prolific	-0.053203974
-4.212571	acclaimed	-0.053203974
-4.0597653	approaching	-0.053203974
-4.212571	arguably	-0.053203974
-4.0597653	entering	-0.053203974
-4.0597653	coming	-0.053203974
-4.0597653	critically	-0.053203974
-4.0597653	hailed	-0.053203974
-3.615966	production	-0.053203974
-4.212571	medea	-0.053203974
-4.0597653	transferred	-0.21032563
-4.212571	broadway	-0.053203974
-4.212571	2002	-0.053203974
-4.212571	harvey	-0.053203974
-4.212571	theater	-0.053203974
-4.212571	deliberate	-0.053203974
-3.5310967	act	-0.053203974
-4.0597653	calculated	-0.053203974
-3.7215505	series	-0.124697685
-4.212571	sneer	-0.053203974
-4.212571	cold	-0.053203974
-4.0597653	command	-0.053203974
-4.212571	wither	-0.053203974
-4.212571	engineering	-0.053203974
-3.8613431	manufacturing	-0.053203974
-4.212571	marketing	-0.053203974
-3.399151	high	-0.053203974
-4.212571	atrocities	-0.053203974
-4.0597653	committed	-0.053203974
-4.212571	civilians	-0.053203974
-3.8613431	ever	-0.053203974
-3.7215505	scale	-0.053203974
-4.212571	kivu	-0.053203974
-4.212571	[	-0.053203974
-4.212571	province	-0.053203974
-4.212571	]	-0.053203974
-3.7215505	border	-0.053203974
-4.212571	rwanda	-0.053203974
-4.0597653	uganda	-0.21032563
-4.0597653	letter	-0.053203974
-4.0597653	states	-0.053203974
-3.216164	now	-0.09261909
-3.8613431	stores	-0.053203974
-4.212571	launching	-0.053203974
-3.8613431	ahead	-0.1514074
-3.7215505	budget	-0.124697685
-4.212571	densities	-0.053203974
-4.0597653	supermarket	-0.053203974
-4.212571	exceeding	-0.053203974
-4.0597653	$20	-0.053203974
-4.212571	square	-0.053203974
-4.212571	foot	-0.053203974
-4.212571	tesco	-0.053203974
-3.8613431	commission	-0.053203974
-3.3456876	asked	-0.053203974
-4.0597653	rome	-0.053203974
-3.399151	information	-0.083536334
-4.212571	urgently	-0.053203974
-3.5310967	possible	-0.053203974
-4.0597653	dioxin	-0.053203974
-4.212571	contamination	-0.053203974
-3.8613431	spokeswoman	-0.053203974
-4.212571	kidnapping	-0.053203974
-4.212571	grown	-0.053203974
-4.0597653	competitive	-0.21032563
-4.212571	kidnappers	-0.053203974
-3.615966	using	-0.053203974
-4.0597653	victims	-0.053203974
-4.0597653	gain	-0.053203974
-3.8613431	territory	-0.124697685
-4.212571	dominance	-0.053203974
-4.0597653	attended	-0.053203974
-4.0597653	boarding	-0.053203974
-4.0597653	edinburgh	-0.053203974
-4.0597653	lived	-0.21032563
-4.212571	kenya	-0.053203974
-3.7215505	student	-0.053203974
-4.0597653	living	-0.053203974
-4.0597653	novelty	-0.21032563
-3.8613431	fact	-0.1514074
-4.0597653	country's	-0.053203974
-4.212571	384	-0.053203974
-3.615966	internet	-0.053203974
-4.0597653	users	-0.053203974
-4.0597653	appear	-0.21032563
-4.212571	greet	-0.053203974
-4.212571	shrug	-0.053203974
-4.212571	meantime	-0.053203974
-4.0597653	matt	-0.053203974
-4.212571	levison	-0.053203974
-3.7215505	spokesman	-0.053203974
-4.212571	fountain	-0.053203974
-4.212571	helps	-0.053203974
-4.212571	muffle	-0.053203974
-4.212571	construction	-0.053203974
-4.212571	noises	-0.053203974
-4.0597653	6	-0.053203974
-4.212571	referendum	-0.053203974
-4.212571	93	-0.053203974
-4.212571	icelandic	-0.053203974
-3.8613431	rejected	-0.053203974
-4.212571	repay	-0.053203974
-4.212571	netherlands	-0.053203974
-4.212571	miss	-0.053203974
-4.212571	tomorrow's	-0.053203974
-4.212571	champions	-0.053203974
-3.615966	league	-0.09953584
-3.5310967	game	-0.053203974
-4.212571	fenerbahce	-0.053203974
-4.212571	emirates	-0.053203974
-3.8613431	stadium	-0.053203974
-4.0597653	walcott	-0.053203974
-3.8613431	remains	-0.053203974
-4.0597653	hopeful	-0.053203974
-3.8613431	returning	-0.053203974
-4.0597653	saturday's	-0.053203974
-3.8613431	manchester	-0.053203974
-4.212571	popularized	-0.053203974
-4.212571	safari	-0.053203974
-4.212571	jackets	-0.053203974
-4.212571	thigh-high	-0.053203974
-4.212571	boots	-0.053203974
-4.212571	transparent	-0.053203974
-4.212571	blouses	-0.053203974
-4.212571	near-nudity	-0.053203974
-4.212571	acceptable	-0.053203974
-4.212571	makeup	-0.053203974
-4.212571	midseason	-0.053203974
-4.0597653	accusations	-0.053203974
-4.212571	unnecessarily	-0.053203974
-4.212571	embarrassing	-0.053203974
-4.212571	opponents	-0.053203974
-3.7215505	economy	-0.09260663
-4.0597653	trouble	-0.053203974
-3.5310967	having	-0.09953584
-4.212571	marriages	-0.053203974
-4.212571	rothstein's	-0.053203974
-4.212571	prized	-0.053203974
-3.615966	political	-0.053203974
-4.0597653	photos	-0.053203974
-4.0597653	framed	-0.053203974
-4.212571	thank-you	-0.053203974
-4.212571	luxurious	-0.053203974
-3.5310967	office	-0.053203974
-4.0597653	furniture	-0.053203974
-4.212571	auctioned	-0.053203974
-3.7215505	$1	-0.23831756
-3.7215505	investors	-0.053203974
-4.0597653	wants	-0.053203974
-4.0597653	charge	-0.053203974
-3.7215505	giving	-0.124697685
-3.8613431	software	-0.053203974
-3.4601321	away	-0.09260663
-4.0597653	ads	-0.053203974
-4.212571	spokesperson	-0.053203974
-3.7215505	cancer	-0.053203974
-3.8613431	care	-0.053203974
-3.8613431	improved	-0.053203974
-4.0597653	significantly	-0.053203974
-3.615966	investment	-0.053203974
-3.8613431	reform	-0.053203974
-3.8613431	75	-0.053203974
-3.8613431	compared	-0.1514074
-3.7215505	25	-0.053203974
-4.212571	1960s	-0.053203974
-4.212571	top-10	-0.053203974
-4.0597653	finishes	-0.053203974
-3.0878181	;	-0.107425526
-4.212571	sixth	-0.053203974
-4.0597653	posted	-0.053203974
-4.212571	11th	-0.053203974
-3.7215505	open	-0.053203974
-4.0597653	james	-0.053203974
-4.212571	o'keefe	-0.053203974
-4.0597653	statement	-0.053203974
-3.8613431	web	-0.053203974
-3.399151	site	-0.087481335
-4.212571	biggovernment	-0.053203974
-4.212571	com	-0.053203974
-4.212571	hq	-0.053203974
-4.212571	speculate	-0.053203974
-4.212571	lerner	-0.053203974
-4.212571	comprehending	-0.053203974
-4.212571	futility	-0.053203974
-3.399151	trying	-0.39856556
-3.8613431	break	-0.124697685
-4.212571	cartel	-0.053203974
-4.212571	20m	-0.053203974
-4.0597653	net	-0.053203974
-4.212571	transfer	-0.053203974
-3.7215505	spending	-0.053203974
-3.4601321	soon	-0.09260663
-4.212571	flow	-0.053203974
-4.0597653	meal	-0.053203974
-4.212571	eaten	-0.053203974
-4.212571	unfortunately	-0.053203974
-4.212571	wi-fi	-0.053203974
-4.212571	lets	-0.053203974
-4.212571	download	-0.053203974
-4.212571	picasa	-0.053203974
-4.212571	accessing	-0.053203974
-4.212571	pc	-0.053203974
-4.212571	hole	-0.053203974
-4.212571	scenario	-0.053203974
-4.212571	concocted	-0.053203974
-4.212571	whitfield	-0.053203974
-4.212571	werewolf	-0.053203974
-4.0597653	novel	-0.21032563
-4.212571	benighted	-0.053203974
-4.212571	grants	-0.053203974
-4.212571	melancholy	-0.053203974
-4.212571	nobility	-0.053203974
-3.2551982	once	-0.053203974
-4.212571	animalistic	-0.053203974
-4.212571	terribly	-0.053203974
-4.212571	crawley	-0.053203974
-4.212571	scattoni	-0.053203974
-3.4601321	hope	-0.09260663
-4.212571	studies	-0.053203974
-4.212571	vocalizations	-0.053203974
-4.0597653	enable	-0.053203974
-4.0597653	identification	-0.053203974
-4.212571	genetic	-0.053203974
-4.0597653	environmental	-0.053203974
-4.212571	causes	-0.053203974
-4.212571	autism	-0.053203974
-4.0597653	scientists	-0.053203974
-4.212571	evaluate	-0.053203974
-4.212571	proposed	-0.053203974
-4.0597653	treatments	-0.053203974
-4.212571	particularly	-0.053203974
-3.8613431	seem	-0.053203974
-4.0597653	lack	-0.053203974
-3.8613431	confidence	-0.053203974
-3.7215505	immediate	-0.053203974
-4.212571	walenty	-0.053203974
-3.8613431	soldier	-0.053203974
-4.0597653	severely	-0.053203974
-4.0597653	wounded	-0.053203974
-4.212571	italy	-0.053203974
-4.0597653	poland	-0.053203974
-3.5310967	until	-0.053203974
-4.212571	gets	-0.053203974
-4.212571	sidetracked	-0.053203974
-4.212571	trieste	-0.053203974
-4.212571	kansas'	-0.053203974
-4.212571	jayhawks	-0.053203974
-4.212571	calder	-0.053203974
-4.212571	rookie	-0.053203974
-4.212571	sabres	-0.053203974
-4.212571	defenseman	-0.053203974
-4.212571	tyler	-0.053203974
-4.212571	myers	-0.053203974
-4.212571	completed	-0.053203974
-4.212571	scaffolding	-0.053203974
-4.0597653	currently	-0.053203974
-4.212571	contain	-0.053203974
-4.0597653	falling	-0.053203974
-4.212571	debris	-0.053203974
-4.212571	removed	-0.053203974
-3.7215505	recent	-0.053203974
-4.212571	reinforced	-0.053203974
-4.212571	subconscious	-0.053203974
-3.615966	level	-0.10942635
-4.212571	concept	-0.053203974
-4.212571	incest	-0.053203974
-4.0597653	attractive	-0.053203974
-4.212571	receiving	-0.053203974
-4.212571	painkillers	-0.053203974
-4.212571	intravenous	-0.053203974
-4.0597653	drugs	-0.053203974
-4.212571	gastro-intestinal	-0.053203974
-4.0597653	troubles	-0.053203974
-4.212571	diarrhea	-0.053203974
-4.212571	cramping	-0.053203974
-4.212571	you're	-0.053203974
-3.7215505	probably	-0.053203974
-4.212571	caveat	-0.053203974
-4.212571	follow	-0.053203974
-4.212571	honest	-0.053203974
-4.0597653	isn't	-0.053203974
-4.212571	retain	-0.053203974
-4.212571	reductions	-0.053203974
-4.212571	meant	-0.053203974
-4.212571	benefit	-0.053203974
-3.7215505	poor	-0.053203974
-4.0597653	families	-0.21032563
-4.212571	defined	-0.053203974
-4.212571	97	-0.053203974
-3.7215505	lives	-0.124697685
-4.212571	$250	-0.053203974
-4.0597653	count	-0.053203974
-3.7215505	estimated	-0.124697685
-4.212571	generated	-0.053203974
-4.0597653	taxes	-0.053203974
-4.212571	wealthy	-0.053203974
-4.212571	revenues	-0.053203974
-4.212571	there's	-0.053203974
-3.615966	fire	-0.053203974
-4.212571	drill	-0.053203974
-4.212571	gathering	-0.053203974
-4.212571	boiler	-0.053203974
-3.8613431	room	-0.053203974
-4.212571	testing	-0.053203974
-4.212571	databases	-0.053203974
-3.8613431	lists	-0.053203974
-3.8613431	supporters	-0.053203974
-4.212571	undecided	-0.053203974
-4.212571	auto	-0.053203974
-4.212571	dialers	-0.053203974
-3.8613431	make	-0.08040597
-4.212571	last-minute	-0.053203974
-4.212571	reassurance	-0.053203974
-3.5310967	nothing	-0.09953584
-4.212571	jennifer	-0.053203974
-4.212571	hudson	-0.053203974
-4.212571	she's	-0.053203974
-4.212571	beautiful	-0.053203974
-4.0597653	singer	-0.053203974
-4.212571	montage	-0.053203974
-4.0597653	suffer	-0.053203974
-4.212571	heartburn	-0.053203974
-4.212571	riders	-0.053203974
-4.212571	impressive	-0.053203974
-4.212571	saddle	-0.053203974
-4.212571	176km	-0.053203974
-4.212571	mountain	-0.053203974
-4.212571	vasto	-0.053203974
-4.212571	pescocostanzo	-0.053203974
-4.212571	visconti	-0.053203974
-4.212571	tough	-0.053203974
-4.212571	hardest	-0.053203974
-4.212571	climb	-0.053203974
-4.212571	20km	-0.053203974
-4.0597653	finish	-0.053203974
-3.8613431	association	-0.124697685
-4.0597653	ceased	-0.053203974
-3.8613431	trading	-0.053203974
-4.0597653	1998	-0.21032563
-4.212571	over-claimed	-0.053203974
-4.212571	scheme	-0.053203974
-4.0597653	select	-0.053203974
-3.8613431	double	-0.053203974
-4.212571	triple	-0.053203974
-4.0597653	claiming	-0.053203974
-4.212571	subjects	-0.053203974
-4.212571	pictures	-0.053203974
-4.212571	ryan	-0.053203974
-4.212571	mcginley	-0.053203974
-4.0597653	volunteers	-0.21032563
-3.7215505	accused	-0.23831756
-4.212571	cuba	-0.053203974
-3.615966	providing	-0.053203974
-3.8613431	refuge	-0.053203974
-4.212571	airline	-0.053203974
-4.212571	hijackers	-0.053203974
-4.0597653	seeking	-0.053203974
-4.0597653	escape	-0.053203974
-3.8613431	murder	-0.053203974
-3.615966	officers	-0.10942635
-3.7215505	means	-0.10942635
-4.212571	wherever	-0.053203974
-4.212571	guides	-0.053203974
-3.5310967	13	-0.09260663
-3.615966	thought	-0.09953584
-4.212571	planet	-0.053203974
-4.212571	warming	-0.053203974
-4.0597653	natural	-0.053203974
-4.212571	factors	-0.053203974
-4.0597653	significant	-0.053203974
-4.0597653	concern	-0.053203974
-4.0597653	owner	-0.053203974
-3.7215505	floor	-0.23831756
-3.8613431	foul	-0.053203974
-4.212571	carriageways	-0.053203974
-4.212571	a42	-0.053203974
-3.7215505	closed	-0.053203974
-4.212571	gritting	-0.053203974
-4.212571	junction	-0.053203974
-4.212571	m1	-0.053203974
-4.212571	turn-off	-0.053203974
-4.212571	actual	-0.053203974
-4.212571	allegations	-0.053203974
-4.212571	pretty	-0.053203974
-4.212571	appalling	-0.053203974
-4.212571	elizabeth	-0.053203974
-4.212571	woolwich	-0.053203974
-3.615966	really	-0.053203974
-3.7215505	sure	-0.053203974
-4.212571	beach	-0.053203974
-4.212571	sexiest	-0.053203974
-3.8613431	try	-0.124697685
-4.0597653	doubts	-0.053203974
-4.212571	swing	-0.053203974
-4.212571	pendulum	-0.053203974
-4.212571	rooseveltism	-0.053203974
-4.212571	attentive	-0.053203974
-4.212571	forgotten	-0.053203974
-4.212571	ignored	-0.053203974
-4.0597653	strained	-0.053203974
-4.212571	oblique	-0.053203974
-3.8613431	muscle	-0.053203974
-4.212571	tentatively	-0.053203974
-3.7215505	start	-0.053203974
-3.7215505	3	-0.053203974
-4.212571	omaha-based	-0.053203974
-4.0597653	berkshire	-0.053203974
-4.0597653	investments	-0.053203974
-4.212571	coca-cola	-0.053203974
-3.8613431	co	-0.3230036
-4.0597653	wells	-0.053203974
-4.212571	fargo	-0.053203974
-3.7215505	owns	-0.053203974
-4.0597653	subsidiaries	-0.053203974
-4.212571	clothing	-0.053203974
-4.212571	jewelry	-0.053203974
-4.212571	array	-0.053203974
-4.0597653	outstanding	-0.053203974
-3.615966	issues	-0.10942635
-4.0597653	reached	-0.053203974
-4.212571	emotionally	-0.053203974
-4.212571	charged	-0.053203974
-3.7215505	insurance	-0.124697685
-4.212571	coverage	-0.053203974
-4.212571	abortions	-0.053203974
-4.212571	adebayor	-0.053203974
-4.212571	barcelona	-0.053203974
-3.8613431	32	-0.053203974
-4.212571	ryder	-0.053203974
-3.8613431	cup	-0.053203974
-4.0597653	places	-0.053203974
-4.212571	settled	-0.053203974
-4.212571	nick	-0.053203974
-4.212571	dougherty	-0.053203974
-4.212571	apologize	-0.053203974
-3.8613431	contract	-0.053203974
-3.615966	read	-0.10942635
-4.212571	sack	-0.053203974
-3.7215505	inquiry	-0.053203974
-3.8613431	lord	-0.053203974
-4.212571	widgery	-0.053203974
-4.212571	shootings	-0.053203974
-3.8613431	concluded	-0.053203974
-3.8613431	armed	-0.053203974
-4.212571	citing	-0.053203974
-4.212571	traces	-0.053203974
-4.212571	bodies	-0.053203974
-4.212571	regularly	-0.053203974
-4.212571	kills	-0.053203974
-4.0597653	northern	-0.053203974
-4.212571	thirsty	-0.053203974
-4.0597653	investigators	-0.21032563
-4.212571	identify	-0.053203974
-4.212571	calling	-0.053203974
-4.212571	matthews	-0.053203974
-4.212571	oldham	-0.053203974
-3.8613431	jury	-0.053203974
-4.212571	disregard	-0.053203974
-4.0597653	wrote	-0.053203974
-4.212571	huffington	-0.053203974
-3.8613431	post	-0.1514074
-3.4601321	never	-0.09260663
-4.212571	wright	-0.053203974
-3.615966	statements	-0.053203974
-4.212571	acknowledged	-0.053203974
-4.0597653	legitimate	-0.053203974
-4.0597653	nature	-0.21032563
-4.212571	relationship	-0.053203974
-4.212571	pastor	-0.053203974
-4.0597653	church	-0.053203974
-4.0597653	researchers	-0.053203974
-4.212571	queensland	-0.053203974
-4.0597653	institute	-0.053203974
-3.8613431	medical	-0.053203974
-3.8613431	australia	-0.053203974
-4.212571	framework	-0.053203974
-4.212571	psychologists	-0.053203974
-4.212571	personalities	-0.053203974
-4.212571	five-factor	-0.053203974
-3.7215505	model	-0.053203974
-4.0597653	find	-0.053203974
-4.212571	excessively	-0.053203974
-4.212571	sociable	-0.053203974
-4.212571	conscientious	-0.053203974
-4.212571	tend	-0.053203974
-4.0597653	happier	-0.053203974
-3.615966	general	-0.10942635
-4.0597653	election	-0.053203974
-3.7215505	2010	-0.1944456
-4.212571	finances	-0.053203974
-4.0597653	story	-0.053203974
-4.212571	paralympian	-0.053203974
-4.212571	barbara	-0.053203974
-4.212571	buchan	-0.053203974
-4.212571	cyclist	-0.053203974
-4.212571	devastating	-0.053203974
-4.212571	1982	-0.053203974
-3.8613431	left	-0.053203974
-4.212571	coma	-0.053203974
-3.5310967	months	-0.13594419
-3.7215505	forced	-0.124697685
-4.212571	undergo	-0.053203974
-3.4601321	six	-0.053203974
-4.0597653	rehabilitation	-0.21032563
-3.7215505	drew	-0.053203974
-4.212571	rings	-0.053203974
-4.212571	blog	-0.053203974
-4.0597653	leahy	-0.053203974
-4.212571	dean	-0.053203974
-3.4601321	published	-0.053203974
-4.212571	anti-clinton	-0.053203974
-3.8613431	prior	-0.1514074
-4.0597653	nomination	-0.124697685
-3.5310967	early	-0.053203974
-4.212571	prided	-0.053203974
-3.615966	themselves	-0.053203974
-4.0597653	diverse	-0.053203974
-4.212571	enthusiastically	-0.053203974
-4.0597653	vote	-0.053203974
-3.7215505	either	-0.053203974
-4.212571	african-american	-0.053203974
-3.8613431	woman	-0.053203974
-4.212571	commence	-0.053203974
-4.212571	yousefieh-1	-0.053203974
-4.212571	yousefieh-3	-0.053203974
-3.8613431	expected	-0.124697685
-4.0597653	combined	-0.053203974
-4.212571	1000	-0.053203974
-4.212571	barrels	-0.053203974
-4.212571	bopd	-0.053203974
-3.5310967	martin	-0.053203974
-4.212571	postseason	-0.053203974
-4.212571	proves	-0.053203974
-3.5310967	again	-0.09953584
-4.212571	constantly	-0.053203974
-4.212571	beast	-0.053203974
-4.212571	mode	-0.053203974
-4.212571	complained	-0.053203974
-4.212571	promotion	-0.053203974
-4.0597653	prospects	-0.053203974
-4.0597653	27	-0.053203974
-4.212571	extrapolated	-0.053203974
-4.212571	whole	-0.053203974
-4.212571	working-age	-0.053203974
-4.212571	lacked	-0.053203974
-3.5310967	forward	-0.053203974
-4.0597653	jeff	-0.053203974
-4.212571	adrien	-0.053203974
-3.8613431	blocked	-0.053203974
-4.0597653	shots	-0.053203974
-4.212571	craig	-0.053203974
-4.212571	austrie	-0.053203974
-4.212571	huskies	-0.053203974
-4.0597653	16-5	-0.053203974
-4.212571	6-3	-0.053203974
-4.212571	whose	-0.053203974
-4.212571	row	-0.053203974
-4.212571	739	-0.053203974
-3.5310967	clinton	-0.09953584
-4.212571	608	-0.053203974
-4.0597653	yahoo	-0.053203974
-3.8613431	search	-0.053203974
-4.212571	executive	-0.053203974
-4.0597653	sean	-0.053203974
-4.212571	suchter	-0.053203974
-4.212571	hired	-0.053203974
-4.0597653	microsoft	-0.053203974
-4.212571	manage	-0.053203974
-3.4601321	center	-0.09260663
-3.8613431	begins	-0.053203974
-4.212571	redmond	-0.053203974
-3.8613431	submit	-0.053203974
-4.212571	presentation	-0.053203974
-4.212571	please	-0.053203974
-3.8613431	http	-0.3230036
-4.212571	//agile2010	-0.053203974
-4.212571	agilealliance	-0.053203974
-4.212571	org/index	-0.053203974
-4.212571	html	-0.053203974
-3.8613431	dozens	-0.1514074
-4.212571	waved	-0.053203974
-4.212571	basque	-0.053203974
-4.0597653	flag	-0.053203974
-3.8613431	others	-0.053203974
-4.212571	chanted	-0.053203974
-4.212571	slogans	-0.053203974
-4.0597653	favour	-0.053203974
-4.0597653	independence	-0.053203974
-4.0597653	helicopter	-0.053203974
-3.8613431	flew	-0.053203974
-4.212571	overhead	-0.053203974
-4.212571	atp	-0.053203974
-3.7215505	tour	-0.053203974
-4.212571	memphis	-0.053203974
-4.212571	woodies	-0.053203974
-4.212571	chided	-0.053203974
-4.212571	bryans	-0.053203974
-4.212571	guys	-0.053203974
-4.0597653	medicine	-0.053203974
-4.212571	doesn	-0.053203974
-3.8613431	address	-0.053203974
-4.212571	cure	-0.053203974
-3.7215505	rates	-0.053203974
-3.7215505	different	-0.053203974
-4.212571	darzi	-0.053203974
-4.212571	insists	-0.053203974
-4.212571	blueprint	-0.053203974
-3.2551982	being	-0.053203974
-4.212571	imposed	-0.053203974
-4.212571	whitehall	-0.053203974
-4.0597653	controlled	-0.21032563
-3.8613431	regional	-0.053203974
-4.212571	mud	-0.053203974
-4.0597653	covered	-0.053203974
-4.212571	surprises	-0.053203974
-4.212571	65-team	-0.053203974
-4.0597653	ncaa	-0.053203974
-3.7215505	championship	-0.053203974
-4.212571	bracket	-0.053203974
-4.212571	predicted	-0.053203974
-4.212571	earning	-0.053203974
-4.212571	seeds	-0.053203974
-4.0597653	tuition	-0.053203974
-4.212571	alumni	-0.053203974
-4.212571	project	-0.053203974
-3.7215505	needs	-0.053203974
-4.0597653	approval	-0.053203974
-4.212571	transportation	-0.053203974
-4.212571	secretary	-0.053203974
-4.0597653	mary	-0.053203974
-4.212571	peters	-0.053203974
-3.7215505	management	-0.10942635
-4.212571	2nd	-0.053203974
-4.212571	platoon	-0.053203974
-4.212571	playfully	-0.053203974
-4.212571	swat	-0.053203974
-4.212571	opium	-0.053203974
-4.212571	bulbs	-0.053203974
-3.8613431	walking	-0.053203974
-4.212571	fields	-0.053203974
-4.212571	virtually	-0.053203974
-4.212571	favorability	-0.053203974
-4.212571	ratings	-0.053203974
-4.212571	55	-0.053203974
-4.212571	53	-0.053203974
-4.212571	risi	-0.053203974
-4.0597653	runs	-0.053203974
-4.0597653	ceo	-0.053203974
-3.7215505	america	-0.1514074
-4.212571	asia	-0.053203974
-4.212571	bali	-0.053203974
-3.399151	court	-0.077861466
-4.0597653	initially	-0.053203974
-3.8613431	sentenced	-0.124697685
-4.212571	2003	-0.053203974
-4.0597653	legal	-0.053203974
-4.212571	avenues	-0.053203974
-4.212571	delayed	-0.053203974
-4.212571	executions	-0.053203974
-4.212571	slowed	-0.053203974
-4.0597653	sector	-0.053203974
-4.212571	segment	-0.053203974
-3.615966	taken	-0.053203974
-4.0597653	worst	-0.053203974
-4.212571	beating	-0.053203974
-4.212571	ap	-0.053203974
-3.8613431	witness	-0.053203974
-4.212571	evangelist	-0.053203974
-4.212571	alamo	-0.053203974
-3.8613431	wife	-0.1514074
-4.212571	sexually	-0.053203974
-4.212571	abused	-0.053203974
-4.212571	minors	-0.053203974
-3.8613431	physical	-0.053203974
-4.0597653	mental	-0.053203974
-3.5310967	pain	-0.1514074
-4.0597653	suffered	-0.053203974
-4.212571	editors	-0.053203974
-4.212571	dependent	-0.053203974
-4.212571	favoured	-0.053203974
-4.212571	experts	-0.053203974
-4.0597653	people's	-0.053203974
-4.212571	stem	-0.053203974
-4.0597653	cell	-0.053203974
-4.212571	papers	-0.053203974
-4.212571	trams	-0.053203974
-3.8613431	leg	-0.053203974
-4.212571	arch	-0.053203974
-4.212571	forth	-0.053203974
-4.212571	refuse	-0.053203974
-4.212571	covering	-0.053203974
-3.5310967	west	-0.053203974
-3.5310967	sent	-0.053203974
-4.0597653	anthony	-0.053203974
-4.212571	drained	-0.053203974
-4.212571	18-footer	-0.053203974
-4.212571	tie	-0.053203974
-4.0597653	39	-0.053203974
-3.8613431	remaining	-0.1514074
-4.212571	bargnani	-0.053203974
-4.212571	throw	-0.053203974
-4.212571	toronto	-0.053203974
-3.8613431	don	-0.3230036
-4.0597653	forget	-0.053203974
-4.0597653	emergency	-0.053203974
-4.212571	buttons	-0.053203974
-4.212571	airplane	-0.053203974
-4.212571	bathrooms	-0.053203974
-4.212571	sohus	-0.053203974
-4.212571	unearthed	-0.053203974
-4.212571	1994	-0.053203974
-4.212571	disappearance	-0.053203974
-4.0597653	couple	-0.053203974
-4.212571	guest	-0.053203974
-4.0597653	residents	-0.053203974
-4.212571	digging	-0.053203974
-4.0597653	swimming	-0.053203974
-4.0597653	pool	-0.053203974
-4.212571	experiments	-0.053203974
-4.212571	hyenas	-0.053203974
-3.8613431	ones	-0.053203974
-4.212571	primates	-0.053203974
-3.615966	half	-0.10942635
-4.212571	coaches	-0.053203974
-4.212571	redundant	-0.053203974
-4.212571	dramatic	-0.053203974
-4.212571	reduction	-0.053203974
-4.212571	montreal	-0.053203974
-4.212571	goaltender	-0.053203974
-4.212571	cristobal	-0.053203974
-4.212571	huet	-0.053203974
-4.0597653	israeli	-0.053203974
-3.615966	decision	-0.09953584
-3.8613431	close	-0.053203974
-4.212571	crossings	-0.053203974
-4.212571	attempt	-0.053203974
-4.212571	gaza	-0.053203974
-4.0597653	aid	-0.053203974
-4.212571	shipment	-0.053203974
-4.0597653	headed	-0.053203974
-4.212571	mexico	-0.053203974
-4.212571	coffin	-0.053203974
-4.212571	knuckleballer	-0.053203974
-4.0597653	tim	-0.053203974
-4.212571	wakefield	-0.053203974
-4.212571	aug	-0.053203974
-3.615966	better	-0.053203974
-4.212571	beck	-0.053203974
-3.7215505	gone	-0.053203974
-3.8613431	bomb	-0.053203974
-3.5310967	2006	-0.09260663
-4.0597653	stand	-0.053203974
-4.212571	rigid	-0.053203974
-4.0597653	staring	-0.053203974
-4.212571	headlines	-0.053203974
-4.0597653	terror	-0.053203974
-4.0597653	plot	-0.053203974
-4.212571	funeral	-0.053203974
-3.8613431	bus	-0.053203974
-3.0878181	still	-0.083536334
-4.212571	democracy	-0.053203974
-4.212571	gap	-0.053203974
-3.8613431	countries	-0.1514074
-4.212571	bureaucrats	-0.053203974
-4.212571	brussels	-0.053203974
-4.212571	schwarz	-0.053203974
-4.212571	61	-0.053203974
-4.212571	conductor	-0.053203974
-4.212571	laureate	-0.053203974
-4.212571	2011-12	-0.053203974
-4.212571	squads	-0.053203974
-3.7215505	fine	-0.053203974
-3.8613431	fight	-0.053203974
-3.8613431	lining	-0.053203974
-4.212571	doorman	-0.053203974
-4.212571	rated	-0.053203974
-4.212571	inpatients	-0.053203974
-4.0597653	quality	-0.21032563
-4.212571	cleanliness	-0.053203974
-3.8613431	treatment	-0.053203974
-4.212571	ballmer	-0.053203974
-3.8613431	must	-0.053203974
-4.212571	paltry	-0.053203974
-4.212571	microsoft's	-0.053203974
-4.212571	msn	-0.053203974
-3.7215505	task	-0.053203974
-4.212571	bhatti	-0.053203974
-4.0597653	english	-0.053203974
-4.212571	aghadowey	-0.053203974
-3.615966	near	-0.053203974
-4.212571	coleraine	-0.053203974
-4.212571	stars	-0.053203974
-4.0597653	football	-0.053203974
-3.4601321	moved	-0.09260663
-4.212571	rangers	-0.053203974
-4.212571	1930s	-0.053203974
-4.212571	fascinating	-0.053203974
-4.212571	loughner's	-0.053203974
-4.212571	friends	-0.053203974
-4.212571	twisted	-0.053203974
-4.212571	soul	-0.053203974
-3.7215505	apparently	-0.053203974
-4.212571	ardent	-0.053203974
-4.212571	believer	-0.053203974
-4.212571	lucid	-0.053203974
-4.212571	dreaming	-0.053203974
-3.7215505	control	-0.053203974
-4.212571	alternate	-0.053203974
-4.212571	matrix	-0.053203974
-4.212571	-style	-0.053203974
-3.8613431	reality	-0.1514074
-3.8613431	paper	-0.053203974
-4.0597653	audits	-0.053203974
-4.212571	type	-0.053203974
-4.212571	correspondence	-0.053203974
-4.212571	subsequently	-0.053203974
-4.0597653	large	-0.053203974
-4.212571	exited	-0.053203974
-4.212571	compound	-0.053203974
-4.212571	detained	-0.053203974
-4.212571	questioning	-0.053203974
-4.212571	tricks	-0.053203974
-4.0597653	basically	-0.053203974
-4.212571	reade	-0.053203974
-4.0597653	true	-0.053203974
-4.212571	conserves	-0.053203974
-3.8613431	things	-0.053203974
-3.7215505	whether	-0.10942635
-3.4601321	water	-0.053203974
-4.212571	rubberbands	-0.053203974
-4.212571	oil/gas	-0.053203974
-4.0597653	professor	-0.053203974
-4.212571	hargreaves	-0.053203974
-3.8613431	leading	-0.053203974
-3.7215505	authority	-0.053203974
-4.212571	personalised	-0.053203974
-4.212571	learning	-0.053203974
-4.0597653	struggled	-0.053203974
-4.212571	define	-0.053203974
-4.0597653	total	-0.053203974
-4.212571	waste	-0.053203974
-4.212571	definition	-0.053203974
-4.212571	ultimate	-0.053203974
-4.0597653	proof	-0.21032563
-4.212571	promises	-0.053203974
-4.212571	multi-racial	-0.053203974
-4.212571	barisan	-0.053203974
-4.212571	nasional	-0.053203974
-4.0597653	coalition	-0.053203974
-4.0597653	effectively	-0.053203974
-4.212571	1957	-0.053203974
-4.212571	thanks	-0.053203974
-4.212571	weak	-0.053203974
-4.212571	ideologically	-0.053203974
-4.0597653	divided	-0.053203974
-4.212571	bracing	-0.053203974
-4.212571	elections	-0.053203974
-4.0597653	soft	-0.053203974
-3.8613431	option	-0.053203974
-4.212571	types	-0.053203974
-3.7215505	gifts	-0.053203974
-4.0597653	planning	-0.053203974
-4.0597653	earlier	-0.053203974
-4.0597653	urging	-0.053203974
-4.212571	neighbors	-0.053203974
-4.212571	scared	-0.053203974
-4.212571	retaliation	-0.053203974
-4.0597653	gangs	-0.053203974
-4.212571	prowl	-0.053203974
-3.7215505	streets	-0.053203974
-4.0597653	spoke	-0.053203974
-4.212571	tallest	-0.053203974
-4.212571	wheel	-0.053203974
-4.0597653	singapore	-0.053203974
-4.212571	flyer	-0.053203974
-4.212571	champagne	-0.053203974
-3.7215505	almost	-0.053203974
-3.8613431	700	-0.053203974
-3.8613431	head	-0.053203974
-3.615966	chance	-0.2743726
-4.212571	mingle	-0.053203974
-4.212571	celebrities	-0.053203974
-4.212571	bird's	-0.053203974
-3.8613431	eye	-0.053203974
-4.0597653	lee	-0.053203974
-3.1165261	told	-0.1440752
-4.212571	sohn	-0.053203974
-3.8613431	talks	-0.053203974
-4.212571	secured	-0.053203974
-4.212571	tougher	-0.053203974
-4.212571	imports	-0.053203974
-4.212571	eliminate	-0.053203974
-4.212571	mad	-0.053203974
-4.212571	cow	-0.053203974
-4.212571	perils	-0.053203974
-4.212571	crime	-0.053203974
-4.212571	reinvestment	-0.053203974
-3.3456876	house	-0.077861466
-4.212571	commons	-0.053203974
-4.0597653	committee	-0.053203974
-4.212571	blizzard	-0.053203974
-4.212571	warnings	-0.053203974
-4.212571	issued	-0.053203974
-4.0597653	scotland	-0.053203974
-4.212571	electricity	-0.053203974
-3.7215505	22	-0.10942635
-3.615966	homes	-0.053203974
-4.212571	humans	-0.053203974
-4.0597653	sought	-0.053203974
-4.212571	underground	-0.053203974
-4.212571	titular	-0.053203974
-4.212571	metro	-0.053203974
-4.212571	tunnels	-0.053203974
-4.212571	blood-thirsty	-0.053203974
-4.212571	mutants	-0.053203974
-4.212571	mps	-0.053203974
-4.212571	challenged	-0.053203974
-3.8613431	night	-0.053203974
-4.212571	centuries-old	-0.053203974
-3.8613431	tradition	-0.053203974
-4.212571	self-governance	-0.053203974
-3.8613431	checks	-0.053203974
-3.5310967	outside	-0.1359717
-4.212571	fleeting	-0.053203974
-4.0597653	palestinian	-0.053203974
-4.212571	mahmud	-0.053203974
-3.8613431	term	-0.053203974
-4.0597653	ends	-0.053203974
-4.212571	manipulation	-0.053203974
-4.212571	reigns	-0.053203974
-4.212571	supreme	-0.053203974
-3.615966	comes	-0.053203974
-4.0597653	fat	-0.053203974
-4.212571	wallets	-0.053203974
-4.212571	millionaires	-0.053203974
-4.0597653	talked	-0.21032563
-3.615966	very	-0.053203974
-4.212571	apolo	-0.053203974
-4.0597653	ohno	-0.053203974
-4.0597653	j	-0.21032563
-4.0597653	r	-0.21032563
-4.0597653	celski	-0.053203974
-4.0597653	championships	-0.053203974
-4.212571	olympic	-0.053203974
-4.212571	medals	-0.053203974
-4.212571	silver	-0.053203974
-4.212571	bronze	-0.053203974
-4.0597653	meters	-0.053203974
-4.212571	brady	-0.053203974
-4.212571	nfl	-0.053203974
-4.212571	comeback	-0.053203974
-4.212571	player	-0.053203974
-4.0597653	overcome	-0.053203974
-4.212571	mistakes	-0.053203974
-4.212571	absence	-0.053203974
-4.212571	league's	-0.053203974
-4.212571	receiver	-0.053203974
-4.212571	wes	-0.053203974
-4.212571	welker	-0.053203974
-4.212571	basketball	-0.053203974
-3.615966	fans	-0.053203974
-4.212571	arenas	-0.053203974
-4.212571	perfectly	-0.053203974
-3.8613431	safe	-0.053203974
-4.212571	insisted	-0.053203974
-4.0597653	crowds	-0.053203974
-4.212571	weren't	-0.053203974
-4.0597653	warned	-0.053203974
-4.212571	tornado	-0.053203974
-4.212571	ravage	-0.053203974
-4.212571	skyscrapers	-0.053203974
-4.212571	injure	-0.053203974
-4.212571	aged	-0.053203974
-4.212571	jamaica	-0.053203974
-4.212571	singing	-0.053203974
-4.212571	touring	-0.053203974
-4.212571	roy	-0.053203974
-4.212571	orbison	-0.053203974
-4.0597653	milan	-0.053203974
-4.212571	somewhere	-0.053203974
-4.0597653	sort	-0.053203974
-4.212571	designers	-0.053203974
-4.0597653	backing	-0.053203974
-4.0597653	thread	-0.053203974
-4.212571	hand-embroideries	-0.053203974
-4.212571	gold-tipped	-0.053203974
-4.212571	feathers	-0.053203974
-4.212571	tudor	-0.053203974
-4.212571	roses	-0.053203974
-4.0597653	angel	-0.053203974
-3.8613431	wings	-0.053203974
-4.212571	madonna	-0.053203974
-4.212571	latter	-0.053203974
-3.7215505	rich	-0.053203974
-4.212571	pale	-0.053203974
-4.212571	marble	-0.053203974
-4.212571	tones	-0.053203974
-4.212571	elaborately	-0.053203974
-4.212571	constructed	-0.053203974
-4.0597653	pieces	-0.053203974
-4.212571	entirely	-0.053203974
-4.212571	perfect	-0.053203974
-4.0597653	elected	-0.053203974
-4.0597653	district	-0.053203974
-4.212571	at-large	-0.053203974
-4.212571	arena	-0.053203974
-4.212571	singaporeans	-0.053203974
-4.0597653	crucial	-0.053203974
-4.212571	regarding	-0.053203974
-4.0597653	decisions	-0.053203974
-4.0597653	direction	-0.053203974
-4.212571	primaries	-0.053203974
-3.7215505	ended	-0.053203974
-3.5310967	held	-0.053203974
-4.212571	cambridgeshire	-0.053203974
-4.212571	coroner	-0.053203974
-4.0597653	verdict	-0.053203974
-4.0597653	gray	-0.21032563
-4.212571	iris	-0.053203974
-4.0597653	edwards	-0.053203974
-3.4601321	seen	-0.09260663
-4.212571	out-of-hours	-0.053203974
-3.7215505	doctor	-0.053203974
-3.8613431	dr	-0.1514074
-4.212571	daniel	-0.053203974
-4.212571	ubani	-0.053203974
-3.8613431	senior	-0.053203974
-3.7215505	administration	-0.053203974
-3.7215505	official	-0.124697685
-4.212571	tacit	-0.053203974
-4.0597653	sides	-0.053203974
-4.0597653	increased	-0.053203974
-4.212571	predator	-0.053203974
-4.212571	strikes	-0.053203974
-4.0597653	exchange	-0.053203974
-4.212571	raids	-0.053203974
-4.212571	remained	-0.053203974
-4.212571	table	-0.053203974
-4.212571	revote	-0.053203974
-4.212571	673	-0.053203974
-4.0597653	pages	-0.053203974
-4.0597653	embrace	-0.053203974
-4.0597653	subsidies	-0.053203974
-4.0597653	farmers	-0.053203974
-4.0597653	stamps	-0.053203974
-4.212571	land	-0.053203974
-4.212571	conservation	-0.053203974
-4.212571	lawmakers	-0.053203974
-4.212571	shun	-0.053203974
-4.212571	raunch	-0.053203974
-4.212571	coined	-0.053203974
-4.212571	writer	-0.053203974
-4.212571	ariel	-0.053203974
-4.212571	levy	-0.053203974
-4.212571	describe	-0.053203974
-4.212571	saturation	-0.053203974
-4.212571	presents	-0.053203974
-4.212571	15-year-old	-0.053203974
-4.0597653	frustrated	-0.053203974
-4.212571	parents'	-0.053203974
-4.212571	divorce	-0.053203974
-4.212571	responds	-0.053203974
-4.0597653	islands	-0.053203974
-4.212571	vancouver	-0.053203974
-4.212571	kristy	-0.053203974
-4.0597653	cook	-0.053203974
-4.212571	leaves	-0.053203974
-4.0597653	idol	-0.21032563
-4.212571	crowd	-0.053203974
-4.212571	samples	-0.053203974
-4.0597653	contained	-0.053203974
-4.0597653	73	-0.053203974
-3.5310967	times	-0.053203974
-4.0597653	approved	-0.053203974
-4.0597653	amount	-0.053203974
-4.212571	tests	-0.053203974
-4.212571	schleswig-holstein	-0.053203974
-4.212571	agriculture	-0.053203974
-4.0597653	ministry	-0.053203974
-4.212571	usda	-0.053203974
-4.0597653	daily	-0.053203974
-4.212571	inspections	-0.053203974
-4.0597653	sandwiches	-0.053203974
-4.212571	fda	-0.053203974
-4.212571	inspects	-0.053203974
-4.212571	eriksson's	-0.053203974
-4.212571	16	-0.053203974
-4.212571	prompting	-0.053203974
-4.212571	manager's	-0.053203974
-3.8613431	position	-0.053203974
-4.212571	secure	-0.053203974
-4.212571	swede	-0.053203974
-4.212571	convinced	-0.053203974
-4.212571	signs	-0.053203974
-4.212571	upturn	-0.053203974
-4.212571	125	-0.053203974
-4.212571	quiet	-0.053203974
-3.8613431	academic	-0.053203974
-4.0597653	criticizing	-0.053203974
-4.212571	praising	-0.053203974
-3.7215505	democratic	-0.124697685
-4.212571	disclosure	-0.053203974
-4.212571	investor	-0.053203974
-3.7215505	exercise	-0.053203974
-4.212571	cfds	-0.053203974
-3.8613431	therefore	-0.053203974
-4.212571	exert	-0.053203974
-4.212571	hidden	-0.053203974
-3.7215505	article	-0.053203974
-4.212571	editor	-0.053203974
-4.212571	recalled	-0.053203974
-3.8613431	seeing	-0.053203974
-4.212571	endorsement	-0.053203974
-4.212571	sadick	-0.053203974
-4.0597653	hair	-0.053203974
-4.212571	removal	-0.053203974
-4.0597653	product	-0.053203974
-3.8613431	manufacturers	-0.053203974
-4.212571	probst	-0.053203974
-4.0597653	survivor	-0.053203974
-4.212571	ceremony's	-0.053203974
-4.0597653	masters	-0.053203974
-4.212571	ceremonies	-0.053203974
-3.8613431	claimed	-0.053203974
-4.0597653	award	-0.053203974
-3.8613431	host	-0.053203974
-4.212571	countess	-0.053203974
-4.0597653	lunch	-0.053203974
-4.0597653	breast	-0.21032563
-4.212571	haven	-0.053203974
-3.8613431	centre	-0.053203974
-4.212571	hereford	-0.053203974
-4.212571	helped	-0.053203974
-4.212571	200	-0.053203974
-4.0597653	opened	-0.053203974
-4.212571	2004	-0.053203974
-4.212571	wales	-0.053203974
-4.0597653	inquest	-0.053203974
-4.0597653	sleeping	-0.053203974
-4.0597653	tablets	-0.053203974
-4.212571	consumed	-0.053203974
-4.0597653	weather	-0.053203974
-3.615966	showed	-0.10942635
-4.212571	marvel	-0.053203974
-4.0597653	husband	-0.053203974
-4.212571	emerged	-0.053203974
-4.0597653	alive	-0.053203974
-4.212571	12th	-0.053203974
-4.212571	clashes	-0.053203974
-4.212571	rival	-0.053203974
-4.212571	regular	-0.053203974
-4.212571	occurrence	-0.053203974
-4.212571	limiting	-0.053203974
-4.212571	rangers'	-0.053203974
-4.0597653	ability	-0.21032563
-4.0597653	patrol	-0.053203974
-4.212571	cover	-0.053203974
-4.212571	poaching	-0.053203974
-4.212571	forest-clearing	-0.053203974
-4.0597653	app	-0.053203974
-3.2980905	group	-0.12556905
-4.212571	endangering	-0.053203974
-4.212571	tigers	-0.053203974
-4.212571	animals	-0.053203974
-4.212571	alito	-0.053203974
-4.212571	commando	-0.053203974
-4.212571	reporters	-0.053203974
-4.212571	militants	-0.053203974
-4.212571	mix	-0.053203974
-4.212571	biking	-0.053203974
-4.212571	possibly	-0.053203974
-4.212571	venturing	-0.053203974
-4.212571	elliptical	-0.053203974
-4.212571	machine	-0.053203974
-4.212571	rains	-0.053203974
-4.212571	filled	-0.053203974
-4.212571	rivers	-0.053203974
-4.212571	arkansas	-0.053203974
-4.212571	downstream	-0.053203974
-4.212571	manx	-0.053203974
-4.212571	dipped	-0.053203974
-4.0597653	slightly	-0.053203974
-4.0597653	250	-0.053203974
-4.0597653	son	-0.053203974
-4.212571	zach	-0.053203974
-4.212571	donovan	-0.053203974
-3.8613431	21	-0.3230036
-4.212571	difference	-0.053203974
-4.0597653	longer	-0.053203974
-4.0597653	emotional	-0.053203974
-4.212571	passat	-0.053203974
-4.212571	priced	-0.053203974
-3.7215505	consumers	-0.124697685
-4.0597653	expect	-0.053203974
-4.212571	optima	-0.053203974
-4.212571	sibling	-0.053203974
-4.212571	hyundai	-0.053203974
-4.212571	sonata	-0.053203974
-4.212571	sedan	-0.053203974
-4.212571	marketplace	-0.053203974
-4.212571	floods	-0.053203974
-4.212571	caution	-0.053203974
-4.0597653	citigroup	-0.053203974
-4.212571	dropped	-0.053203974
-3.8613431	$25	-0.1514074
-4.212571	aig	-0.053203974
-4.212571	$47	-0.053203974
-4.0597653	step	-0.21032563
-4.212571	mccormack	-0.053203974
-4.0597653	following	-0.21032563
-4.212571	russian-georgian	-0.053203974
-3.615966	meeting	-0.053203974
-4.212571	geneva	-0.053203974
-4.212571	editor's	-0.053203974
-4.0597653	note	-0.053203974
-4.0597653	ron	-0.053203974
-4.212571	fournier	-0.053203974
-4.0597653	covers	-0.053203974
-3.8613431	politics	-0.053203974
-4.212571	galaxy	-0.053203974
-4.212571	14-minute	-0.053203974
-3.8613431	stretch	-0.1514074
-4.212571	buddle	-0.053203974
-4.212571	match	-0.053203974
-4.0597653	overall	-0.053203974
-4.212571	ubs	-0.053203974
-4.212571	client	-0.053203974
-4.212571	withdrawals	-0.053203974
-4.212571	narrowed	-0.053203974
-4.212571	francs	-0.053203974
-4.212571	one-third	-0.053203974
-4.0597653	56	-0.053203974
-4.212571	flowed	-0.053203974
-4.0597653	fourth	-0.1514074
-3.7215505	quarter	-0.16748111
-3.8613431	finally	-0.053203974
-3.8613431	himself	-0.053203974
-4.212571	pregnancy	-0.053203974
-4.0597653	advisory	-0.053203974
-4.212571	bpas	-0.053203974
-4.212571	updated	-0.053203974
-4.212571	interpretation	-0.053203974
-4.212571	1967	-0.053203974
-4.0597653	abortion	-0.053203974
-4.212571	dose	-0.053203974
-4.212571	ema	-0.053203974
-4.212571	gimmick	-0.053203974
-4.212571	blackouts	-0.053203974
-4.212571	section	-0.053203974
-3.8613431	opens	-0.053203974
-3.8613431	closes	-0.1514074
-4.212571	non	-0.053203974
-4.212571	sequitur	-0.053203974
-4.212571	thatâ	-0.053203974
-3.615966	works	-0.053203974
-4.212571	133-yard	-0.053203974
-4.212571	outing	-0.053203974
-4.212571	re	-0.053203974
-4.212571	giant	-0.053203974
-4.212571	ll	-0.053203974
-4.212571	chalk	-0.053203974
-4.212571	suffocating	-0.053203974
-4.212571	ferocious	-0.053203974
-4.212571	defensive	-0.053203974
-4.212571	champs	-0.053203974
-4.0597653	beyond	-0.053203974
-4.0597653	expand	-0.053203974
-4.212571	setting	-0.053203974
-4.212571	aside	-0.053203974
-4.0597653	extra	-0.053203974
-3.8613431	existing	-0.053203974
-3.7215505	students	-0.053203974
-3.8613431	certainly	-0.053203974
-4.0597653	stuff	-0.053203974
-4.212571	saline	-0.053203974
-4.212571	bacon	-0.053203974
-4.212571	cooking	-0.053203974
-4.212571	»	-0.053203974
-4.0597653	version	-0.21032563
-3.8613431	appeared	-0.053203974
-4.0597653	print	-0.053203974
-3.8613431	page	-0.053203974
-4.212571	bu5	-0.053203974
-4.212571	edition	-0.053203974
-4.212571	britons	-0.053203974
-4.212571	mistakenly	-0.053203974
-4.212571	landed	-0.053203974
-4.212571	canada's	-0.053203974
-4.0597653	sleepy	-0.053203974
-4.212571	sydney	-0.053203974
-4.212571	australia's	-0.053203974
-4.212571	bustling	-0.053203974
-4.212571	metropolis	-0.053203974
-4.212571	cape	-0.053203974
-4.212571	breton	-0.053203974
-4.212571	tourism	-0.053203974
-4.212571	afp	-0.053203974
-4.212571	motorcycle	-0.053203974
-4.212571	faster-than-the-speed-of-light	-0.053203974
-4.0597653	partner	-0.053203974
-4.0597653	firm	-0.053203974
-4.212571	phnom	-0.053203974
-4.212571	penh	-0.053203974
-4.212571	cambodia	-0.053203974
-4.212571	cultural	-0.053203974
-4.212571	khmer	-0.053203974
-4.212571	rouge	-0.053203974
-3.4601321	prison	-0.1359717
-4.212571	becoming	-0.053203974
-4.0597653	documentary	-0.053203974
-4.212571	archive	-0.053203974
-3.8613431	played	-0.1514074
-4.0597653	tragic	-0.053203974
-4.0597653	youthful	-0.053203974
-4.212571	glassmakers	-0.053203974
-4.212571	brazil	-0.053203974
-4.212571	breathe	-0.053203974
-4.212571	toxic	-0.053203974
-4.212571	silicone	-0.053203974
-4.212571	arsenic	-0.053203974
-4.212571	fumes	-0.053203974
-4.0597653	stanley	-0.053203974
-4.212571	holders	-0.053203974
-4.212571	13-2-3	-0.053203974
-4.212571	6-0-1	-0.053203974
-4.212571	mansyurdin	-0.053203974
-4.212571	chaniago	-0.053203974
-4.0597653	judge	-0.053203974
-4.212571	suryani	-0.053203974
-4.212571	rupiah	-0.053203974
-4.212571	$27	-0.053203974
-4.212571	420	-0.053203974
-4.212571	upon	-0.053203974
-3.7215505	missed	-0.053203974
-4.212571	bakers	-0.053203974
-4.0597653	nervous	-0.21032563
-4.0597653	salt	-0.053203974
-4.212571	response	-0.053203974
-4.212571	criticism	-0.053203974
-3.8613431	advice	-0.053203974
-4.212571	sympathetic	-0.053203974
-3.7215505	saying	-0.053203974
-4.212571	woke	-0.053203974
-4.0597653	morning	-0.053203974
-3.7215505	mortgages	-0.124697685
-4.212571	boal	-0.053203974
-4.212571	perspective	-0.053203974
-4.212571	attitudes	-0.053203974
-4.212571	explain	-0.053203974
-4.212571	separation	-0.053203974
-4.212571	floyd	-0.053203974
-4.212571	stockton	-0.053203974
-4.0597653	generation	-0.053203974
-4.0597653	felt	-0.053203974
-4.212571	belonged	-0.053203974
-4.0597653	word	-0.053203974
-4.212571	bono	-0.053203974
-3.8613431	criticized	-0.124697685
-3.7215505	social	-0.124697685
-4.0597653	networks	-0.053203974
-4.0597653	twitter	-0.053203974
-4.212571	facebook	-0.053203974
-4.212571	variety	-0.053203974
-4.212571	blogs	-0.053203974
-4.212571	storytelling	-0.053203974
-4.0597653	acting	-0.053203974
-4.212571	previews	-0.053203974
-4.212571	buyer	-0.053203974
-3.8613431	independent	-0.053203974
-4.212571	lebedev	-0.053203974
-3.5310967	0	-0.41440883
-4.212571	below	-0.053203974
-3.7215505	october	-0.053203974
-4.212571	resettling	-0.053203974
-4.212571	extensive	-0.053203974
-4.212571	hill	-0.053203974
-4.212571	delves	-0.053203974
-4.212571	insider	-0.053203974
-4.212571	references	-0.053203974
-4.212571	pixar	-0.053203974
-4.0597653	films	-0.053203974
-3.7215505	town	-0.23831756
-4.0597653	started	-0.053203974
-4.0597653	parade	-0.053203974
-4.212571	features	-0.053203974
-4.212571	engines	-0.053203974
-4.212571	bikes	-0.053203974
-4.212571	sullivan	-0.053203974
-4.212571	shooter	-0.053203974
-4.212571	self-inflicted	-0.053203974
-4.212571	gunshot	-0.053203974
-4.212571	wound	-0.053203974
-4.212571	oh	-0.053203974
-4.212571	georgia	-0.053203974
-4.212571	maze	-0.053203974
-4.212571	boarded	-0.053203974
-4.212571	storefronts	-0.053203974
-4.212571	aging	-0.053203974
-3.7215505	buildings	-0.053203974
-4.212571	parking	-0.053203974
-4.0597653	lots	-0.053203974
-4.212571	emptied	-0.053203974
-4.212571	edward	-0.053203974
-4.0597653	murrow	-0.053203974
-3.7215505	died	-0.053203974
-4.212571	buckley	-0.053203974
-4.212571	cared	-0.053203974
-3.8613431	spain	-0.053203974
-4.212571	spirited	-0.053203974
-3.615966	safety	-0.10942635
-4.0597653	schedule	-0.053203974
-4.212571	arrive	-0.053203974
-4.0597653	christmas	-0.053203974
-4.212571	lure	-0.053203974
-3.8613431	shoppers	-0.053203974
-4.212571	wielding	-0.053203974
-3.615966	already	-0.053203974
-4.212571	pristina	-0.053203974
-3.7215505	airport	-0.053203974
-3.8613431	offered	-0.053203974
-4.212571	discount	-0.053203974
-4.212571	afa	-0.053203974
-4.212571	advertised	-0.053203974
-4.212571	billboards	-0.053203974
-4.212571	roadway	-0.053203974
-4.212571	terminal	-0.053203974
-4.0597653	downtown	-0.053203974
-4.0597653	ladies	-0.053203974
-4.212571	gentlemen	-0.053203974
-4.0597653	i'm	-0.053203974
-4.0597653	proud	-0.053203974
-4.212571	parliamentarian	-0.053203974
-4.212571	historic	-0.053203974
-4.0597653	convention	-0.053203974
-4.212571	writers	-0.053203974
-4.212571	denis	-0.053203974
-4.212571	thanyarat	-0.053203974
-4.212571	doksone	-0.053203974
-4.0597653	contributed	-0.053203974
-4.0597653	wanted	-0.21032563
-4.0597653	pushed	-0.053203974
-4.212571	margins	-0.053203974
-4.212571	lethal	-0.053203974
-3.7215505	internal	-0.053203974
-4.212571	immelt	-0.053203974
-4.212571	mentioned	-0.053203974
-4.212571	contender	-0.053203974
-4.0597653	sweden's	-0.053203974
-4.212571	electrolux	-0.053203974
-4.212571	second-biggest	-0.053203974
-4.212571	appliances	-0.053203974
-4.0597653	questioned	-0.21032563
-4.212571	discussions	-0.053203974
-4.0597653	george	-0.053203974
